[[[0.5816611217989573, 0.7251484360097802, 0.8745567417518643, -0.044274936412538546, 0.8350801233573413, 0.8954395764206511, -0.5492569777198661, -0.7880489257162782, 0.27883698783423516, -0.9983419789374033, 0.11828225365421186, 0.7161664719238598, 0.40777114647218854, 0.7053186999631187, -0.36847529739077084, 0.0736333047053039, 0.01848111327294011, 0.6904207823088573, -0.030704700995819234, 0.4161447004453258, 0.6909635634504416, 0.5475267253869354, -0.13112075593793682, 0.8355815674179317, 0.5412231355765855, -0.13255825411910638, 0.416471415256203, -0.2586149658379402, -0.904467122686679, -0.785276578171654, 0.3368991783300326, 0.466553111030225, -0.01759076733232808, 0.8123009151371076, -0.1561488658455551, -0.6657330596759767, -0.8835492947135675, 0.45026303849280436, -0.6781852639544854, -0.5648964040277494, 0.9502469507336794, -0.6213249262130418, 0.68525285393479, 0.10863958250910502, -0.9901356702807989, 0.6747125876389078, -0.5669937381458808, 0.5406507595348274, 0.7120860654191585, 0.17740800325237696, -0.43612683529380336, 0.6868959028385175, -0.6686870193303109, -0.7385836195038056, -0.24121175324095678, 0.5579796569361133, 0.9424191119004659, 0.5131125190152483, 0.25494721349081917, -0.42848583665833223, -0.10355868330912704, 0.7111458922976795, 0.3375305208799817, 0.6179197893569499, -0.0704027051754707, -0.5711657445060636, -0.7972940310070876, 0.5517593868038679, 0.17484941061497025, -0.16365817491852414, -0.9464902630044724, -0.5778973025491104, -0.4853386820164687, 0.4641634941429495, -0.4487933945580069, 0.07897909714792069, 0.6395667686206061, 0.4502450246068146, -0.07442241754559821, 0.31313613338629814, -0.2704550853415701, 0.5225451780947217, 0.8257456752349994, -0.254607846815307, -0.14754934053848423, -0.6257776307992997, -0.033012467110564325, 0.0015425194962733028, -0.45892372851376084, -0.8306903749551379, -0.6965912199748763, -0.6649948807772889, 0.26032424089015044, -0.5785117541415358, -0.18818818099130083, -0.25039560506857916, 0.6747715760946704, -0.2592030003968343, 0.450492011891747, -0.9184987620271027, -0.8893708817012685, -0.15055556835006095, -1.0099413019438206, -0.38820732868828767, -0.08925583921358204, 0.25701705279912557, 0.744665930629874, -0.47997044048441784, -0.6824466063572157, 0.5577242081718023, -0.3062923634626177, -0.10935953979599233, 0.4475419378331207, -0.5263066867349362, 0.28288190586197093, -0.9436378105780597, -0.6796688454415505, -0.5394119691775705, 0.7837143032286736, -0.8853909822427556, -0.7758456077450016, 0.2917070569223072, -0.5059452260299968, 0.40211072545146515, 0.3626012313849018, -0.3270997110248093, 0.41732371189356154, 0.7352537957613858, 0.06432727139435779, -0.062322652560171804, -0.3936705356361867, -0.8048096577874139, -0.5641098823528035, 0.36734375196142266, -1.024919662284983, 0.30758115510021006, 0.9435209681944855, -0.5347855890414371, -0.8542358619525792, 0.8544598793964369, -0.9158354613378497, -0.7250504356694876, 0.8085687080610459, 0.8249430451593496, 0.8787424074876661, 0.27495064345129683, -0.6537565689257291, 0.06678477730435496, 0.2619148781510473, 0.2246134634722506, 0.752650857880741, 0.6256681553704679, 0.6215467077936716, 0.06838513645513782, -0.6955684301329128, -0.05623043940280199, -0.4877132288858872, -0.9147482543902853, 0.4302585348158408, -1.5153613680481965, 0.06106480455998774, 0.038062412582498484, -0.3738046469684033, -0.6684898674691254, -0.14017894463117794, 0.3826516912301242, 0.2146466394199379, -0.4667176063680175, -0.6263743157906634, -0.8550852327927208, -0.048258106177309384, 0.7932975697327855, -0.4566746742171971, 1.173258883771814, -0.5422667215974338, 1.2027748005878904, 0.04368177788001742, 0.11880106528635007, -0.03237019204562192, -0.1446793066390952, 0.4722574560102777, 0.10974380285567815, 0.05357888507722741, 0.4755855183440098, -0.3408401262036149, 0.7530474799497265, 0.756776690635675, -0.9004023572111609, -1.1439123161993254, 0.5172018077983881, -0.7361366287304613, -0.16845991938602653, -1.0376753588047158, -0.24719745770122337, -0.3231179561509735, -0.9736577519488631, -0.9745035538868233, 0.2448651287232335, 0.6158969645953556, 0.217497925948418, -0.08485642304897645, 0.10445710934298205, 0.44059154050944477, 0.5375440487908932, -0.17037022350334088, -0.7783240193803842, -0.4945780764732601, 0.7361716527499577, -0.1965738538312554, 0.6843700711087698, -0.794157381052004, 0.3836735058430376, -0.10549829115625972, 0.2575670034833522, -0.8961070043213606, -0.5175851365075285, 0.7329939152005195, -0.3371754781155448, 0.6179865203743837, -0.055190278259967654, -0.33294569289438997, -0.6901187092582896, -0.01122455930405644, 0.03484628985888202, 0.5631107099598908, 0.8002357300292969, -0.25301298974086484, -0.33768285300711187, 0.9158219711049175, 0.8786377390553711, 0.17862642427691786, 0.755804408646325, 0.3321308397694824, 0.8061695992871237, -0.3598866045915967, -0.6861641859504058, 0.001681175313733821, 0.6486093387997547, 0.10725983747518779, 0.3639556730073147, -0.18119314505172834, 0.2781184350020094, 0.20008662588792675, -0.4761811558994954, 0.38389861314116325, 0.11162412848346301, 0.07640113079015821, -0.2090415705887539, 0.00435995290647525, -0.7189532244528382, 0.36912989157685117, -0.17546433440417958, -0.8499761997070744, 0.5759740496989134, -0.620372658430206, 1.0997000495843205, -0.4656923756719933, 0.6975520397261092, -0.35005708515312167, -0.27124762266028135, 0.17893199301548646, 0.19055942039556295, -0.24852079836455696, -0.7929746834743548, -0.5382683551153559, -0.6528352302415453, -0.4426655811797208, 0.2829873755436958, -0.01721888843028937, 0.37016027369505394, 0.6027347658056742, 0.04927695373734537, 1.4547501059179595, 1.5158831467909062, -0.1606412852445783, -0.2075291957090284, -1.255495839803075, -0.3862247271433187, 0.25749530470382714, 0.8744384929207522, -0.5624177127903435, 0.9066039470334388, 0.1364296631952749, -0.7807705828737205, 0.27515021022936875, -0.4741192883769251, -0.4475631608253877, 0.26664078771448907, -0.5473707077693865, -0.35322433709428724, 0.2714061337230739, -0.48481578633028327, -0.4001563594802772, -0.41948920918404375, -0.623208586353531, -0.104522806626588, 0.3983776350044636, 1.3481557382580782, -0.2672464279478774, 1.5334711855754493, 1.2502195955749384, 0.30742993758905496, 0.5109053816892234, -0.6099899135789747, 0.15485352435627506, -0.22768556677630564, -0.7819518396204439, 0.16088998564226528, 0.7530599530346077, 0.5752057886275684, -0.22022773815080485, 0.21104622052137306, 0.7741220557395965, 0.25107367819607307, -0.41342697316725535, -0.39896107898564404, -0.8874927754293431, -1.2150648234644092, 0.21082083428687268, -0.8269603816427229, 0.527670297636493, -0.5790559417470172, -0.13039010329778056, -0.27576238056916447, 1.2876789703212077, 1.6446750296096762, 1.0001147692544938, 1.6936586120636963, 0.4584312905945443, 0.2854787993120457, -0.4498087946457781, 0.4290829244265301, 0.10513883965375327, 0.8663629836582131, -0.14912764364251793, -0.06285029526569609, -0.8354218338037844, 0.70420323842257, 0.11289193509449037, -0.8365738326802552, -0.06854760278204262, -0.36887322042167736, 0.29256072502816294, -0.12808526208933174, -0.09466923825308265, 0.48152676308680964, -0.7913386655846919, 0.4504157542398885, -0.7710238672364833, 0.3992455513592177, -0.14055400556617556, 0.7957261082478403, 1.2609890775101638, 0.5018682397909259, 1.172113463468018, -0.07265345504719534, 0.6456364812444065, 0.4588534460927548, 0.02481161068392799, -0.12487207588364507, 0.18816449579208983, -0.4110208040214017, 0.8263806441493298, -0.7553422339810797, 0.8231116319858119, 0.2570164318285083, -0.2190026279611085, 0.11125244687470559, -0.7644901921498823, -0.8429302124708039, -0.3106293714051549, 0.2780078842336151, 0.16881800824988588, -0.4948781291207887, 0.4068647985457513, 0.06273990807359298, -0.45498796244205647, -0.42130268197371545, -1.372464617142398, 0.6932236093448237, 0.3243314606732053, 1.3620050158445989, 0.1066683049556264, 0.733918556935078, 0.2641952479459663, 0.36527706836740825, -0.4398285936807382, -0.5422743218852341, -0.16838184281045068, 0.7978678465544324, -0.2867128723747731, 0.9729919191961535, -0.835595193691684, -0.5117612266230248, 0.595099626283716, 0.4770953571934213, 0.37747371886031883, 0.05333970499660822, -0.511875243699428, 0.6875702600930662, -1.1333116787956614, -0.7367935750789214, -1.3569233497342585, 0.42730106716719235, 0.44854629634520854, -0.9577653602830647, 0.030576798958882816, 0.2666354492761299, 0.7080652804641119, 1.732376147100799, 0.8441588695220367, 0.21563014070594425, 0.18243199523285633, 0.5930416831234363, -0.05464364371341762, -0.9411684229348275, 0.5275170660173669, 0.8892252208451897, -0.31207044882591994, -0.4239861750699833, 0.4614878232945756, -0.7988255356002684, 0.28474060163104986, -0.28582152058051247, 0.7187801480820594, -0.9531232090024029, -0.3211877755326697, -0.12132505867528555, -1.1682801238216607, -0.34318236324769125, -0.9242874004977228, -0.21741362285440322, 0.3739961812275399, -0.5287310363002979, 0.1150133284333882, -0.18733309365475775, 1.2906988010039222, 1.3285136772820563, 0.8525561607623907, -0.494973370788552, -0.7261324125575658, -0.6446101091723807, -0.5040795973562657, 0.3702742366363516, -0.6433925460848253, 0.5868056018607232, 0.2384803938471475, 0.2877006974817914, 0.09526204685220635, -0.9438646360528664, 0.8798420222844795, 0.09255191492190971, 0.1208450181134826, 0.26241130108378247, -0.13658288379269676, 0.5814985757500888, 0.5994397747448721, -1.2688862304931048, -0.3136639873097243, 0.12153644912227762, 0.268882513517777, -0.7832977149448345, -0.33536877179908836, 0.8524587129355272, 1.2843261145523768, 1.3728987152677858, -0.01336130066718345, -0.18504206695746855, 0.7133619859471866, -0.21982947940215714, -0.9811394808726971, 0.6585137712925933, -0.7463786678931135, 0.45303116738708404, 0.4472527290867636, -0.8979770556050237, 0.7087224993797461, -0.31053423673596314, -0.5435940421985025, 0.6751668451351756, -0.6253340456385995, -0.1521244419339609, -0.15365798485500562, -0.5413156503433301, -0.763297124333187, 0.14550352658474983, -0.5400388829054158, 0.2176371151623257, 1.0563603195370295, 0.5456344520349731, -0.560203291749133, 0.25405476526608756, 1.0717210450090777, 0.17585873899229532, -0.3880519775536197, 0.7711378324367903, -1.4544355023953361, -0.0041690991571699575, -0.9142135966614854, -0.670192525466677, -0.5284230983194613, 0.2018079670833216, -0.8791780229007455, 0.7343517973869621, -0.15423855287685173, -0.5927367658426758, 0.0326560969039892, 0.36813381330661515, 0.2861251631442641, -0.4820260139558818, -1.2681442825831721, -1.4640359902504045, -0.14294780042867364, -0.3647877260455561, -1.002510023451037, -0.7769468483838956, -0.18080747151000912, 0.542010147276517, 0.22148950737837608, -0.0006645785778791363, 0.5797027122216712, 0.4212622872049348, -0.19326796486483935, 0.37188549736464765, 0.28561204939160895, 0.9702842864617827, 0.35786332603803195, -0.42253006299131063, -0.5654769206297242, -0.5623338417613599, -0.8997124539702387, 0.3355276896234533, 0.7801571110867179, -0.5282148329203764, -0.0014635551777768135, -0.19272091912434244, -0.3395899930250052, 0.3085588500528977, -0.024721020002585328, 0.2026713586591321, -0.5325948827412396, -0.08008159283772204, -0.19575480429578035, -1.816865058622493, -1.2490201069281806, -0.7720923657950132, -1.275792337067511, -0.16567244513086665, -0.8979518749008277, -1.0170292811284563, -0.7185256914386896, 0.31488412645528296, -0.6516704720978679, -0.33323484869299597, -0.3192426938816135, -0.2649682495541628, -0.28486991982792015, -0.48958587392195774, -0.8010519099400748, 0.2120813966592515, 0.6207762136290453, -0.9819173021419839, -0.33544955862729137, 1.078859608582497, 0.019423975108175402, 0.7329919524360321, -0.2736078303037178, 0.10474141552898468, -0.5861588380967195, -0.17831215509511383, -1.1492063618548582, -1.1597855431588633, -1.5533297759313438, 0.0587741127016462, -0.790795387235462, 0.003419349840056235, 0.821878950474857, 0.538691305229818, -0.12002137550161227, -0.6335272996570346, -0.41290146723914584, 0.7198257796903548, -0.263549183148953, 0.5015083912191157, 0.00920218659856863, -0.8723003279022369, -0.258415811363439, 0.9220746835779352, 0.42804404614590336, 0.6365761371931522, -0.7805330023374173, -0.6689593162147274, -0.011985748083117354, -0.47837061720977264, 0.8597758420878475, -0.9941695220476776, -0.08808042064045807, 0.3383792536915237, -0.4621886233513039, -1.1341750152306573, 0.7339652152764714, 0.5751102522648205, 0.23596862309636732, 0.8660625130027488, -0.7882222423415386, 0.019342788933911684, 0.3310852300657512, -0.10367825345653703, -0.517251760651828, -0.6489739854123223, -0.4008323601629627, -0.5003658672744921, -0.9085041068635652, 0.2529889724200544, -0.8834919391529532, 0.03729064170090261, 0.09848308998232394, 0.8284125475238756, -0.8448944098312894, -0.27869719753730526, -0.12408682942145827, 0.09898740062190119, 0.2076864651767837, 0.18940127403550752, 0.7330890854078965, -0.8311919271391714, 0.34229670090173103, -0.6046187862089044, -0.03686383884821173, 0.36761538083343315, -0.38722896258816625, 0.4645434471832956, -0.006483828824460106, 0.6696003805670313, 0.060944865575056795, -0.485846895147457, 0.7185149511546342, -0.9235313893019502, 0.545155486097885, 0.4469945207691507, 0.6787201097621902, 0.7611765854695064, 0.5692882806441674, -0.017886184321895107, -0.27629798972289055, -0.3993673050694575, 0.7436313628796023, 0.2034514773362123, 0.503048776994651, -0.3005426406372138, -0.2596388900544349, 0.8458448670819356, -0.3089976279273351, -0.2806067593378012, 0.48600328884405186, -0.5797911696301609, 0.20220439140044785, -0.48235781057009963, -0.7845224950904551, -0.10908924125117679, 0.4069900409360369, 0.2168927922853459, 0.22292832167364474, 0.6585586549413487, -0.34524156923493204, 0.8942749981575737, -0.7934526421919315, 0.4459734854669083, 0.1793279712004125, 0.7744225383760109, -0.41173740674881404, 0.812493284922297, -0.49662080750784465, 0.014832785640216173, 0.5354710910890521, 0.36692667204433177, 0.7312611400568338, 0.4304511130754586, 0.3969846632756509, 0.3152688232210781, -0.19116944675022493, 0.5329157450439299, -0.30811897907362235, -0.7484394632715958, 0.1329014012880738, 0.28132697330694023, 0.6698573616036523, -0.09221488931997009, -0.7715146983993272, -0.16468261863734465, 0.010424309409344489, 0.32943106186526705, -0.4393217631318426, 0.3502493323449636, 0.008759788165072379, -0.3619486294929557, 0.8204110106231891, -0.4625473801455427, 0.3266824688091744, -0.6216965857559011, 0.4748516713686999, 0.04961049649289606, -0.3168862161719713, -0.08023987772868257, -0.5382764318412058, -0.08076635700902345, 0.9434970444405932, 0.15977873339783233, 1.033426735056891, 0.6775301888410513, 0.3767567246013033, 0.35821184139994494, 1.0946255256974586, 0.2249484888970329, 0.8886935201993975, -0.02931014934410208, -0.3529224348446348, -0.44588471495615223, 0.5889545247461526, 0.1832012828712864, 0.5860726272133358, 0.31527558166473374, 0.2940443964371975, 0.916962404801066, -0.5844101945226093, -0.77076346910075, 0.7971412789201896, -0.07440738062219188, -0.1648319971233163, 0.7881672660410421, 0.9881087149312309, 0.06600757006950728, -0.339609809543028, -0.4390752933483861, -0.20481952091886613, -0.6642312983952817, -0.6660414916978786, -0.05575190804178931, 0.14219037721992675, -0.4592958753035122, 0.14475593064806883, -0.16888305930932, -0.5974636791265316, 0.5612217838853986, -0.1433222968532086, 0.7972475250207623, 1.0008961608297278, -0.05194643821811143, 0.2860407430567542, -0.9280255227051976, -0.9099494594895792, -0.8965463718192801, -0.3479017951336373, -0.7271005710957605, -0.7864148137749019, -0.9254260443683686, 0.05418587394955887, 0.6252882181220143, 0.2562845855969944, 0.4421327409578242, -0.3521723766313097, 0.03847116097618395, -0.12297958497670655, 0.39186562294409266, -0.5961822849065121, 0.22673755461032377, 0.15506484723417321, 0.14984480504317096, -0.2600949232282473, -0.91174051359743, 1.0127834956368178, 0.3709319546865056, 0.23846348226756678, 0.8631882578870476, 0.17175903405955736, -0.5754074155293161, -0.7799000277717831, -0.9211269931095912, -0.853714730265243, -0.38356002383348087, 0.6209242998681488, 0.8632181634166907, -0.5115970403260621, -0.7098372220171789, -0.022298799843037537], [0.6203925423313885, 0.1706691622689427, -0.02596606033223936, -0.676351461255146, -0.24025369864099688, 0.29001610712835624, -0.8726766713324698, -0.1923684136586934, 0.6015313611274318, -0.15505297634769755, 0.7131620186105905, -0.9942837207954347, -0.5214624842871255, -0.5887567696898878, 0.7144732992409961, -0.7425086529947221, 0.589248039928119, -0.44709510730941293, 0.2770251860964268, 0.7728860976423606, 0.04659597022601769, -0.5506918399555878, -0.9053636077264797, -0.07528008889387738, -0.09371497252530836, -0.4814210834951731, -0.08633252459785434, 0.8768667542945112, -0.7881905451151319, 0.3734068359912508, 0.6525880367696364, 0.9101705010626644, -0.030384423826109213, 0.9786793922904973, -0.9746823825259305, -0.9302248456047087, -0.8652129820336147, 0.9655263146609944, -0.4757207287125891, -0.06616326161880384, 0.2149128972398105, 0.34769860798868124, -0.3329478579289188, -0.01770474114235627, 0.485032369379121, 0.8041327206891036, -0.1450919059954292, -0.5707912391398697, 0.8484427807985034, -0.5388051607267299, 0.3092238603852292, -0.030624019740185523, -0.8236092265051538, -0.24819815824454716, 0.05247926789769841, 0.8850563085921253, 0.5909613751412564, -0.6709515261270276, 0.48173902832082705, -0.9721250230477142, 0.31532130330209074, -0.6187552130206222, -0.47675986383393776, 0.22379827241944772, 0.3028771694053248, 0.6997571263700374, 0.7182916203410961, -0.9625244707572643, -0.7835065941163352, 0.4199550547401771, 0.1931744811514392, -0.24751565702284345, -0.7550956950925135, -0.14567856498401902, 0.12375378970111513, 0.6619126166326118, 0.5081995483298511, -0.11837155210284193, -0.2205185336469918, -0.2659947501154669, 0.7717812625437123, -0.7239445806247905, -0.19693917111900205, 0.06261206086261994, 0.3754729158993402, -0.6535877723079668, 0.1327372573081634, -0.9301339376571249, -0.5627626264298192, -0.1967764440277761, 0.982408112486419, -0.8883213610352922, -0.7880278152318368, -0.5207992505384976, -0.8663304660473613, 0.7491831113174253, -0.6843914968036722, -0.4162591488170378, -0.5195402935516855, -0.8097546354073778, -0.2461579996586257, -0.6678469040471884, -0.15305308819596006, -0.307129021478898, -0.7551522880310034, -0.17770303366699577, 0.8269908772398219, 0.4841360604661592, -0.18771719838873877, 0.9606870458182046, 0.23713165237194994, 0.6024521501586753, -0.06425970288414229, -0.549008420542383, -0.8737292706006438, 0.5469932279710185, -0.737849781439719, -0.7383803438217534, -0.27032048678803644, -0.7264722565703416, -0.45453054194245596, 0.7032773192116358, -1.0896148430879515, -0.13138960197815683, -0.030695454209660945, -0.766230626093092, -0.9127249607847169, 0.45116906830185716, -0.44778636555826073, -0.5682446039174746, 0.6752805876448956, -0.0023879035632328022, -0.07828061519083832, 0.5423394932461073, -0.6514702759579771, -0.16598020973344163, 0.38570125207143613, -0.795570877414753, -0.23601831716731997, -0.45977980587673817, -0.8404981045651705, 0.3702477835133833, 0.31982320610900256, 0.6555116757828272, 0.7502833451423732, 0.821729364486418, -1.146525458911141, -0.5533585240098823, 0.3959073780646734, -0.6431563278409971, 0.2437854183815635, -0.3825705363358149, -1.542940690619425, -0.3831752567550581, 0.002887728623452596, -0.42978882494516574, -0.1144102654506638, -0.3922957658598467, 0.587226258954156, 0.19849909685642658, -0.09767225494951257, -1.000738586611854, 0.24343490709184923, -0.9945396914778122, -0.7659667362544285, -0.7508589614425348, -0.009857807990954176, -0.8816427690465914, -0.5099024370782521, -0.24575356155269326, 0.40568270465175105, -0.11610594716626021, -0.8488270703812797, -0.6510906609965728, 0.15895080598943248, -0.9440754578841547, -0.2901141170965939, -0.10474309874837254, 0.31939583267637495, -0.13869423705339254, -0.21937391202283107, 0.4744733447990436, 0.3859130681837675, 0.18716196364279586, -0.0528200625517566, 0.6242885472401577, -0.5012803848746632, 0.02212781608019524, -0.6312476095592154, -0.024945272840526708, -0.4826556744563361, 0.7830973820719386, 0.3928865688964165, -0.416122094361352, 0.07926258131984143, 0.313253145189834, 0.6968861967872683, -0.5376086888907409, -0.1931695627531271, 0.6640099835284502, -0.030332691441016604, -0.9089558439583864, 0.14502428576118934, -0.43466916863762056, 0.2796000709155691, -0.10912800901292002, 0.4176858039760644, -0.49285679498724094, 1.473718167580083, 0.14374996102488816, 0.1599071006745341, 0.4628907135518333, 0.697579512387135, 0.12648682735147496, -0.7972778833118063, 0.05334731875136703, 0.4945863263609832, -0.40668987848896293, 0.18219649607083827, 1.1333213398241009, 0.9768424205494342, 1.086893128577668, -0.20154405504797343, 0.7133292764778804, 0.23312194410773351, -0.4373923578323565, -0.12014728034635422, -0.3971405056798766, -0.4038737207895432, -0.7637207592218584, 0.654091492791217, -0.20135975731938016, -0.08809312521789517, -0.23197411126579595, 0.4533821802299406, 0.43827152293740645, 0.8830513618469956, 0.42783731410299863, -0.11403241455938798, 0.9041668259729612, 0.040859206498074424, 0.29531765567024354, 0.06501655125681527, -0.0013401055855648825, 0.32202399440480256, 1.1360884079382436, -0.05153267629465053, 1.6397988662529845, 0.5918479033345382, 0.9776847898445884, -0.36035522416440685, 0.9751075550834292, 0.5165191721384756, 0.35723131265823177, 0.9338644332718746, 1.0576782457798388, 0.8914473958614706, 0.2625257507581976, -0.3205828258269074, -0.23296260578308267, -0.05044858238492994, 0.3800229425103904, 1.3297944559466193, 0.16246472840305068, -0.6856195986450306, 0.4623142482062629, -0.017710179270336593, -0.5238047934755145, -0.24316575607738117, -0.42474550039105113, 0.586469226516609, -0.18821388132258896, 0.4628268040621583, 0.43633570995387116, 0.32974823762793265, 1.451498923918258, 1.400483628300834, 0.4006512163234108, 0.09019444752985009, -0.6318434131633746, 0.9566955597759279, 0.4147414288851831, -0.33037516066368744, -0.8405014874446144, -0.39866277852302034, 0.2985870148282879, 0.6623646844941244, 0.4874517036378196, 0.28772541226182313, 0.3731757852322878, 0.2861393135517244, 0.680784835602421, 0.6935895110085778, 1.072011597853276, 0.06959389263533988, -0.3589495962023436, 1.0630503395869786, 0.13354225597344102, 0.36035835574677644, -0.25034530914491876, 0.3766122587341512, 0.5615428458844093, 1.3574184359681383, -0.13949259905805447, -0.3859918957960974, -0.09872153463877525, 0.2839932445267833, 0.5139642039918858, -0.704130928168582, -0.29963345425684296, 0.89119760933188, 0.5202776975274539, 0.45498801780567744, 0.47696413152086764, 1.0026518683927708, 1.6432369427763795, 0.7268097814766088, 1.4435664935267551, 1.2228709596103193, 0.1296336060756573, 1.8927118135379168, 0.593905155717874, -0.11357462537510529, 0.5408757484305481, 0.3267759586733165, 0.18393224909899308, 1.1052955139171339, -0.3139244134661487, 0.20398565389335924, 0.7656019472758161, -0.2764476282570178, 0.8736586104620734, -0.03940093135062366, -0.7837300256828306, -0.6648198179460129, -0.19219415809877666, -0.934281522883973, 0.6024800185536178, -0.07619102682010248, 0.30247532015747575, 1.171905717563742, 1.157891603431322, 0.715565034797003, 0.46393798491063537, 0.49359559080194315, 0.09588319926501214, 0.9386216430072124, 1.655728926246766, 0.7851530135948195, 0.8478447600543021, 0.05384220001863624, -0.5399184178350118, 0.1981628277954055, 1.0428029743950842, 0.7739846151934175, 0.19240329362970232, -0.14827736294781652, 0.001658863752022348, 0.8598328908004933, 1.1545045174789241, 0.9463430825187961, 0.3431874590061691, -0.22231992833037703, -0.9944544838961746, 0.4345203893004984, -0.029390818347966488, -0.29047462820178, -0.28853879065244653, -0.49900139023758605, -0.22247409247679037, 0.45402091205399836, 0.24618843544940477, -0.15141804591426186, 0.07361361398504715, 0.9083464578994606, 1.5757913404016601, 1.5567721842512392, -0.24949288435536207, 0.7111543864030416, 0.5222321177480936, 0.48950201814463373, -0.05426042767662835, 0.007968203640483135, 0.3617289050710945, 0.5534231881897578, 0.8171320792386559, 0.40547131341425413, -0.6402262975209667, 0.5582904460511549, 0.25600630431604066, 0.32196993633847915, -0.4904022486359626, 0.5617213206225449, 0.4933545448631846, 0.9140677982166687, -1.0048415905791113, 0.07901656352188564, 0.7181880426662065, 0.2348638303147736, -0.5435681994677263, 0.16054731694717567, 0.43269647552750357, -0.088448241424611, 1.0194693570697229, 0.6226757015521928, 0.7510823487164204, -0.8820950681101118, 0.050384898674090746, 0.7244728671583089, 0.4204254394062086, -0.991761109843495, 0.06252394693691943, -0.6694063898666383, 0.17450233360826348, -0.5185506600325103, -0.5316194160028802, -0.25256134970063376, 0.23779333553083054, 0.6792008554067491, -0.4831126707388171, 0.1960835135099343, 0.46779152161975884, 0.7384825405076861, 0.08713288231993505, 0.083938373013242, 0.4227588362365355, -0.5068016966496077, -0.24154111280859236, -0.9980968973696118, -0.6268192771287943, -0.03906718033072856, 0.6093541936287475, -0.7886403833329643, -1.1680073996413696, -1.0452316979007357, -0.2162216181993756, 0.11604031567233083, -0.0051645322342124475, -0.19003424582977319, -0.9246990015610078, -0.8102847488261368, 0.463133696874019, 0.5861476411496566, -0.8286428545318462, -0.801797309737479, 0.09720365729811808, -0.012103942873750769, -0.14604890265742668, -0.3533456746912057, -0.7538147475379006, -0.7183821918839842, -0.7227546830247924, -0.6911396250787414, 0.6504787564725631, -0.7001915440785614, -0.4451505598820604, -0.2515238472959103, -0.4560148623360666, -0.07428167872571911, -0.5248220556970354, -0.3012673996575181, -1.0276698432461295, -1.1959833451723483, -1.1439724658961279, 0.39563939102937823, -0.8816166297418171, -0.7501657878884286, 0.54045408313148, -0.643893654684974, 0.3558032271627218, -1.1598707019135908, 0.38978126160353915, -0.2714782083072885, 0.5625770806834682, -0.46871265677193147, -0.3879451716792789, 0.3739601190068884, -0.07412550021955217, 0.38414646781367934, -0.701080651609984, 0.03854378226239931, -0.028763102169942753, -1.2346023588054447, 0.21624991957309386, -0.17392888411560625, -0.45118923361114494, -0.3496003149911779, -0.5200214627719556, 0.2711041789107373, -1.643448537628126, -0.44879792913298616, -0.47084360809424475, 0.1617547615646005, 0.48792273866844577, 0.9730769524971253, 0.03483560495167059, -0.8873092522425717, 0.21777279679365918, -0.686698737573699, 0.013572660582404507, 0.29988833989702895, -1.2126128093544142, -0.9973083473445943, -0.7744564807684501, -0.18850569216819682, -0.9639985522707293, -0.548139259727355, -0.026902896428078527, 0.37062696219916413, -0.8491578406860238, 0.1578891291630875, -0.7088533447891164, 0.02200785675412574, -0.18011137617413947, 0.5149371264720195, -1.0368942993347963, -1.5536718071937947, -0.7477596492170249, -1.6559208485230794, -0.9311572087492329, -0.923771426006642, 0.5578091050176763, -0.8831655152601042, 0.17513726801572257, -0.25209999483376866, 0.1700333222589772, -1.3103201821421995, -0.5471788046620704, -1.17191207193053, 0.8706460886868954, -0.2965260749247633, -0.5456623905835256, -0.29570784534729905, -0.9201443540810949, 0.5097956566778651, 0.9041272101577656, 0.2150822784679964, 0.45624215315114397, -0.42652315411436975, 1.063446938308738, 0.009718451254038914, 0.07858607207743605, -1.0531699446785667, -0.45143290489029375, -0.780753730848393, -1.8828250683542185, -0.883518003442006, -0.4010654887022822, 0.07735072679300894, -0.1919518181224015, -0.2860117568116066, 0.6480440956345291, -0.414945249924387, 0.4776039980393392, -1.233312137114818, -0.39154466090203416, -1.1855214008641346, -0.586077340375983, 0.854421073806832, 0.12613804373905363, 0.2722384001715339, -0.2844386578806478, -0.00283155036986551, -0.3282316832184147, -0.8926106889214064, -0.18812414074618058, 0.6064584608862728, -0.6717936222122098, 0.6560476326639626, 0.8646588326126387, -0.5856229640584656, 0.229126990700245, -0.6969851862748689, -0.20848569418330123, -0.40755614159509435, -0.8026177472201583, -0.6184990453565342, -0.1502566188251615, -0.4931567600369017, 0.5939769940967549, -0.42123679681294923, -0.3450460907458803, 0.4263784703067658, 0.3329596780976438, -0.6890828467148984, 0.6497236401997768, 0.49641792048749644, -0.6866947125538913, -0.7576396656046229, 0.5559270711715656, 0.41011045766384535, 0.8558468643714386, 0.46106881421416457, 0.1700806740097972, -1.3156186383182302, 0.7072649390717651, -0.39115372071978693, 0.7116024420496412, 0.13386290518567748, -0.8055588748236232, -0.05068801171429174, 0.04735404591894378, -0.014345650347171855, 0.18323329407865682, 0.8645697378314492, 0.0814446584711398, -0.8974875904982564, 0.44485232709205236, -0.33448105412185064, -0.8018470505423265, -0.9113017290558977, 0.08497956937308514, 0.3853769390362409, 0.5429524439775397, -0.1407972058033491, 0.7415725674920542, 0.4590976542953999, 0.13449147449327445, -0.572569711286413, -0.618125167727481, 0.264172114945415, 0.5636390068960815, 0.386991835897878, 0.2068993579853506, 0.09340588595825315, 0.14653215341575004, -0.4542176707542941, 0.03606567236166466, 0.5484535089609293, 0.9358332962207393, 0.8919052697858778, -0.5451878273522907, -0.14641512608811344, 0.11354276126663783, 0.43565217780108534, 0.9238882111302807, -0.31721253107510355, 0.2329133713385805, -0.24393253453321564, -1.1126697503981715, 0.3403928701209729, 0.20258911519462394, -0.039889747658810835, 0.028504083158290793, 0.6683856549588927, -0.36664867330620643, -0.004248109737228101, -0.887243098230191, -0.21220519841034513, 0.7101363486403127, 0.4989955956716652, -0.5050442124737355, 0.43600012886166406, 0.020210895802065566, 1.664431828408674, 0.1318916667938657, 1.442497493283865, 0.897044320673867, 0.5344341510128428, 0.3130896145132725, 0.6061985306776647, -0.49146809861308677, 0.13856352407553396, -0.2607217863310659, 0.19413553250611615, -0.551781596233022, -1.008993952637305, 0.31047001538999675, 0.7741311120980282, -0.4240614370081772, 0.8510142596664223, 0.08965581878784201, 0.9217561481787773, -0.3628318005695974, 0.7647255307459572, 0.7902715850554491, 0.4166398473515739, -0.15054793788183016, -0.373685830190126, -0.6484547654795217, 1.2532022634408018, 0.33848613413686535, 1.1810770384254838, 0.39104748150070806, 0.5023809396047647, 1.4102233423967043, -0.22800613908902337, -0.04342831440487297, 1.0967299415696194, 0.5278966841397706, -0.19730872127850574, 0.9468345161491049, 0.9653977810924966, -0.28972442313689756, 0.16166687180303346, 0.5293693884545561, 0.6707587922950073, -0.39744219702380185, -0.49639465810289773, -0.9460838646777865, 0.4920549649498547, -0.6776242528885847, -0.14907172722178674, -0.9682920430105877, 0.39647996849615164, -0.8182900102231063, 0.027417419470210595, 0.03244430304175987, 0.04101673047607867, -0.1169122248955771, 1.2340354816805887, 0.42460720591198153, -0.11864183635017142, 0.3237775584337299, 0.970682898837705, -0.03236473345028459, 1.2861617241264787, 0.5048245529140867, -0.0646925931865035, -0.37894115156111874, 1.2858742284664686, -0.3925257612857921, 0.42512938230241526, 0.6817160871910967, 0.5187538299933883, -0.1555897204389952, -0.36124929193147454, -0.2588443953256916, 0.20552940327822777, 0.46616622019563625, 0.04214366233283395, 0.9202265212420735, -0.9042118992489402, 0.07892314219720525, -0.25236191810966707, -0.7984103431889102, -0.026179402115957866, -0.9317800253892145, 0.0786405712546632, -0.1266229170348994, 0.6784873765599112, -0.25494243044925957, 0.19121511293094876, 0.8171271586285668, -0.039502113000440306, 0.8130212499661941, -0.3451393160164047, -0.4116532872358657, 0.4290821935540332, -0.16751926364765013, -0.35715769636002886, -0.1366532159876883, -0.7437851600751887, -0.1180038182255064, -0.9893151544598171, -0.5777399697366419, 0.45601738883562026, -0.5847694881955365, 0.2849442133938076, 0.7410632585004717, -0.44064066002834934, 0.7005133158828678, 0.5515608996639354, -0.9394719270882255, 0.2542559030730965, -0.07285843689907602, 0.7398165850519748, 0.8477586857814573, 0.4612400846606092, -0.7678629172562914, -0.6701543881124531, 0.40015173859042974, -0.4244268619929652, 0.6555113229626661, 0.8805489118247485, -0.8842670389551908, -0.05876035802630287, -0.8042328833769277, 0.006511968183774933, -0.35226383966797725, -0.43299755062420275, 0.6156576304604429, 0.43416882894362896, 0.053119231465261985, -1.2059933536951724], [-0.946426322769363, 0.8325250560459316, -0.05636427646501607, -0.08943312320841246, -0.22977470190007843, 0.3932341159757433, -0.14441490866139106, 0.2290884478300843, 0.15653094279663526, -0.12482958984632875, 0.13539537336717888, -0.48717078233716915, -0.12481432861579497, 0.5452027484717148, -0.9825878279922688, 0.08198749948873248, 0.47423183081495046, -0.9196384458100773, 0.42960168471910953, -0.9392003052440778, -0.6762394252547883, -0.8560970242779942, -0.8214506367799477, 0.7791038241548942, -0.9654731321771322, 0.7017965734938227, 0.19805907530482392, -0.7196493799837775, 0.9994660713240804, 0.3943424762191228, -0.8878535370874452, -0.4985472423575923, -0.6647263725370199, -0.20852434167742123, -0.44712900656537885, -0.2103918866884069, -0.7800731571132679, -0.7413039217402396, 0.3489458763695002, -0.03670228133673829, 0.9910934288721817, -0.21255904858730681, 0.23519807011644986, -0.09031516127144136, 0.4018084853179642, -0.03859466235486493, 0.8463508504518978, 0.05591495031508214, 0.16231943725888887, 0.7670137630028058, 0.6138532115598884, 0.1010507043488958, -0.8293164028906312, -0.39464812261743165, -0.11211896252981512, 0.18432792285294908, -0.4603470444997697, 0.7854050773613845, -0.3702130525357526, 0.2078084875198656, -0.8867874602884698, -0.5259129685058127, 0.1289027398947441, -0.46544594645245907, 0.9870299214105768, -0.8086799147282874, 0.7975545425168801, 0.5767709440083946, 0.8076661163656936, -0.7147039969419525, 0.8024101316830262, 1.1163875904287037, 0.4963660040749857, -0.5710744361219627, 1.061160499665097, -0.3695411125586549, -0.17674188425535095, -0.167768736922682, -0.42785093685790265, -0.40139077145532387, 0.7733439299098388, 0.9398464594756879, 0.5515485559707349, -0.3152313088190759, 0.5745031801864631, 0.06782176849535748, 0.27046314821655654, 0.7593053887703504, 0.09151980330966271, 0.013654331635604703, -0.4717995565346578, -0.08421275086924399, -0.60575247933946, 1.0180545830635346, -0.578520722336393, -0.16609296355770506, -0.33783087041603654, 0.9645776296143456, 1.3525906154578224, -0.4437370579908123, 0.6749167273816755, 1.2846897163004758, -0.48010070330723537, 0.7990936297693718, -0.01780866371692742, 1.0216384178787408, 0.9907197512196604, -0.7487972913592794, 0.5396422932464294, -0.21082508136169764, -0.5881350033412188, 0.11216372782068196, -0.6622380918845903, 0.6151832735710799, 0.8990411655082056, 0.7755938386996112, -0.23184944301856195, 0.7852580374731104, 0.973873980480617, 0.47595020269208543, 0.28701483937971173, 0.46757138978295326, 1.1320096575985135, 0.8551927196303084, 0.7000245204036789, 0.18657495339605146, -0.17933615686692758, 1.1160976375374139, -0.6907265875620229, 0.6576398958918193, 0.6651369456020589, -0.4817237298040794, -0.7217901850548417, 0.3046877189534545, 0.3872656790037974, 0.655083023047213, 0.7167387791757195, 0.31854200017519946, -0.016556121108763, 0.1350923979641569, 0.9581917419863621, 0.8953375559455974, -0.2669538261757016, -0.053476450870755324, -0.29465453643544165, -0.09836392355466574, 0.0069327276178185755, 0.9444591644280912, -0.2690250146185618, -0.07749374236734377, 0.526096857686833, 0.5109125979707537, 0.16134135154386317, 0.021391958569923607, 0.7243418358813798, 0.18705321518696824, 0.6311332860205655, -0.03616931498170023, 0.29138909087385495, 0.4794278963054437, -0.24513347907311384, 0.32306334436293227, 0.20688177977486583, 0.7827202568279141, -0.05651606588024324, -0.6913061561750241, -0.2225081125017286, 0.2883557056244585, -0.4158016696698901, -0.6969055391710127, 0.9639292820971566, 0.3994896765493399, -0.3607452784350081, -0.5961372789702919, 0.9109747378835243, 0.8488909384907465, -0.6321747129876786, 0.5724414025781794, -0.6507044697466164, -0.17562409823516487, 0.4686634160832868, 1.0271112778512472, 1.0896266840345106, 0.07597258112127685, 0.8942825560053228, -0.812634866650929, -0.748740343761695, 0.12701023150048607, 0.4101641878373521, 0.3056089554776297, 0.022027626333669243, 0.009280831328646792, -0.32700120951483436, 0.30985079264029974, 0.2112721724316692, 0.09311970028845677, 0.8992881977910984, -0.048501300821514604, 0.6591078603121602, -0.8510630249722901, -0.3430172303656394, 0.31981899357956156, 0.5924233049477974, -0.6298127164478026, -0.31370006564926844, 0.3909663979000703, 0.2819142639296591, 0.5552700263476853, -0.13435033021100853, 0.42313428737959297, -0.538196725589499, 0.8185287370247681, -0.8592084098947069, -0.7134766383445997, 0.10404483856298215, -0.35565537399978536, -0.9429359564220855, -0.15101629311278447, -0.13044529253830736, -0.34110311994163317, -0.37010666690186433, -0.6797221055712289, -0.1582825876078425, -0.0793503704002208, 0.6877090356228076, 0.6957845889282464, 0.1991745223997676, -0.17295542782488904, -0.42705211901911255, -0.03766273903084791, 0.10054088665682295, 0.288746920282775, -0.03739287398587879, 0.2610386396461147, -0.7813956864790506, 0.062006787681209936, -0.097890019461987, 0.3707129733215612, -0.38024079674143024, -0.01458018855678153, 0.06864286415075561, -0.7762667078002512, -1.4741453961523083, -1.2773295167314853, -0.09619087293693873, 0.5139964305666483, -0.556590974054314, -0.6452264558334113, -0.7319673459553657, -0.24575371101741778, -0.3785967403959032, -0.7325744516965879, 0.22415231560243712, -0.06397264827220131, -0.4938356666670179, -0.6745356202315582, -0.7752442937444244, 0.527774244511132, -1.0447629074090967, -0.2122420885520333, -0.22969412535549655, -0.3414024015596423, 0.02269757703540215, -1.0039782557508963, 0.3676076703899232, -0.9965859910788717, 0.4544760776111798, -1.1242525364876603, -0.790135293092865, -1.5937650658850564, -0.6295378790015557, -0.6925518096271545, -0.6357113106839809, -0.9134554456096159, -0.58295438563792, -0.39383823368719617, 0.434094986255871, 0.9087967501757177, -0.8867834590536569, -0.20387439001113222, 0.4216266473673944, 0.06836935120885694, 0.9182519849199213, 0.3389826934706159, 0.833621493664968, -0.35112583846231926, -0.17731796533846714, -0.12873004591397058, 1.052137648565864, -0.37478379509370463, -0.25985657951295776, -0.14412503658963965, -0.65537422250979, -0.42346625877555416, -0.06562021525461452, 0.3045776121484572, -1.6511222161660368, -1.783944479233007, -1.2366277632410072, -1.1380052674007413, 0.3607958808670721, -0.8659324194260684, -0.47316038208469635, -1.264882076886737, -0.3573171402517136, -0.5431098457313204, -0.9151742544205244, -0.003502440472922938, -0.45108148533022285, 0.014695532113717137, -0.05676578818443178, -0.050619149437656545, -0.16477743643532358, 0.22980050971329372, -0.08773737003744281, -0.6225471789104227, -0.315098866148723, -0.3240059136145574, 0.4320069063939724, -0.09361376500205605, -0.5697284308408913, 1.0598516509511837, 0.8614813127100205, -0.06974016118047359, 0.16163490711241849, -1.613033871073799, -0.25489133916926704, -0.9074660367807817, -0.021941829951216373, 0.17650054037464338, -1.0264227042037228, -0.5386692127229783, -0.5561157613355218, -0.8157012498884095, -0.43524054199802925, 0.2643550377897094, -0.317147095843403, -0.5093032768097503, -0.027747477876342363, -0.7082922181203214, 0.1655127313135483, -0.44578460750275284, -1.1527945069507106, -0.2631992612564332, -0.7768550971735526, 0.6296129017609663, 0.5997355478441546, -0.18093660704348496, 0.21869047827055998, 0.8935929098987139, 0.4381785451930367, 1.6811403171705135, 0.3827443318478698, 0.6042653349809562, 0.7621723234390828, 0.3389536329877562, 0.009312565244839446, -0.6418529899148449, -1.3151648897084223, -0.9799590662360583, 0.5858571007052231, -0.014490644334048699, -0.8348156743175958, -0.8575260847493006, -0.03769428020530291, -0.5762973125605314, -0.7294473565007136, 0.21121776812122742, -0.001470838379441724, 0.6116729646082034, -0.40536636774334084, -0.35070428132448833, -0.5171224754902619, -0.055592773620438414, -1.0482761845994126, 0.3859606845960483, 1.6809292526898334, 2.112469621157979, 1.7161413666281367, 0.27862213995856905, 0.921993850405191, -0.17983988583849903, 0.026683692809879807, 0.0009550679027476999, -0.5738534852999886, 0.004218665926709787, -0.1960458263656311, 0.6388387078281604, 0.7116115192727124, 0.22442493848310957, -0.7817550403027124, -0.5713211284827601, 0.011394169104357105, -0.7818791927462717, 0.6393084808375272, -0.03178039278856283, 0.30221981997646896, -0.18147846539904375, -0.910912993139075, 0.0880175051183846, -0.6190130976106833, -0.7913320892962482, -1.7732269301465402, 0.26048714460252725, 1.6972643014875803, 1.2652239142100938, 0.9055731476194009, 0.5297951567280702, -0.4787299573604794, 0.9833166363642177, -0.35283430053687337, -0.1762201204812926, 0.1335409136864573, 0.5298312592098265, 0.41327661004559846, -0.491691708441619, 0.641715442881787, -0.40124737376374964, 0.5435186219423896, 0.9599099637750602, 0.8798151267094942, 0.2645168193892284, -0.1667380086190636, -1.0008894545679317, 0.14394682253635752, -1.0206137705802767, -1.2783466942283475, -0.7285233603278214, -1.3785599611951918, -0.40228986701296593, -0.7371938940054523, 0.5428622706025951, 0.6111237020177053, 1.2085334245412878, 1.2252451506133069, -0.28101255301147715, 0.5777916212607078, -0.3263021873568529, -0.5754748573837556, -0.9994284003904678, 0.1967993452049369, -1.0056406751358677, -0.7213145042076508, 0.005641639666987465, 0.736439923245472, 0.24264592487764436, -0.5691509480597257, -0.4762214766129614, -0.9491237813376588, 0.8306514828459337, 0.524157273244926, -0.7709954525303011, 0.6161987109586405, -1.2136746628294237, -0.6859204656929896, -0.8540941657672182, -0.7122240896853307, -0.4743940950814532, -0.9535771155272073, -0.38485950896053217, -0.5774541319433448, 0.8581983114355469, 0.11371358030844257, 0.47570652752237214, 0.21210122307856563, -0.6812582846212107, -0.28286735520147044, 0.3272651253604219, -0.7089190358359387, 0.6898107636878948, 0.19168402346537833, 0.027805224221217208, -0.09598287063839163, 0.6778722246882438, 0.43763994815637347, 0.5394823669959151, -0.43968013369313796, 0.11994806968948006, 0.9634291949828279, 0.17767080852436287, 0.16096385127593046, 0.09448862382857505, -0.33181579211791273, -0.8426199077277933, 0.5169705763957944, -0.605275789517896, 0.5629936724641703, 0.7046690896968028, 0.10191260692674267, -0.1498880006403778, -0.0011907512375548745, 0.5868307668970019, 0.4062515058014943, 0.13019657222239123, -0.45169254483149635, 0.3365201513133424, 0.06142606443806562, 1.2250892673383855, 0.14784692116502485, -0.732689752706163, 0.6249360059460982, 0.5973726062961291, -0.4614193110732439, -0.4076753146952864, 0.7728225367613656, 0.6980443253824464, -0.7253675709889212, -0.19922392568332925, 0.28415134230860717, 0.972036538551099, 0.7791398246322935, 0.8497767795118066, 0.7688746693228815, 0.24375597567247298, -0.3370835678003282, -0.026441863991119127, 0.37048418799106025, -0.6005357208043828, 0.6019613130062835, -0.24806360919416176, -0.6140751778096433, 1.408867218317201, 0.1435261617660213, 1.0336911902020245, 0.7741212075772138, -0.046571874274504585, 0.35050879121730383, 0.6373790575083047, 0.1111479528826562, 0.39820486550534046, -0.5728538279000981, -0.9090625833076746, -0.0626684334602514, 0.7934844464099257, -0.8204276707647233, -0.2667019554706485, 0.7937223517417263, 0.2106432122462151, 1.070668085291777, -0.17741711157129372, 1.0035162442594405, 1.121615138204006, 1.159874320155369, -0.26146903449278036, 0.2779406948248021, 0.5994920072067287, 0.6460130602775904, -0.4120837990724199, -0.4094470361841437, 0.3829474240522809, 0.005536344045666964, 0.6410597112420117, 0.5343327657521377, -0.03322868107040286, 0.16850713164377157, 0.59859275568058, 0.6516654376741567, 0.4322637071696069, -0.05975868171993358, 0.6731140743470646, 0.6610082843643488, -0.603967287664406, 0.6350050101664576, 1.1624163853422542, 0.7428234908668964, 0.42175394785971904, -0.007187653729282851, 0.5684443570115504, 0.3455084623741126, -0.34188774489393936, -0.20697560436042706, 1.037294982923326, -0.4616210352611741, 0.1633000155132259, 0.9736359097680282, 0.8866466797834216, 0.04697247077066596, 0.37646822973071936, -0.39672756612133553, 0.6280686127907702, -0.43821718310288, 0.13860788023854867, 0.08120761608698321, 0.6270833461368917, -0.01911171417405659, -0.43445480835412587, -0.7136774093025013, -0.027430096065981756, -0.806074928524337, 0.01580977677744188, -0.9492467882772786, -0.8016749869620101, 0.19852361683862374, -0.25145300749309946, 0.6895916071222694, 0.19162608001781278, 1.0678249173532262, -0.20538775119400676, -0.08472771686878675, 0.1760106376569638, -0.12176245021079476, 0.9554024799565434, 0.0610621528322381, 0.13694500408424065, 0.004005279674693177, 0.5285105195702181, 1.270200746479172, -0.36475613364544063, 0.9018217164444653, -0.04425483361985809, 0.6053650949688425, 0.58417181108814, -0.377609127974574, 0.3026562591792176, 0.5872704474438663, -0.30444347552234724, -0.14704340090195533, -0.5515623042422424, 0.826555610420203, 0.7530014512580067, 0.8888676817257032, 0.2894557130328817, 0.7551541514702073, 1.0061358927883208, 0.3743347953745808, -0.7069915430141998, -0.06383315365006267, 0.6167995961372091, -1.0677688410711563, -1.2816256589058777, -0.45625552829992355, -0.27110062414659736, -0.5523720677211389, 0.607170485972839, -0.4723514777546932, 0.3707472499955099, -0.7716975177609697, 0.8669657396646535, 0.19879408446391733, 0.26386326434315155, 0.6396469506545781, 0.4081495509168988, 0.6440606742839756, 0.7162060119751884, 0.7533725977125572, 0.2545724828461313, -0.733820889539302, -0.027591013302025163, -0.4846291102559888, 0.3610877213837166, -0.18118263787868236, 0.45898898375731223, -0.12875483281104258, 0.3835048858866448, -0.162021930297894, -1.1373222480670364, -0.8855139533246025, 0.7888784505074767, -0.08599324515823452, -0.8404097808100155, 0.5861421374056407, 0.525818826665892, -0.27376046822731637, 0.8473135860133594, -0.5027555643536368, 0.33129237002445366, -0.9653383234973503, -0.8982838393120424, 0.820847533929589, -0.16401747443558032, 0.551744059543945, -0.5892289756031235, -0.4800997792963331, -0.3050486485376307, -0.40711165505842184, -0.506066104642476, 0.209921353743668, 0.29481903101132395, 0.6334560285223014, 0.6545828764856825, -0.4620058805859511, 0.5563501749251861, 0.23894281062627878, 0.39699684423855214, 0.525677439874044, 0.23702094805577198, -0.5885818493202661, -0.6679121137876023, -0.07716801267182047, -0.23877826609047884, -0.052552523455720916, 0.3600053460973602, -0.6864114190162012, 0.008738722070971112, -0.5157431210800343, -0.4962614160496805, -0.6881758945552041, -0.6840525674456178, -0.337274827438752, -0.9999895585479173, 0.45623078584924315, 0.4416479257439343, -0.7287085821249892, -0.7741124234173448, 1.0455243897546282, 0.35594423174114176, 0.9686826686559922, -0.09898618940455131, -0.28264379365233366, 0.16565524907267165, 0.10005971348259131, -0.326492830887958, -0.40673308759300975, -1.3679483314714815, -0.4652716348292098, 0.14989017023308557, -1.037392746304972, 0.5851399952326121, 0.244280052454443, 0.8626599579442957, 0.35465137653011286, 0.521868921441538, -0.2563070385311057, -0.14032819993015028, 0.7277061922579244, -0.6735735966894536, 0.6491674287070257, -0.20980211313626485, 0.0766486682428873, 0.48872039337183426, 0.8563041217868321, 0.5838446021773862, -0.33913361758246474, -0.32612014718876153, 0.8612539286048987, -0.3254704587559181, 0.4653839659032703, -0.14582124733529742, -1.0216024803758077, -0.7802977634581876, -0.408827491065763, -0.1858298009070864, -0.7715972802866151, 0.47320687527225086, -0.16530031901125375, -0.2404317410187312, 0.14196412393724062, -0.6590298779744375, -0.9702289654275209, -0.7666201549116658, -0.5056066984980263, 0.5784787729042393, 0.4014757890660368, 0.15363902519239975, -0.867395164697937, 0.33409974276648446, 0.06470550490950289, 0.0997332883901132, -0.9551851025835585, -0.04662989874227619, 0.019089092092777857, 0.9491470253432492, -0.7562012334567778, -0.5267103643436367, -0.8083237456226217, -0.5231460738995309, 0.094454255053754, 0.8123187916860956, 0.24138379199265342, -0.4843320814226962, 0.5278709937959141, 0.8607251860514826, 0.11262771753895207, -0.4296467940327014, 0.37975473506604296, -0.9776454922504135, -0.4822845671845699, 0.9480314605865768, -0.9318894639262029, 0.22962577821107097, 0.31276856828190525, 0.4009407666493825, -0.0001509036365558991, 0.9749801913504978, -1.5292766754936284], [0.3772788373007405, 0.23172233400347508, -0.6050728834685042, 0.5604556471149615, -0.7529003689613132, -0.7098591995455934, 0.3931354959893052, 0.5444185906906576, -0.9159851033590318, 0.20586612039279828, 0.4058493206976943, -0.7462893011322591, 0.5631413236829871, 0.05180047226519799, 0.9052924141171448, -0.17744542657269244, -0.07941875486807226, -0.01101439986233288, -0.05269978889969873, 0.8073733875025029, -0.5822905338071276, 0.9545090600205977, 0.2780192622358497, -0.0426829091968739, -0.4986443995498906, 0.4335318425124577, 0.308205156785726, 0.6815143176637395, -0.4571927347195124, 0.4549440974276817, 0.965608131302754, 0.6958503541862091, -0.08360592775867184, -0.8996062307946108, 0.06057482200296349, -0.2966613827357064, 0.21150222970874716, -0.2262683446600223, -0.18933535719172798, 0.5506551237032022, 0.38517155813300696, -0.6643554768180464, -0.09506176930455501, 0.6942861081051761, 0.8086304225672297, -0.8675524631642603, 0.7317305202689611, -0.6083612095301808, 0.11317536653039545, -0.8793474274031067, -0.6762730575704091, -0.5189435236452286, 0.3793496509653347, -0.023121192842272098, -0.905953153352637, 0.1471042445325157, 0.4168397208014192, -0.5416631179850258, 0.10464983097540438, 0.02560001490287519, -0.3858243732829384, 0.3079860614527849, -0.1960161229879062, -0.9890509248902323, 0.6413266282731005, -0.6172753170516279, -0.2757982510920374, 0.933244434871203, -0.23085447182221452, -0.24066193035948416, 0.859397477360315, -0.3386075330679336, 0.07907356058583549, 0.5483392205800669, 0.7819388628117676, -0.1999336711425941, -0.5543809294418599, 0.547092697550794, -0.6273387081937946, -0.3083631293802681, 0.9589094499782277, 0.7147103064907199, -0.07835289531062561, -0.04961122234880477, -0.5113883084669997, 0.5696859735733535, 0.6507388095895726, 0.4866426489015383, -0.20898732183561286, 0.06448140190619772, -0.8702578626842767, -0.7553008644073423, -0.20733586953817051, 0.3275471276408434, -0.11587968947724456, -0.21806031091468608, 0.6097832630521547, -0.8041179900864726, -0.5686948315885507, 0.8696436207672389, -0.8177089717859888, 0.5687786662419682, 0.3222102804058347, -0.49328632066568173, 0.11545378734964791, 0.049837894144656364, 0.02829486454096882, 0.734544869637794, 0.958986463555451, -0.8034621935657513, 0.91943861353916, -0.7207027426843882, 0.48574693561473614, -0.4788665781906582, 0.041856681791257684, -0.446493933134171, -0.7348022286145757, -0.502140082594901, 0.44747587098366615, 0.17903684650762988, -0.07118123827161156, -0.7739580885088343, 0.23953827415598622, -0.28567414317677187, 0.49799834272571536, -0.1595671572499539, 0.3700755472238381, -0.38356752303477476, -0.6058921107168749, -0.12840210782798248, -0.4464304832479367, -0.8141931686298254, 0.8092402678255946, 0.9605385047606931, -0.8564465971810944, 0.03740902042191952, -0.01694645009658966, 0.6443456438215797, 0.8032979865906911, -0.19185651841529675, -0.01035508417589548, -0.6566638649671115, -0.1152707299623732, 0.6263642617486386, 0.9294882646240893, -0.9164658214509681, 0.05364102519711201, 0.5054624014910113, -0.8680012149051309, 0.06846547880594521, -0.6908692234740652, 0.5309130718564095, -0.3493116061946967, 0.06961955550005493, 0.2231140199676788, 0.05693231577553584, 1.2677133387541444, 0.40450403682316105, 1.0346574263741242, 0.617699755799072, 0.16495756573971765, -0.5849811819093971, 0.09134056407932636, 0.5751855758634361, 0.736037847548345, 0.6444655391198065, -0.4266777237395672, 0.04828613649398119, -0.7729020431700235, -0.605675809422934, 0.5343160797138308, 0.9826878877107899, -0.09838075284163794, 0.6911132151367748, -0.7091890652449548, -0.0929155460144693, 0.20976844334105402, 0.4036385342632037, -0.07454917752758083, 0.06157379298687235, 0.171988513133036, 0.6754468271474592, 0.6514875073528676, 0.31461454202076256, -0.2512443049475941, 0.7759542395912248, 0.5129241391025818, 0.3773674100632737, -0.3114681442827032, 0.041813748996364544, -0.5395379381142709, 0.5156660917999817, 0.7014690287545267, -0.32581565429729403, -0.1385563930584134, -0.09381121591905217, 0.6945026481944988, -0.4231472436874877, -0.29575961656120764, 0.998551907185556, 0.5676315913650887, 0.11233860369954911, 0.38969708793959, -0.5778196490074106, 0.9590773467309306, -0.6522848454401158, 0.811358907912913, 0.8197448936518343, 1.0198771804183642, -0.19360535744513307, -0.39138542053372116, 0.3436299109090068, 1.2986193572625016, 0.5571151401288695, 1.389318179082259, -0.23324417558107718, -0.6741079146821083, 1.0893091851014491, -0.8977250167776258, 0.6396994157917103, -0.46524551033030753, 0.9557639994993209, -0.05545920741675654, -0.8316938919088918, 0.13964011188248543, -0.03243650068140295, 0.601896528695041, 0.5793883668339165, 0.684877564241341, 0.8676098603555242, 0.31037321399235496, 1.0779541550744565, 0.4421444326139742, -0.6125522889073943, -0.15800422793721303, 0.4448622796139514, 0.3712043881867932, 0.9554883229454342, -0.3562745819646354, -0.19015262058301716, 0.32207481150136613, 1.33963519203896, 1.1548249835675908, 1.3489018486613251, 1.2108840560038707, 1.0113206251964764, -0.8192281940517275, -0.21304278564346388, -0.5205260790813634, 0.7330350570821351, -0.4727036612221611, 0.6375134521378781, 0.9639880521393349, -0.4067164124212685, -0.9269430411165246, 0.895213517747196, -0.28051126276110616, -0.22136545055402918, -0.8518234176623504, -0.48386172902418784, 0.14968399091676043, 0.5639545312786073, -0.16838631633278925, -0.05516369068063515, 0.7300387920131818, 1.2692502566898896, 0.7799636000459395, 1.0174731422714327, -0.4690116156744253, 1.126941855724941, 0.2278903283954572, 0.4265349940205657, 0.20637184005929052, 0.38095664093089365, 0.8685344756078786, 0.7611967357638697, 0.5020464413237761, -0.9768547347970469, 0.9641248812871773, 0.5721771611353007, 0.8474123139923272, 0.09077928187711536, -0.5624823148476632, 0.8767493066794857, -0.14173022086948123, 0.2647204836680268, 0.28750363802739654, 0.7587785766694484, 0.5546769301729825, 0.6818685906907281, -0.3706706547366728, -0.05364516046563007, 1.0164593727360225, 0.06809010600383456, -0.20996756903490266, 1.1263232487430366, -0.019701681104237274, 0.5318430341799765, 0.47786399685030495, 0.3230565557557286, 0.8744450605114635, 1.0927588544172446, -0.7174720771014286, 0.6280287198513448, 0.3708292078297087, -0.5557833259178327, -0.7348216038514631, -0.8653036414925234, -0.826212081981423, 0.8680806496652932, 0.8476569171962771, 0.2262005748136557, -0.3677712323360647, 0.9166971443542573, 0.7004318477683041, 0.04368319378976636, 0.8131503615553745, 0.6579510574895392, 0.7836226693131394, -0.22772979334928523, 0.0607148245404545, 1.045705388732543, 1.3137225316271761, -0.11349683107548922, 0.677277325058287, -0.0613480178630331, -0.537895506388692, -0.08246731904352503, 1.0859682670129622, 0.30153791406776015, 0.40450372089718883, 0.09914713023656431, 0.30141956164286354, 0.2974668558356611, -0.7490493687224217, 0.6235777057716633, 0.9439250855840513, -0.3582724543452626, -0.3524747335583141, 0.35818408014348785, -0.2465992350639655, -0.7752115885213424, -0.09412812081040153, -0.20355952527483814, -0.030007454553358293, 0.69043892791908, 1.1900032772838096, 0.7765713454160007, 1.0948558452930022, -0.5615369027366512, 1.2576323538079677, 1.3025540102665287, 1.1046030539433036, -0.3617376227589418, -0.25397960037427514, -0.09078951804023394, -0.24415549236053194, 0.8607727613479662, -0.6969309690558225, 0.8787923414746853, -0.480148926468936, -0.007614666619555622, -0.08027342106651683, -0.6709637933016035, -0.6221483469425788, -0.629998340992143, 0.8118848644302314, -0.6887926801129011, 0.1654795795720199, -0.6180144575808096, 0.5179929073339402, -0.387094801077595, 0.9578355882154903, 1.1416095761331004, 1.1276100193534015, 0.3885766663432012, -0.23357056668175272, -0.20380801825888398, 1.4484815732092302, 0.3229326328986856, -0.3096223011881686, 0.12842400665805928, 0.8859702959422808, 0.8473852263996308, 0.6807536717203698, -0.4215632881765918, -0.910368475256628, -0.3201459360393865, 0.9144294664330372, -0.7892210805453804, -0.24104557438089247, 0.6381325486904308, -0.6548551822741454, 0.36846764454063247, 0.8279519615528432, 0.7032588878494881, -0.24998876961348135, 0.26607421051000124, -0.10596439086058744, 0.5060056110062036, -0.05041632752360156, 0.8665095343772274, 0.8040588808576463, 1.0620185340385788, 0.2347259649106509, 1.0811347485889542, -0.3933162356793062, 0.672935462922231, -0.28423957312425474, 0.6651525371217993, 0.8281158563241016, 0.4264078992489625, -0.7085549113686342, 0.758074024611885, 1.023694790065456, -0.30363452043723366, 0.24972268674937362, 0.5970912766953632, -0.2759561693108099, -0.058988695112632016, 0.12621793751178279, -0.5359478259770645, 0.4322452828471535, 0.9308131281201175, -0.10078138438550041, 0.17620423057744133, 0.771046918630108, 0.37781059564181907, -0.1188673411857851, 1.0233576236980997, 1.0073051040016912, 0.8579736187869451, -0.2575601456872163, 0.07071734756121896, 1.3820339074013295, 1.5361052514781302, 1.0408272999619717, 0.7833911977856983, 0.8034838731874269, -0.6963044431005788, 0.043238626044763286, -0.8416185866436491, -0.4843627636132589, -0.03704613144415964, 0.4472877221325067, 0.36357509167450586, -0.9953842761709141, 0.6280929434600141, -0.04681310728203782, 0.1324048247946026, -0.10073177972453035, 0.30633010660961785, 0.2884570452884346, -0.740380824533993, 0.8959667554314696, 0.9690469476162414, -0.5767002781210412, 1.0112232018498548, -0.3207204436245747, 1.2335432362022576, -0.46533260822683914, 0.9900225886524523, -0.3028656790699966, 0.8280117593999672, -0.4653967810565349, -0.3336632056309698, -0.0427311467817003, 0.9145594488456353, -0.42379345036925997, -0.6049979890636082, -0.20024853201743545, 0.7122074237972158, -0.019168791725926775, 0.22352716233365263, 0.40598189495553205, -0.7127830978565283, 0.9873817385483439, 0.8189669261470054, -0.4751258073645303, -0.3655074390328925, 0.5579099185413754, -0.16440506288994222, -0.18537027263719233, 0.44908326737294096, 0.6605737109735149, 1.1092849977101322, -0.22870741918999077, 1.3127032352066759, 0.6543983749269096, 0.8514850814832599, 1.0320633289477892, -0.4551208865982445, -0.36986703492167755, 1.0892038831921567, -0.5511843197154207, 1.078598499686959, -0.17091469278686847, -0.23357789365077833, -0.3578468180230609, -0.12262191895594612, -0.43963098056521677, -0.5517352879217718, 0.04197222069845491, -0.16481241909493197, 0.7175182325325417, -0.7502668213544238, -0.5600101333864933, 0.6591920721381069, -0.08260861145882625, 0.17156853752866902, -0.05411162130910518, -0.2973512963490646, 0.7032372146889394, 0.12340892358820497, 0.488386277879901, 0.49864386451139775, 0.9357457461968998, 0.3054654281041615, 1.2050486963674194, 0.6996856386168454, 0.5269410825182553, 0.17517418136081736, 1.0392532999223996, 0.7988417321331653, -0.43824591658826495, 1.0902876703397972, 0.49992885167370416, 0.5991073598575155, 0.7990140182108433, 0.3618257920813806, -0.09966361364952653, 0.2444458405458946, -0.5701650818537433, 0.7161893855906475, 0.22811145719973808, 0.8820367394089127, 0.03820958743055111, 0.46092204710243156, -0.4219676369428322, 0.5793963356317149, 0.9674679860874964, 0.6045001351342907, -0.6129675910217186, -0.12357933964363109, 0.26949734347961346, 1.4140508721174394, 0.6568225021824281, -0.3925411290522561, -0.49602054599831147, 0.0365557428544848, 0.27496770200621684, 0.8344599405406266, 0.26826636829947687, -0.5492895661665218, -0.16958429844430126, 0.014845909572412585, 0.33187577959733483, -0.11988846661986187, -0.3806538182569718, -0.42029099213847976, 0.884868209744111, 0.19869738553501437, -0.3369831272605461, 0.9393627562648731, -0.41935009259456646, 0.8801144963337264, 0.3610240674889587, 1.0042502790267145, 0.9954216178073078, 0.33428460213288785, 0.44620692894414377, -0.22676874786261064, -0.4767632693702267, 0.19891985515797864, 1.5120564450697913, -0.17503729545098126, -0.09990419596126161, 0.40912822929055687, 1.107174287600133, 0.10436785042278743, 0.45449801075960644, -0.67528015472895, 0.8255718591911659, -0.2809668122749656, -0.4911155773702808, -0.6592146045393956, 0.767929257615769, -0.30367941091396283, -0.49515623720762664, -0.678732965199769, -0.2793844106394688, 0.6830288355015905, 0.8595585507872228, -0.5470895769160609, 0.8751990232909629, -0.40722936178145586, 0.6099072622173692, -0.25564344548741796, -0.2611478553242116, 0.24423525865089693, 0.04661747829238316, 0.3568445413047252, -0.38395560993797806, 1.2784099021957516, 0.31710101843817445, -0.14499758940046406, 0.3447617997175109, -0.10527680305789085, -0.8143562238350824, 0.6934955372542732, -0.9376750993720523, 0.044913208015945304, 0.0697094095622277, -0.6710930974894262, 0.8138260133161057, 0.28934847851771645, 0.5776922439333945, 0.8497736020463018, 0.4435432997681718, 0.14364073180124734, 0.5908725333317482, 0.14882213191760965, -0.39085313078308864, -0.6647857115606939, 1.2214599329761449, -0.5951106818779378, 0.1733045441190494, 0.9745886663569655, -0.2958326881199446, 0.33368664275517507, 0.7186455380927637, 0.07479167230741952, 1.2823449081239655, 0.25927669662670344, 0.31357311497853607, 0.32059770095982226, -0.5180738157585989, 0.3587158825672187, -0.0176393197332971, 0.20696803889797402, 0.8987783159281075, -0.13256238307887655, -0.32669432468194054, -0.3398459050878714, 0.526334174090102, -0.1925283369645534, 0.26972446511494114, -0.30209133691214657, 0.7412966646431453, -0.16310251272810455, 0.6196148689168172, 0.38322527809965895, -0.045697128023425806, 0.18348483086387346, 0.3386260692096382, 1.14790578847676, 0.7357229294535785, 0.610238332923115, 0.7983666813144811, 0.7197164506761026, 0.900073584259229, 0.13113818462923293, 0.670003589985273, 0.7222300493182707, 0.14665997948510606, -0.364915524003978, -0.7896369009673508, 0.5458893917488965, -0.7628816665319789, -0.7247175378126066, 0.807040105452279, 0.19781478845309053, 0.6835632115409749, 0.3329649172494471, -0.3053309893815596, 0.8759190587268497, -0.8360379828419634, 0.9261252662864149, -0.16197738841884068, -0.9164999203436708, -0.23951627999066297, 0.8075533243048968, -0.04544296159198002, 0.8211173948021057, -0.02955254281279806, 1.1337796319161964, 0.5089189512878376, -0.34984787768151354, -0.07240968291401294, 0.511276776489759, -0.12111680347285292, -0.5700402366726494, -0.5023114931340462, -0.22168052107073022, 0.5949664357790204, -0.8040394538401218, -0.574011186310068, 0.7559846253347983, -0.5701217639467816, -0.36546932425020184, 0.44697634212652715, -0.7642080515615695, -0.8344376153669045, 0.6615765606854349, 0.9661832793982136, -0.4885564238870397, 0.9442256567359079, 0.09645264250201213, 0.20374836392885246, -0.002412964071401673, 0.7854073669705083, 0.7930133261001832, 0.7523495301822373, 0.9193586145302011, -0.4734282705270608, 0.33599784085272716, -0.02233906550914258, -0.2912145793844912, -0.780091769925493, 0.8271290113646493, -0.6667965921073847, -0.27080291967904474, -0.369960675765599, -0.08019819908654627, -0.6519864329146672, -0.6035286660053103, 0.8143387437429718, -0.32091637119045413, 0.38869351248080886, -0.7470826842577711, -0.9457835043598286, 0.6268240620727796, -0.3857523764631968, -0.13778508946844947, -0.7064832388676882, -0.7390234875921297, 0.6064223916722115, 0.1561936412209214, 0.6068833709311349, -0.5947617006558994, -0.0959813587896262, -0.25637553231759674, -0.9776362768857259, -0.8945365712204814, -0.1070098437335144, -0.6004019500149939, 0.4443571509698795, 0.766994036013923, -0.44861534941654585, 0.6410857158990777, -0.545044533355311, 0.7326219018324059, -0.6111141127186472, -0.207929291919108, -0.8192018654839901, -0.8138948600877711, 0.18642449557976049, -0.6501965777267193, 0.6483970658282467, -0.6715534554569451, -0.20433131338328964, -0.578359438265257, 0.6697865358209844, -0.8436720110635988, -0.6763891591645327, -0.9694030873686386, -0.11969360941216611, -0.4397691248372646, -0.9365687136453025, 0.9534963086120248, -0.5590495822872668, 0.3975520418807016, 0.3905898151704737, 0.8672153008753382, -0.14145618849983174, 0.6422090650608949, -0.7459558331577419, -0.6911226107611536, 0.8163464947895549, -0.6820282472276274, -0.9785948137701947, -0.8932841518654067, -0.20204338620565299, 0.2899310743179284, 1.6474355731298802], [-0.9426034181786855, 0.3030066342207174, 0.9528933424484805, -0.1382275827923689, -0.9091764105959306, 0.48756444814900135, -0.8036741291329697, -0.08553545262964413, -0.360385587396846, -0.4707107067223346, 0.48771804958549825, -0.5817636336301257, 0.04864554420661539, 0.3139183565024806, -0.5185518226723864, -0.0524231146943657, 0.22927710802623769, -0.1629379470355059, -0.894691515619473, -0.48430043039387516, 0.30677968432703984, -0.7423621660575894, 0.8735027494883889, -0.8301578978079189, 0.8966824790046479, 0.1291934264243917, 0.7595996845600685, 0.9395929848571944, -0.49591318890702496, -0.19999474953348373, 0.6154417853869161, 0.1161698864730123, -0.2627574523195696, 0.44695760610484825, 0.40324975948287567, 0.861247090677617, 0.1705500743853437, 0.3740857278683215, 0.5833646622412677, -0.8439420725995981, -1.014776717860703, 0.4658080080998613, 0.020271368690770862, 0.058813100411979485, 0.6764458256625893, -0.42778495441554065, 0.1168520117486257, -0.6995852545567505, 0.4200595811270499, 0.5563887931267562, -0.2586877101408853, 0.051794754063129576, 0.8262812526896299, 0.7669547812002699, -0.7151979040661085, -0.28416535326545334, 0.6137842351773433, -0.6605091203011573, -0.6159925304692241, 0.7184454831871261, -0.8145091274446187, 0.20446352025982922, 0.6257120397054067, 0.7963673856525385, 0.31367749812369133, 0.9202800575533242, -0.821136319195634, -0.24921770236899013, -0.37555938644550213, -0.09154725477286015, 0.4263302950249394, -1.1481563819655802, -0.8678842008687285, -0.8812639760027631, -0.5663011441239231, -0.36774047711907165, 0.6504815924530927, -0.8105808487820837, 0.025128955726697315, -0.7872693722521579, 0.8447112529288731, -0.5099642878791434, -0.29264588219228216, -0.8259019600676858, -0.523535997536823, 0.3302694242800204, 0.316092204220663, -0.203734253175908, -0.07652613907098578, -0.8187056284490748, -0.8266166166971758, -0.4441890132804138, 0.4411305335163945, 0.057485891450199875, -0.6930661271127614, 0.7486134090711672, -0.2518061376025871, -0.16021174181300707, -0.2516261687066631, -0.5320742731081582, 0.03989172603598313, -0.9534310420128335, 0.1774291445039289, -0.6794810734612322, -1.1819878334804796, 0.12846487149398567, -1.0025344738862858, 0.02156160289677743, -0.03767447859150825, 0.20725142662200036, 0.7984217368342166, 0.6565213196707147, -0.3714361316224617, -0.9882184847293384, -0.8149732472692126, -0.4829314808878607, 0.3992441860176532, 0.5496435231912442, 0.5120599269510584, 0.20226488554067837, 0.5098976032651945, 0.6546850188002725, 0.6872348229522185, 0.666046385101388, -0.5439392975982252, -0.6627896326575092, 0.6038748334821985, 0.27411146541063114, -0.39161348643853194, -0.46683799303600493, -0.046331028717650914, -0.7244577631544481, -0.9336435006427718, 0.19471507951945677, 0.4497541600407437, -0.8730111835939056, 0.18756373919310165, 0.3435786765304917, -0.09120950508360107, 0.26203422614471245, -0.9368113721208953, -0.09194310150734597, -0.3755443609169745, 0.06697440591749462, 0.07458905726976259, -0.5741345751274682, 0.09302255265925967, -0.27134749125257246, -0.5455774584070183, 0.9204967421260423, 0.19533244166472458, -0.25366392455891673, 1.0068324381218925, -0.5042645572427342, 0.6724426138600894, -0.03417585496491265, 0.34961515333213294, -0.031627910182994934, -0.10849719488156012, -0.39696805598189644, -0.5464334696289687, -0.5312978131697551, -0.7027705779757929, 0.7172861826172187, 0.22762117081671554, -0.14141903020488453, -0.3376289336875966, -0.6824225629558286, 0.06561295828750602, -0.19484316888651554, -0.4611654474889063, -0.6455964276247586, -0.7787722534032095, -0.566077242790004, -0.32362239995145, -0.2360646924093574, 0.8690572317077242, 0.6214770834039636, -0.24651399029061224, -0.7068994378103426, 0.28651005603371166, -0.14218892296959523, 0.1142704252476815, -0.058304681189918994, -0.046632105918196186, -1.2933113928262174, -0.7325617574478981, 0.16463854089474975, -0.15440012253337362, 0.7313812112795138, -0.25331194881438807, -0.03679817878628922, -0.6777117274545015, 0.504942448425912, 0.3236007152572006, 0.42071246314412913, 0.4355479558865662, -0.9594596753131339, -0.8382459095761119, 1.0793553296204685, 0.04433204562777177, 0.5506805477266782, -0.16480065504639246, 0.4470964051256289, 1.0011346426976622, 0.08783184884169411, -0.35830526098036874, -0.041842430068115055, 0.3989763730438297, 0.48742578739184733, -0.9533647774636127, -0.3535247194619886, -0.11857929856904795, -0.9132351996063768, 0.7273253261247319, 0.8457264685144988, 0.039007206574082465, 0.8228548337416703, 0.061605217639150625, 1.3258886127846272, -0.6473812811296484, 0.3971086674912259, 0.6427703486674837, -0.9450170426956025, 0.792340613101054, -0.2525725377921758, -0.30082216072518025, -0.33134589522362695, 0.5832204287256683, 0.8067340251432892, -0.15499096797486825, 0.9011000890823099, -0.32780419000436917, 0.26932061490753234, 0.2779004434617274, 0.9854442024617641, -1.0405717921683109, -0.9368622187679028, -0.8061302810809707, -0.3244120583113776, 1.1618570651227225, 0.2347269827115126, 0.44311938362667513, 0.0305899921690976, 0.8858598276148053, 0.3606361893133571, 0.6301371962054471, 0.5882315278385652, 0.3111885348496508, -0.23424285976585046, -0.88023107762995, -0.0761187743198772, 0.98169490147719, -0.43261217535691343, -0.12506948883005423, -0.18461340952487748, 0.3882909311224835, -0.5414465508890888, -0.22356389922402678, 0.10872318254093072, 0.16822366589734372, 0.5121233821665115, -0.7303556444009875, 0.8170090989361097, 0.86140565588301, 0.5602895458426211, 0.044641775965215326, -0.38928449222694017, 0.03716404983074965, 0.16113989112409377, 0.4758597238029805, 0.5823582354250555, -0.44716195012069776, 1.2027313720356434, 0.5450185012443789, 0.7600230971453313, -0.423637501192591, 0.7268322049640732, -0.6769506426830454, 0.24763526204450523, -0.6018809815239177, 0.6580354711093807, -0.2586924724755927, 0.09842762394270832, 0.5126280205025845, 0.08544633751453028, 0.8038272229523646, 0.5272065241510697, 0.38530595438217513, -0.15944696612446232, -0.6502977068185885, -0.8765391575236693, -0.35045394789553735, -0.39661525001768067, -0.79321153902286, 0.9002612914110728, 0.8092048685347389, 0.7951652782297844, 1.2579405180431298, 0.6969084438088118, -0.3406603789953684, 0.2855276355232027, 0.7160635311453503, -0.47321048804772387, -0.4227731187600587, 0.20652685330699347, 1.0053067638144597, 0.4667295347157751, 0.7536141224021842, -0.5764823661816777, 0.8139649782811215, 0.2968796757452257, 0.7802665536095427, 0.7408272937029732, -0.14339369331259416, -1.2622476802359253, 0.07783320271137033, -0.7691723330214814, 0.550593577601566, -0.5677428666833501, 0.3078956574215354, 0.19334522224383524, 0.9822443753736488, 0.9619928142640221, 1.798584775076727, 0.8753068909400623, 0.9096946656636542, 0.5248250636280452, 0.5930831357119609, -0.3798903056880654, -0.002288939889270051, 0.44757227057404586, -1.011475771363163, -0.12470650258140056, -0.819522335443227, 0.9726791472095357, 0.7719314164388813, -0.5424180583834757, -0.307490162444901, -0.8656782851255593, 1.211357158801467, -1.071864078798488, -0.6980355644417857, 0.06556253806501153, -0.06935298300380215, -0.489506788960273, -0.6555725202438737, 0.20445197616563754, -0.976477844511631, 0.3830631082563449, 0.4195644789750317, 1.4838454809422805, 0.5207741419517851, -0.7467139378648113, 0.0032314469486299114, 0.5136520824781168, 0.2902250980490745, 0.243942580628336, -0.7030807993595872, 0.15614670794049815, 0.2706228464743786, 0.9295129998129134, -0.28676754985791014, -0.4638964006168118, 0.47926603759643743, -0.5535464861760988, 0.9042620684432335, 0.88804581881891, -0.596899775808873, -0.2589183070436679, -0.10060716974893787, -0.5156794833365094, 0.6814879806372618, 0.06142633160575668, -0.4167506002411928, -0.83137778311244, -0.36602003525255955, 0.6609476523433424, 0.5325912927933136, -0.107745390125008, 0.07440370768070304, -0.020160098868603128, 0.6075529413320042, 0.6390967876063045, -0.41069150298672336, 0.48478320590062796, -0.20467311590881965, -0.009964987547890613, 0.07135968456693385, 0.0011571846795295176, 0.8254930183094289, 0.5088985120718286, -0.05823847437003091, 0.5250743905985825, 0.12102198005652103, -0.6609504486535416, 0.9590452403219354, -0.08998077956564014, -0.9665284375823412, -1.1388196114012104, -0.60152450735673, -0.18645975852942828, -0.9986227081280469, -0.5505105792144397, -0.40944381081206044, 0.41242594262170074, -0.16849504565863727, 0.8236951291221003, -0.2807597401142426, 0.40366113917676494, 0.5670988097230986, -0.8366887696790278, -0.10389661133895008, -0.744807619518288, -0.19619281721401444, -0.9327071885229387, -0.11860876496759265, 0.12274298770254942, 0.3407973712182618, -0.39130027146049046, 0.5127803758385141, -0.4557140943956597, -0.4675667991319036, 0.7585962748262987, 0.9522770417981349, -0.07263592173642727, -0.17044354594521557, -0.3360187419166156, 0.09402999486225022, -0.28827427998271804, 0.8307389837831324, 0.294228319221743, 0.406528786148028, 0.6607655049214545, 0.30724794735134725, 0.3792315621724366, 0.31155300585197276, -0.21896107643630927, 0.7541262279018358, 0.48183190969201556, -0.4242840827960424, -0.04732502371313207, -1.4780253010265472, -0.45014821928846566, 0.4374847328129203, -0.8674290183799871, -0.2126354817047272, 0.5523682858569615, -0.7944157559547051, -0.7158503269395081, 0.7833293990649516, 0.785968244309606, -0.6441933409592339, 0.7059852275581988, -0.1280199885409048, -0.042726747154013325, 0.7006798063529078, -0.1559834511787493, 0.6199960363019509, 0.3746717285303102, -0.32951074589540297, 1.3596179139208717, 1.456998319333742, -0.14543051976754062, 1.542990702927442, 0.21840925717307047, 0.16517707467467388, -0.19294983025116216, -0.5046243413924695, 0.07144379252576731, -0.6229069069617862, -0.566922707572946, -1.0887710772305996, -0.20110237326766006, -0.28169427179057743, -0.5125820863244901, 0.21445089488070224, 0.1973101827316399, -0.36901940071994316, 0.9055899641732102, 0.06555679826223546, 1.0927785889092345, -0.31727252315485593, -0.6368112548736968, -0.7972663687132445, -1.1005487808800458, -0.5589133820920954, -0.25986263248942787, -0.28661380738308456, 0.6060185728980071, 0.21133684390542687, 1.3720918954525512, 0.922489192694614, 0.4662274350306091, 0.16596141300099684, -0.8775187041609693, -0.7731434671986721, -0.6463870471619764, 0.537481233721522, 0.6279763556694833, -0.49861370543295597, 0.9447006264057329, 0.09794761567615086, 0.37203234782882777, -0.2404438596166794, 0.0008755998653054702, -0.9195860367039415, -0.20785969950875313, -0.2577168820556585, 0.061166546476017374, -0.26643478513042923, 0.6098792962962406, -0.3979256932840225, 0.23336467798078353, -0.6595503455323052, -0.652457469734948, -0.31066411292072355, 0.21931023693304577, 0.36917715971004356, -0.5669533269003407, 0.22553445935020455, 0.024974288467870774, -0.7746864563673876, 0.12510917161339058, 0.561157238904691, -0.8198508655784346, 0.2528167821018665, 0.6246367687505125, 0.2856453275722627, -0.4311190831039985, 0.6591830170445425, -0.2146390067379425, -0.30842743689112195, -0.9521902411591077, 0.20137565973686303, 0.7753975661570925, -0.6319136084937873, 0.6284863512710437, -0.21318486734195982, -0.9904977166323992, 0.4054367250852565, 0.17228060897999786, 0.09441948820451838, -0.6615505805013898, -0.3119925328648463, 0.1417484198158287, 0.474801630709386, -0.49725493993201325, 0.6686904832019888, -0.7826204919195159, -0.5265516432546482, -0.5223070406187027, 0.9667212734017143, -0.6288523743576174, -0.12298920400263039, 0.6687228563568136, -0.6163165177388086, 0.3651150857022048, 0.2991916468767233, 0.4745320434355098, -0.6703824072828284, -0.5971786437742524, -0.41213609199124895, 0.8845537386214724, 0.539574669990026, 0.877033500055098, 0.6819969968110775, -0.2225049741854967, -0.5719017418561523, 0.13928237036023686, 0.18290722347865768, -1.1654520706977138, -0.6014928826753968, -0.11827960832735852, -0.5503480961481061, -0.34738071095899514, -0.6055642092648122, -0.41769333418448784, -0.3153546612112265, -0.406878020615199, 0.721295045980911, -0.5423807792447117, 0.5043476144277175, 0.4333292662672594, 0.5997547492707489, 0.6781571355305217, -0.7941354952784688, -0.0885281319864766, 0.7712510473074191, 0.684058567378336, 0.3285275295550844, 0.15430041352723117, -0.003346475029541947, -0.3207817452423512, 0.15536364817600934, 1.1625135620981117, 0.09890650364757707, 0.35451283677520046, -0.5065437355277688, -0.6244284535988648, -0.2338889469976169, -0.9512767301240114, -1.00170645603296, -0.506137371295377, 0.25976914839598947, 0.3576872208042847, -0.45336498005820564, -0.18324563628239154, 0.7001021542980436, -0.47937580209647923, 0.39156980947079273, -0.810338057916226, 0.18356554908912776, 0.23757382356988346, -0.8418908210678573, -0.33057399590168934, -0.6385713249999436, -0.37613767671214676, 0.2360706656719853, 0.5254874941266807, 0.46390576475620526, -0.28050878853010675, -0.8030566501499369, 0.8269124526574261, -0.494482660273814, 0.01337750945289063, -0.8974571767516208, -0.6924694904137048, 0.25684871724302344, -0.11246477675228243, 0.589708321988301, -0.8850231917046651, 0.17444593122019508, -0.681995481347641, 0.6898242913912718, 0.5437721734063291, -0.4595421906500153, -0.7422760002964353, 0.26133187215023623, 0.2955684049543244, -0.38041647193721856, -0.19497669522530386, 0.6364939638467565, -0.8588277212177956, 0.9751760110929333, -0.7028938576435426, 0.7271007049850082, -0.8640614110284617, -0.27664171592471754, 0.9126968774047135, -0.4436129389827144, 0.7645607828258969, 0.05270940728270584, 0.5102796904690181, 0.6062922921293473, 0.5329335641380751, 0.3129485694503617, -0.5629329822344787, 0.30703587966854556, 0.11206639356121548, 0.6104483647093851, -0.34808559676920653, 0.6333631286699685, -0.967551587583892, -0.16476885356082369, 0.44951353066405175, 0.21658378591315133, -0.08104655194342139, 0.48505161194282903, 0.7122921211308795, 0.19980748132227613, 0.6301574070528184, -0.4999309547682633, 0.8150634294226786, -0.5890553986563006, 0.66037811756321, 0.8671253895014854, -0.9124174344423397, -0.3312385747227994, 0.9766810336665137, -0.499788369915637, 0.607629480852433, 0.17094441846838435, 0.5592976208472049, -0.9031558670948057, 0.23437135629494077, -0.017851127588141957, 0.04155457891193697, -0.43544850389843076, -0.16201971034504872, 0.798821695816159, 0.7634753051116976, 0.22820394948755157, -0.46093208144866615, -0.17087936386209499, 0.8941667095353321, -0.5067244081885182, -0.6342446367194315, -0.5903621005446965, -0.9258775550861138, -0.896833778949718, -0.8408540960225188, -0.25772021115129345, 0.7139949563826413, -0.3486867787411063, -0.33277538647657384, -0.07648162001932757, -0.17555444321798266, -0.10431044417401346, 0.7160863914013952, 0.5176884882973417, 0.6565697951202851, 0.8672252679092949, 0.35240218197133194, 0.7128290805382015, -0.7175406061119052, 0.30103484262870417, 0.5947726389481226, 0.4612802461102752, 0.7455300314351206, -0.2558388475897833, 0.6482966903743888, -0.85498342713994, 0.7767519848198099, 0.38734956944837734, 0.9366369067705776, -0.2818900055682369, 0.9900057282314518, 0.6336065807341904, 0.26906861719175357, -0.7629946107636381, -0.6631776136812846, 0.21860905936078057, -0.09221010805266594, 0.8840727408176959, -0.0705366337378237, -0.6513804408810042, 0.8545671923028095, 0.732192879751177, -0.19236559790612376, -0.6050010188865709, -0.5753294660953926, -0.3772968440084215, 0.3247623870927514, -0.2982733823854413, -0.8005728307285095, 0.8482836367132343, 0.6274640072380369, -0.7269508248729509, -0.549776588708204, 0.8536000917231127, 0.6782821996212167, 0.16184883982086587, -0.9966075974187886, 0.02427215214793632, -0.3788934324897737, -0.8542963234961036, -0.13865846631985446, -0.8624470942141202, 0.7925226997378352, 0.08865721901166906, 0.47468515257423244, -0.19734323554008226, -0.24355856162541115, -0.9907838155725786, 0.10972988693893423, -0.8482084038656635, -0.018958048264979308, 1.0160362119430904, 0.08137538663308096, -0.42324850254376156, 0.9011522323093453, -0.4454820762639221, 0.12613267917551257, -0.6394740300154479, -0.7156174974149649, 0.4098279144531026, -0.22554335247458868, 0.9498586906599625, 0.6947036562989313, 0.8110064377918138, -0.2846111047605835, 0.3189494709101648, 0.8606695233910908, 0.9959796851630077], [0.5480088902483289, 0.7589356689200397, 0.16425497500124941, 0.8471065300056655, 0.798854582647746, -0.16422612294031813, -0.689883667955477, 0.5832127457053338, -0.7945159298474096, -0.36103078999729843, -0.628485089947286, -0.392905495962413, 0.3885410305289789, -0.9210167506669666, -0.9083705262409315, 0.8203194836110891, 0.8834762722075056, -0.6418216151178056, -0.511075267906818, 0.011950889814912102, 0.36673044651562625, -0.09373411769662487, -0.572948241389758, 0.06279471742755338, -0.2296896953292349, 0.5523704757688841, 0.8837162264141649, -0.7867712664123814, 0.6094702265259027, -0.5670975100236442, 0.9661593783553184, -0.3177565610222557, -0.7052715860613988, -0.3239577810017909, -0.2245534586908274, 0.5035712686356038, 0.3382749176286798, 0.9084992576183865, -0.4245554276807553, 0.8896094044829382, -0.38238876590328624, 0.9281104349072996, 0.11451859313226549, 0.356294792645953, 0.5218063733956185, -0.8024450733197761, 0.524796661131437, 0.744037560898545, 0.8230777059685618, -0.9026523987129429, 0.5383238808483767, -0.669382193471643, -0.6512770759311373, 0.7017023895828869, -0.768385347998457, -0.9729593246734107, 0.790964727745965, -0.3428176963172289, 0.8526321810703457, 0.8395714286414017, 0.7294165713808111, -0.47184447990011535, 0.5398010946406941, -0.47758147225656494, 0.4652647595465337, 0.19763279788888985, -0.5427758835214116, 0.8491421223269332, -0.6085621093699365, -0.36883252093342817, -0.5773884551852217, 0.6064710796118145, 0.24466241861611404, -0.1611480341372629, 0.6317679067074803, -0.35553270742940923, -0.17724971775537235, 0.7319326454564644, 0.8989476486626037, 0.9096862941417072, -0.5658291634789941, 0.5992122310566272, 0.07402189264125525, 0.1442083667252716, 0.6422042880332912, -0.542675951237227, -0.7338294114138164, 0.2251470192911903, 0.36929491418856497, -0.6849149028707694, -0.5024757053815745, -0.11974953842478765, -0.38862817586227305, -0.29992591626805853, -0.15898395801740875, 0.5047046158147128, 0.1965249928233123, 0.0899600845366334, 0.17840985773391874, -0.9653486567504825, 0.5989351135634546, -0.4387746466865995, 0.6246253611477064, -0.6082463746334564, -0.8790994453248756, -0.08607900703235295, -0.8287195809319509, 0.4923198384632325, 0.16325424202873165, 0.9750818491862253, -0.8929227037339134, -0.3830207508058836, -0.8336204508482385, -0.49359175344689327, 0.123089138003503, 0.5886257384394207, -0.4545916661947997, -0.40245682476946737, -0.47895765859462447, -0.839192073759653, 0.2857818373519878, 1.0263347737271595, 0.3219686296402821, -0.5811554892589692, 0.51997579500242, 0.8641380266852821, -0.31591221351082416, -0.866771978036272, 0.05440142375364278, -0.7922139836210669, -0.8104037497963721, -0.6887272926173196, -0.3834059941886604, -0.706129015460823, -0.9789414347815504, -0.9823867212851632, 0.3228001825626831, 0.5500588744283503, -0.8260654225179832, -0.026815669111812195, -0.9633151654871679, 0.17534214807654647, -0.434917919859263, -0.8863644681487973, -0.04089076701750613, 0.7733345031038422, 0.9317096584352063, -0.5434835314716006, -0.3664659949145787, 0.9191912879724491, -0.5962993384172212, 0.924323395992353, 0.8096885908660169, -0.6811438922218349, -0.45963674997205717, 0.7035464165957078, -0.07911500457753615, 0.9334912712900145, 0.19007495341909805, -0.3064174486909194, 0.4960181066993839, 0.14138681736146752, -0.8781843054769187, -0.8305210838808202, -0.8360600087021376, -0.3417917401218705, 0.5158207240760974, -0.40556235052087203, -0.889305943153222, 0.018098813302741074, -0.5623682535571017, -0.19426464719452202, 0.39889262282722776, 0.45361285704108223, -0.03829491110178003, -0.4073944268629914, -0.7295253147369284, 1.043565529032356, -0.7684965449955515, -0.19028261880186556, -0.6751524138618723, 0.5095439656953813, 0.645248664001356, -0.28776162176855846, -0.12099549537657653, -0.2878178137867121, 0.03079030610926834, 0.8200286494783902, -0.1321481762063598, -0.41597394262770304, 0.27913260841650034, 0.8703582072494299, 0.7976027640858114, 0.014801224198002486, 0.5418093830569426, -0.366966600215004, -0.3813204102172313, -0.6340433479913051, -0.09513455772522175, -0.45728427399793437, 0.7416153098815438, 0.49762471162028643, -0.08716677278328136, 0.9267598770355902, 0.4772534316856895, 0.699885254627124, -0.6478623901839442, 1.2020617042746664, -0.42677335170172204, 0.7775694606662777, 0.1044779381926309, 0.2695232546683903, 0.7506541520510212, 0.0827483851257624, 0.552210240827353, -0.11346651080383882, 1.2123038402992823, 0.5703017942116759, 0.4414520843426398, -0.7894038965349115, -0.7947007197951536, -0.5333613770754289, -0.02106640432427074, -0.29763456819946366, 0.49529566816470694, 0.38793653026539243, 0.6931679623103206, -0.3967856703701672, 0.009270795339027615, 0.7849474058795971, -0.6191467672468607, -0.28665133960047157, -0.22606225970109606, 0.48355892841085, 0.6462158679081411, 0.46293268601243615, -0.6358734232790216, -0.18332836242570302, -0.48971991382011143, 1.111782950389423, -0.6195043063188771, -0.5949531315307698, 0.13617628670691284, 0.23006793525069977, -0.42904022337528214, 0.8574080367082288, 0.09011480897725875, 0.021346427431691368, -0.8916547446953175, 0.9048566784903007, -0.4304281793455144, -0.24763582961140357, 0.5548523804643082, 0.20210284394200803, -0.8892310467125908, -0.41235785338524433, 0.3319380404074724, 0.920670753819248, 0.22071493430849715, 0.45935263578441204, 0.8470084149619386, 0.12773426223347148, -0.7215331325694219, 0.36594774275634323, -0.5023405100228989, -0.47624191670740235, 1.2228490131036975, 0.35158710919140157, 0.7795719581046986, 0.7337887751435078, 1.2197887114929225, 0.2492212364260721, -0.34216172392683064, 0.9714948494546415, 0.8860536651691533, 0.43513297062540757, 0.16845101059359838, -0.6760108982710905, 0.285835609393942, -0.38342032919289376, 0.49396367719491535, -0.2582338128929225, -0.34042384738413556, -0.8246595741000938, 0.41909183535183775, -0.4360084115350579, 0.327549574368828, 0.278459241729948, -0.45080563764005965, 0.08795813076815338, 0.37659988840482544, 0.8833653614987481, -0.06996261915350134, -0.13353146253188847, 0.25543731342621706, -0.23639840820017285, 0.37035241986924744, -0.45503409498548264, 0.3684066556666496, -0.28112513930637884, 0.9651044059672641, 0.7631017993124967, 0.41193821559865945, 0.2604441512027438, 0.7583852346674756, 0.6283078959443097, 0.9402655919805164, -0.32155754666143316, 0.08917421490239329, 0.7366218407460734, -0.5600126213512582, -0.9955507746021932, -0.8765340960956823, -0.46089836775208004, -0.1838923903011639, 0.9843212642242433, -0.7556661500024373, 0.03790857959456462, 0.8979160832314769, -0.30051427221137306, 0.7433641589269874, 0.05008216752640236, -0.40641415285084853, -0.20619324952472903, 1.1756482712563778, -0.6028324984654435, 1.2672135554980006, -0.1843921713347688, 0.6277023131283294, -0.37124287957452634, -0.8993326542461144, 0.8034819448837023, -0.602006173467948, -0.07682471255284627, -0.1793009998284918, 0.5704101462408865, 0.29310875993117014, 0.3265891453027641, 0.06138337943942074, -0.07900399679358079, 0.3653855840200024, -0.6995544485999342, 0.3836836989186195, 0.9218601975744357, -0.24336003345642762, -0.4810076146920459, 0.3202881523860582, 0.5916545978645165, -0.6408341380285358, 1.1012814577089038, 1.074890887895329, 0.36257776744459663, 1.1225596617737128, -0.1259575492820621, -0.028565084125578528, 0.6467722819990563, 0.2248675112028994, 0.8719894152802041, 1.0406472863743368, -0.7101100347250079, 0.04462982550350821, 0.15543034560238883, 0.4383622894528269, -0.7413565972896939, 0.5007252827125875, -0.14904821435819995, 0.31090001343339607, 0.48588666465876457, -0.5917352521260583, -0.24155337045366002, -0.02582348857816119, -0.8738157039323656, -0.2628839048222214, 0.4775205094885588, 0.9537263939031195, -0.13283858072825727, 0.6137447526084753, -0.10591833630287702, 0.7254625479743744, -0.3972624052221018, 0.23768271068255542, 0.3481437506469871, 0.7795542095635175, 0.793238626249354, -0.411680945486345, 0.3669741907965412, 0.17353667528004266, 0.4074046143497433, 0.004861692310556955, -0.7246383465262256, -0.28595776957082775, 0.9663115072318141, 0.4681591252437615, -0.027874797120760592, 0.37889786070451065, -0.9298870367182037, 0.5595731800407635, -0.9625071743960456, -0.6730674106863398, 0.5896727417015314, -0.5451051567457724, -0.7846107882286043, 0.3603478244612966, 0.7064052593573927, 1.2255432308342917, -0.6031672651584271, 1.283428972536752, 1.2863056897743226, -0.3010806504519065, -0.3242391499030106, -0.24281616396369504, 1.103658556623076, -0.018440752820352905, 0.26849565896045596, 0.11354725644365153, 0.9625168147186575, 0.26631479481455106, 0.5573609674689826, -0.6281991316162621, 0.24140806999012737, -0.6038494174947983, 0.015682529483259388, 0.1183283610046906, -0.1895760939113972, 0.3011418392927781, 0.45668001711302086, 0.5246936815453802, -0.4146060636029086, -0.15055799039037784, 0.7063122375709693, -0.3909432118523358, -0.12132627613533144, 1.072269867532803, 0.2978368758067841, 0.05380299698879835, 1.1268784617581387, 0.6468827805507417, 0.8164795550818108, 1.2053500425982417, 0.9427798818178452, -0.03437950332122268, 0.23899679045785469, -0.7658120215843662, -0.7718866626729393, 0.26589318708274595, -0.5850830894322494, -0.301419090101257, 0.5845908221942465, 0.5376402215437723, -0.5287256066366481, -0.5493126937458188, -0.005298797010512596, -0.027349533102078126, 0.9893282592200427, 1.0505485907991619, 1.0709182593233184, 0.1243364055837547, -0.7316077623700944, 1.14943748275677, 0.16120788489281915, -0.3977544342143881, 1.1928329106896192, 1.3858843953011115, 1.1263234034762624, -0.32007896727730445, 0.34500536936913545, 1.2452439040717225, -0.3089774816438853, 0.3560696003121857, 0.7932570370457263, 0.13235763641310958, -0.5325775341396434, -0.18901803629762892, -0.24901454829257724, -0.8773316849882847, 0.7885573872977581, 0.8708197477977739, 0.614311525678809, -0.8707093345006137, -0.9123200837619041, -0.44509292038429055, 0.24460653093171075, 0.8239269872675016, -0.6349258800873665, -0.5663832010898061, 0.30931947711132124, -0.5362321099044987, 0.3568126697519123, 0.3760058560910548, 0.3225601768883788, 1.037116669002382, -0.08913404595859599, -0.4468973885255434, -0.4333950505464212, 1.1521552938186905, -0.6164162560636862, 0.32952123224465313, 1.0240841617003873, 0.9988162925046105, 0.23352687936823663, 0.8714546238118028, -0.5781436405794657, 0.285938324614785, -0.9991256568415926, -0.7390561001745986, -0.8822573599935077, -0.7399621806439141, -0.4108836111034114, -0.15336675840933034, 0.14543460221012738, 0.19331171981879597, -0.22408904871131605, -0.4938774539259778, 0.5382609974047304, -0.7499421053670589, -0.5919167818886948, 0.08522528273739759, 0.6185560925302144, 1.2500265847767127, -0.65368115094999, 0.7357691789761711, -0.5036832977518144, -0.13098020371627506, 0.025574643822060164, -0.7178487482571122, 0.4450609216115094, -0.769677953312673, -0.3488836438579693, 0.7980602500527112, -0.20775704022572372, 0.4353815033255455, 0.9547491175428531, 0.9140525062060947, 0.5530494102719513, 0.3256408857226215, 0.4082261608029471, -0.747129278187467, -0.18222950512561845, 0.9207448111685004, 1.0685209750546976, 0.061539892117011094, -0.2990035613911019, -0.6492640481309591, -0.4304985566340613, 0.007164158900373822, -0.6762037581797933, 0.24347914002813076, 0.7022740669380632, 0.6386520177467176, -0.5567561418308997, 0.7779002995397925, 0.3237831899234697, -0.0677873216622107, -0.6484377471231249, 0.1816675292534517, -0.6745344442114236, -0.4646866561258, -0.43812790698845455, -0.934564694100499, 0.03897954339527422, -0.6930927239057516, -0.321363328103638, -0.941978800686006, 0.787853747590185, 0.4848381255639852, 0.5567491861136916, -0.2433353715135785, 0.8834909643311989, 1.0165448819687408, 0.5153452790961605, -0.08627659673912774, 0.485888144723052, 0.09563866660903572, 0.8569743570518067, 0.024760500765272524, 0.13999606392513236, 0.6961552837543971, -0.676432694665464, -0.5770662675337126, -0.5721599939378292, 0.27489576786135755, -0.7738460347979177, 0.12383484599145758, -0.20160250157289875, -0.30228395137638453, 0.36867212046540615, 0.983219359436808, 0.5937316322321549, 0.8275257332117592, 0.8358161631696929, -0.08980762097041664, -0.22053204199552118, 0.56180183249104, -0.6606078773447766, -0.7148247796649642, 0.9382561554487726, 0.4237290106463652, 0.6422177932912186, 1.2631778919455423, 1.3389245274230075, 0.08650327747464738, 1.2942164317034397, 1.0302336575321336, -0.1624751325589523, -0.4601936917329529, 0.018973708518837017, -0.6556173035028389, 0.9184640384854595, -0.07462689062795021, 0.8148572661752002, 0.9521448587254144, 0.19685010647764398, -0.7669846023381837, 0.45243737292165825, 0.6882474199465409, 0.09824332750659237, -0.21156536781713556, -0.24966518341070992, 0.8588431042548249, -0.10356391976309515, -0.8451459349579616, -0.6584974567494294, 0.9846394807918499, 0.0691155785155951, -0.2018192780765101, -0.2737472774337705, 0.5211303392233458, -0.37665373782992884, 1.2202270253656382, 0.9059541482732144, -0.19118096893632178, 1.314209978146245, -0.2950935166632962, -0.1579327542194162, -0.837698345227077, 0.4613047029043755, 0.9127312274077353, -0.852056142335748, 0.6351870975870914, -0.053766791027766644, 0.9440796819994238, -0.2545217573714093, -0.7005207918010782, 0.16737614335036755, 0.9215636315331226, 0.5247452737232134, 0.5950562294348924, 0.6156812840116221, 0.935096714115241, 0.8792764867800748, 0.08923150896759564, 0.8165001960638246, 0.905128572004158, 0.7379292484811255, -0.4203620139963033, 0.04447988916200913, 1.0124293454457256, 0.013000846022891845, 0.794857848237699, 0.4989942447607787, 0.05575364000914762, -0.47709896810313274, 0.567879719920848, 0.12360869813555216, -0.8957929817452126, -0.01818674649871596, 0.006479614386474119, -0.7662216090211927, 0.98322425427221, 0.38905385013763244, 0.5821434978293059, 0.2564267225996675, 0.199475670354601, 0.37763301893111256, 0.8510757551430841, -0.9428239102855172, -0.6683823657186637, 0.5357807928600355, -0.5308865228978367, -0.6774619017244863, 0.10678783573922453, 0.9030834389123853, 0.8101462135339998, -0.38054695506490616, 0.9896760758191178, 1.0986960826097467, 0.43279591913086735, -0.44440380563552806, 0.4148821683997393, -0.6941770702850582, 0.7114982352289335, 0.31908829584012494, -0.15608968273331664, 0.12291849805216774, -0.8846590546368414, -0.43808435145325286, 0.7063332637126832, 0.7076636722238205, 0.015230633054893774, 0.6362111680343943, 0.3509642042801724, 0.18177829151249636, -0.2152717062251732, 0.2906031142120613, 0.07651319551553015, -0.5401030728194267, 0.7763132906106238, 0.0946057869501548, 0.7965838709088039, 0.05418836813608061, 0.5215774276102207, 0.04309540129999338, 0.9631299668975175, 0.965244253488602, 0.03634803281961345, -0.15296396012092778, 0.0782650206644336, 0.31982799518728205, 0.4754723893790314, 0.8605018190521599, 0.29667036950087716, 0.9709151012724682, 0.04205038311536265, 0.804240301541298, 0.6487183061925329, 0.6636668813890685, 0.3661906139748621, -0.23142536793269564, -0.531713151399049, -0.4002659009101033, 0.3405298769415568, -0.2823074329977033, 0.35871704280631767, 0.2587513799615401, -0.08463134931995155, -0.6059352537764973, -0.7861882919130635, 0.7189569818323329, -0.5889502097817385, -0.8598652501546546, -0.9236908858039744, 0.4130936445269918, -0.9829221166725158, -0.35143343922587994, 0.00902823385456189, 0.45133427856169084, -0.7867709654173443, 0.31538872196973644, -0.6932078646977482, -0.4633434907081688, 0.35593595010839935, -0.06992806533705784, 0.8181150512237084, -0.9595820185852717, 0.6053433036590863, -0.9624152941198167, -0.7075903420993974, 0.717197376809217, -0.02958742112153878, -0.0976275033946119, 0.4213482147907813, 0.13543620128349634, -0.35084606402441965, 0.4221046951732877, -0.15703260295343605, 0.0566886875745082, 0.0607298683007415, 0.15669043430254742, 0.6983535478823023, 0.400035007362339, 0.3839731288668483, 0.06647070607640174, -0.3511364420115932, 0.42164930825365526, 0.3909472680528523, -0.20808119001617625, 0.09161828605329193, -0.28868628034697974, 0.8227921985307453, 0.6681829406657928, 0.53416671703334, -0.6564954759007808, 0.87615339720547, 0.3873544974207872, 1.6308525361843502], [-0.4537751315692211, -0.29944216252820866, -0.6968809357013785, 0.22203692122383978, -0.6652138270047092, -0.15311425140687818, -0.8614621348768672, -0.6988255254587563, 0.3327167431985856, 0.6204943839257215, 0.7451518780294064, -0.6114259451341779, -0.0803266939442068, 0.041343695329545564, -0.5860235112963347, -0.8638259855168074, 0.8146565530616217, -0.2914925385654086, 0.08327511733575821, -0.9249943898218895, 0.5518077411278914, 0.6139689478881964, -0.8316783905333685, -0.42333028614512513, -0.08528562444925347, 0.4683005041862076, -0.6740922003599938, -0.20261687012167018, 0.952690951322658, -0.9513284718391126, -0.49403060259479314, 0.7591405748201077, 0.6483566798322993, 0.20642360365087958, -0.1968143192536007, 0.9415137212412822, 0.11278631778367026, -0.23842666411141958, 0.23483568336622207, -0.5801233077518929, 0.38028050665439284, 0.5274849018660477, 0.35470071845572043, -0.23208098928360582, 0.9009027116612407, 0.9523459566678913, 0.16505282637754135, -0.27608653535786404, -0.8222659716812322, -0.03023929133710083, 0.5715175409147274, -0.2998194355354364, -0.6187097424384289, -0.6683705449802517, -0.22556973449448403, -0.8380252777411881, 0.09002804308851031, -0.48117535757963115, -0.7020028519591502, 0.8310857770478141, -0.9361383429588802, 0.8196015698584588, 0.19725989433158544, 0.18547750519891934, 0.4605747095821924, 0.7601030517660987, -0.6371529619492539, -0.6217202723007859, 0.399864479198173, 0.037410145739110015, 0.7796468196504056, 0.46488929862192735, -0.6458152279184501, 0.39839264379724976, -0.0678791113627494, -0.7391568472337667, 0.8272393846438187, -0.28251678118274004, -0.6071894214703089, 0.26647058723026307, 0.5099343697459968, -0.5664139296936002, 0.8308810736094856, 0.5521898511666796, 0.24420316468660275, -0.5647553674365959, 0.5103596840912689, -0.8813515075752144, -0.2631055797196335, 0.8070808955782826, 0.07682447175657722, -0.5378455819969237, 0.39944558258746204, -0.7546620680569001, 0.05399443913110637, 0.18551131042863162, 1.1378108036464025, -0.1804018858697183, -0.11646632162459074, 0.3879628027279357, 0.1512107424937528, 0.4828839310077275, -0.38498066634959965, -0.4113491727468673, -0.41498578456992935, -0.21164662497766193, -0.08514925353069046, 0.5921935805459221, 