[[[0.5816611217989573, 0.7251484360097802, 0.8745567417518643, -0.044274936412538546, 0.8350801233573413, 0.8954395764206511, -0.5492569777198661, -0.7880489257162782, 0.27883698783423516, -0.9983419789374033, 0.11828225365421186, 0.7161664719238598, 0.408384055028276, 0.7066620033238213, -0.3684739119681617, 0.07363336243124796, 0.01848111327294011, 0.6904207823088573, -0.030704700995819234, 0.4161447004453258, 0.6909635634504416, 0.5475267253869354, -0.13112075593793682, 0.8355815674179317, 0.5412231355765855, -0.13255825411910638, 0.416471415256203, -0.2586149658379402, -0.904467122686679, -0.785276578171654, 0.3368991783300326, 0.466553111030225, -0.01758500226302928, 0.8123316962886333, -0.15546820105360437, -0.6643679573348482, -0.88180294554419, 0.45518754500257974, -0.6699473420183388, -0.5517120004702469, 0.9674077125124474, -0.6092924374426243, 0.6944347531525179, 0.12226795539160662, -0.9777449321464706, 0.6819125797980004, -0.5628736852960903, 0.5416362681110907, 0.7140041348575792, 0.1791420905193779, -0.4352172252660311, 0.6871968112713909, -0.6686870193303109, -0.7385836195038056, -0.24121175324095678, 0.5579796569361133, 0.9424191119004659, 0.5131125190152483, 0.2549516856015839, -0.428471470723909, -0.10339767969311975, 0.711365392934959, 0.3393030663350707, 0.626542258857983, -0.05440210917983368, -0.5327654546625769, -0.7374181261729298, 0.656503415025848, 0.31399943413666453, 0.026045470128934323, -0.7000428427457548, -0.4457107041467028, -0.4155091063787244, 0.5236383135520433, -0.40827927879027515, 0.10014077816172229, 0.651037748486798, 0.45976989163804993, -0.06903397606230088, 0.3125971567034924, -0.27099692395953867, 0.522595698260174, 0.8257456752349994, -0.254607846815307, -0.14754934053848423, -0.6257776307992997, -0.03300095349965648, 0.0018041308471621331, -0.4588038406271189, -0.8324754796505935, -0.7039159708286853, -0.6498945384534598, 0.27492594455843355, -0.5741746211881447, -0.1783431026218445, -0.20462970659569124, 0.7789890682980503, -0.048031027858176145, 0.8500810385958106, -0.6058745635674734, -0.8629967548056783, -0.1412229304703192, -0.9356050228623736, -0.2955277688786919, -0.018395683056495082, 0.29226800095875527, 0.7536318051042457, -0.47832629919744374, -0.6796932017608137, 0.5579758358009934, -0.306271936032082, -0.10935953979599233, 0.4475419378331207, -0.5263414815332161, 0.28283990112970114, -0.9435799114163468, -0.6903383029336811, -0.5863333248136684, 0.7176945508451238, -0.9678162690557759, -0.885086837728511, 0.0494300180913958, -0.9552544267862157, -0.1525427093884406, -0.03630042121663446, -0.4180040867249166, 0.5710058610387092, 0.8066451222745299, -0.2534789261840986, -0.3304935494576029, -0.3746889133130158, -0.5827796330026154, -0.13726326505759623, 0.8049535143611517, -0.7825394146139624, 0.3751216829097268, 0.9603578403505859, -0.5327037870549214, -0.854714954031718, 0.8544052201360683, -0.9158354613378497, -0.7250504356694876, 0.8132628915591709, 0.8179324741725602, 0.8083419837906578, 0.08984664887206772, -0.8383552033822745, -0.213579858565339, -0.21889544807531403, -0.603135716018899, -0.2876270821187783, -0.37192568839860596, 0.12799989052674343, 0.15294347230873817, -0.37196794661789734, -0.10822939157301992, -0.7527104901029369, -0.8995215042586038, 0.8384064514097493, -0.8742385634092542, 0.8376922058711636, 0.71278264791433, -0.06594540547990935, -0.6290006709915823, -0.15609055080686396, 0.3898649419978941, 0.21450397594336357, -0.4667062935027846, -0.6263743157906634, -0.8550864911938376, -0.047632948505197836, 0.7577123177496357, -0.5905645165218021, 0.9081528272720123, -0.7507420158914415, 0.7413687607441857, -0.5352545827492565, -0.47954384581359033, -0.8237674429387543, -0.6983751921238222, 0.5662396383622543, 0.4882552986535169, 0.32014801495865597, 0.43104587792984095, -0.5491155766324143, 0.7586569984547977, 0.8644728158198813, -0.7502208664501262, -0.9381235921198037, 0.8467586691812057, -0.5202619086365818, -0.06137933860040534, -0.9959882418124542, -0.2082926583228648, -0.336102330181532, -0.98257807483635, -0.9745048053941077, 0.24393284222119527, 0.615618087621294, 0.16177860844956804, -0.30794101848256705, -0.2613665740030371, 0.07120284248055153, 0.20188724114278989, -0.375820693233041, -0.9805925683675425, -0.9120330297777239, 0.9086635383203587, 0.14650168525977114, 0.819472609253354, -0.9936290371143586, 0.07562416034624553, -0.24695379812693563, 0.5555523946493484, -0.6951168078592533, -0.7657091889355578, 0.5054767479236981, -0.2729284628520341, 0.8251973671426112, 0.2311294554592911, -0.0969232473038355, -0.581529148742209, -0.032267047078848865, 0.028122490337833872, 0.5632255000423514, 0.7997149775546513, -0.2627373441877543, -0.4940097372643135, 0.5367058170418368, 0.3769342860970788, -0.44847313898782115, 0.18496443032766785, 0.5147591583820317, 0.905903959446323, -0.4977783076182971, -0.6172446451196525, -0.24458805159068886, 0.3528222049655645, 0.07885238301992081, 0.19256670822784616, -0.4889516022141973, 0.526155834360112, 0.707683293806683, -0.9420222619514138, -0.09448122279662052, -0.2745259683732919, -0.06533254879022388, 0.1059049365213327, 0.5414649279217327, -0.4268299695031519, 0.3997338930593941, -0.17474831065066998, -0.8500340432506963, 0.5754238980805584, -0.6431025127723484, 0.8855000294733917, -0.8448956302999489, 0.2076340145366562, -0.9248604861232252, -0.5848383052415285, 0.794950009346282, 0.8180099578141269, -0.2913060061502857, -0.9969010172696859, -0.9924841910824655, -0.7956133347405643, -0.27447219112742305, -0.07182161036432966, -0.6431133581613271, 0.07847815196991803, 0.4707328559153148, -0.4913883735002744, 0.5733770224222798, 0.6873502506734412, -0.7982185791627032, -0.1697642681426692, -0.909945911689944, -0.16614327958182096, 0.29561935493810654, 0.8762142773302484, -0.5624898292041551, 0.9053530474607132, 0.10622177083410245, -0.9789008060152862, -0.026527703779505307, -0.7912332932964607, -0.7680238744235606, 0.36064597937530607, 0.06312465225581576, 0.45158131048907735, 0.4059412036803316, -0.5896497381910135, -0.6530033644621402, -0.5229679201235575, -0.6115508199677766, -0.6952796188395969, -0.4318655314276503, 0.6796682071242346, -0.8646864814796091, 0.7210362359769946, 0.15666482590343067, -0.8894122579631591, -0.2621734703333798, -0.7327430735322564, 0.3779744187490155, -0.05960404567479616, -0.7792633405039617, 0.16170819510856904, 0.7529948126206534, 0.5727337747367793, -0.2479532321505049, 0.1101827444595449, 0.6091808832782426, 0.10650630823102225, -0.4686238127665219, -0.04994913051914507, -0.23766049184204352, -0.7409453739698892, 0.42988528934268766, -0.7843755756621149, 0.16485117470800148, -0.8407482934518629, -0.3608595799779717, -0.6587120745394155, 0.7537243753870846, 0.8560668962804787, 0.1704606587626294, 0.801873835987069, -0.6423241263595041, -0.5625032559473548, -0.9144235978274375, 0.47373457165767174, 0.30153142573386726, 0.9303599006813508, -0.14520051481152985, -0.06242454558770394, -0.8354460526261314, 0.7030792992501864, 0.0903921996915249, -0.8862011633947682, -0.18307090076530352, -0.3867042413977604, 0.5725976393915004, 0.6268228223002243, 0.5226310547262847, 0.8555686747136331, -0.4321737372433996, 0.7880794127013637, -0.8681905209697862, 0.265665432426468, -0.13165432744733274, 0.6970472550355944, 0.6098410421012657, -0.39695896733754976, 0.403886585236908, -0.9224590981997633, 0.1988371569215277, 0.14822218958607225, 0.01708917591666248, 0.0862969070733457, 0.38075913865213074, -0.368626779944506, 0.8332097666389269, -0.7558780882942724, 0.8232251862492861, 0.2567952671532574, -0.22320995073849104, 0.07294035356821515, -0.8983217458113544, -0.8253669651512716, 0.04338211573621309, 0.9088828074000912, 0.5707258376934434, -0.14748669895225786, 0.9013028719676466, 0.6418016407799705, -0.6536275198900976, -0.374295022140253, -0.8202560588682779, 0.8090257451466374, -0.32970639259897827, 0.3266462254166149, -0.4989035557610144, 0.46858422798788424, 0.26992990299105313, 0.3976313631107513, -0.22672606585988997, -0.14450909491107145, 0.09142638940794656, 0.8561349404525995, -0.2843603731760409, 0.9728409154344675, -0.835511018252856, -0.5119887393993006, 0.5934868096675345, 0.4438840202845611, 0.2535416614787953, 0.03857033989531522, -0.320458917793208, 0.9507033327186121, -0.9685091346216192, -0.21499439746364835, -0.6603442601950293, 0.6281444005744983, 0.07357082848814955, -0.952571836834694, 0.8906081161069113, 0.6337169700487226, -0.06995589759939214, 0.974524219353337, 0.18185933664346554, -0.22326656911656295, 0.11389845300906254, 0.6802330714015821, 0.3027891878632738, -0.5847456898147221, 0.7552433577643807, 0.9417610861123042, -0.3115670596148612, -0.42399642939247406, 0.4615123671332355, -0.7992218247843093, 0.2824839736252682, -0.31790682415225, 0.5882710354932943, -0.9913516392449908, -0.27915069982333107, 0.11517321853349105, -0.8188056105689194, 0.2857191728701116, -0.2878091496851729, -0.5273039794856489, -0.3951362356050723, -0.6867182938976304, 0.4195012961488007, -0.7924041203799412, 0.19733594626935158, 0.7467232565836008, 0.2613762504739252, -0.9724705492198749, -0.9325166514656962, -0.408512562955323, -0.18724178957680615, 0.7097949625000151, -0.44281190406970183, 0.6407034115000547, 0.23907379982330057, 0.2876802055818666, 0.09524480095649279, -0.9441434766850199, 0.8673635922210448, 0.03546202885497873, -0.07435949855220847, 0.1243566683136117, -0.08502760054201675, 0.8393202529936468, 0.8965194666685532, -0.9783199260335604, -0.1866869618524083, -0.0027380024670640157, -0.1376574708181022, -0.8998327699965074, -0.32944336103661986, -0.10644335358487189, 0.26877920980650805, 0.9244091765005928, -0.2459611539433575, -0.31727161768034673, 0.9870396884927422, 0.3111156981031824, -0.6037503344983177, 0.9458436564096306, -0.5178237211550321, 0.492907885969323, 0.4479864121863719, -0.8979275190923104, 0.7087224993797461, -0.31076000349422506, -0.563764206121987, 0.6002968969315792, -0.862284325356401, -0.36900427395990554, 0.01393598704623411, -0.22666092647424896, -0.6011471259219192, 0.028896195075565734, -0.7847859881488675, 0.24378911881395537, 0.9740668661043994, 0.46298791127412486, -0.948710725480709, -0.41972912706264953, 0.7896053990905034, 0.18625943587170268, -0.1951960570198621, 0.9854506480730025, -0.9018247982106755, 0.5035400487578179, -0.7776404228745297, -0.5758194637926723, -0.3781631038731088, 0.23391538916266952, -0.8796504061459629, 0.7350721969571645, -0.1542816338935904, -0.5930346980830303, 0.016147609745941205, 0.2444496825590765, -0.02194393894521096, -0.675120014005687, -0.9164103005354172, -0.8647753643883649, 0.42368551458116266, -0.2622495125704887, -0.9201646297737032, -0.4074236740970596, 0.009453481155031085, 0.7857446339984844, 0.2538669443583845, 0.07031543793176365, 0.7185198765036311, 0.7020140069895673, 0.21868686120075953, 0.6882731423410033, 0.49467540103633745, 0.9126596780990348, 0.1388934505702326, -0.359839959416296, -0.5215315556063362, -0.5523507788089712, -0.8988903923364404, 0.336382689001238, 0.780160656305178, -0.5288303872406621, -0.012826452360109375, -0.3383607142329452, -0.7278761587895972, -0.05088862509545011, 0.3286149706116319, 0.8911104137543502, 0.1265463340251154, 0.5947927528170482, 0.5098520964248889, -0.9987530077774163, -0.5465297463295753, -0.09418227976964988, -0.7769549787322498, 0.10829322018328802, -0.8486500330588742, -0.6944112905344313, -0.27008954386596407, 0.5643420509805344, -0.6828601171664801, -0.5865011834003631, -0.6503604068463085, -0.2783097491475073, -0.3186848909980151, -0.4922960786637185, -0.8011124020021752, 0.21267075653707113, 0.6207762136290453, -0.9830778724752225, -0.3517570076861778, 0.9669807149515901, -0.2749683144084425, 0.3041825219586849, -0.1815935998649818, 0.5187894230588566, 0.07225471944434947, 0.6228099347350906, -0.599077517405715, -0.7115497655285035, -0.9003446565205078, 0.808592039457557, -0.6314799507638955, -0.1278188220518559, 0.8778222790502179, 0.7492335446454086, -0.04530244322063037, -0.638898339219863, -0.5686276298116171, 0.4468131088722693, -0.46104688125087767, 0.4471826886347543, -0.07267329185875582, -0.8748571400977512, -0.2574829311600386, 0.9223522216068445, 0.4280584996460932, 0.6356466444477264, -0.8057742859782373, -0.7558490461019061, -0.1774594812989736, -0.7319246172283784, 0.7837164662082807, -0.8215454482611217, 0.4927850115594725, 0.9483296659673868, -0.17695600441488524, -0.9387459873852675, 0.968380926101404, 0.7635179540044585, -0.13757883024752182, 0.725716619002917, -0.9519996453137005, -0.15999099262326144, 0.2825920806674136, -0.1922803166526561, -0.6407509608009618, -0.7697762249531959, -0.5434281859263033, -0.5793368968453991, -0.9550829743237421, 0.26013658135589446, -0.8642308681177953, 0.03730866754258333, 0.09849709180982824, 0.8282754647444028, -0.8702212880571838, -0.3513766851288236, -0.24911955568452404, -0.05915514644839526, 0.19855588965619742, 0.36233140310472645, 0.9199444558382215, -0.6418322115141062, 0.3529856659395094, -0.6895493112976387, -0.12075057494228103, 0.09002221268206645, -0.7931233174050041, 0.34139683690826494, -0.0417205185132703, 0.8343366020879328, 0.27024034271058395, -0.33317275355105447, 0.6247029006813936, -0.9852251075252927, 0.42817288679812826, 0.3878812897813053, 0.6666437040367694, 0.7597321220706215, 0.5703951541913275, -0.017852905844675915, -0.27629798972289055, -0.3993673050694575, 0.7358032878226706, 0.15943795529183635, 0.43542430519755393, -0.4089830702448818, -0.37074606258619847, 0.76757034165687, -0.43129136088598696, -0.44317795489398115, 0.3333508443131379, -0.4882101818556537, 0.789128239886119, -0.26585693060124793, -0.8257990739959695, 0.20444059421311356, 0.8392135693849498, 0.4171645742934764, 0.39235264241387546, 0.657625582059647, -0.4736583608246423, 0.7276476899447808, -0.8858856296339599, 0.37440969109880995, 0.15767771038978395, 0.7747496420580566, -0.4113542199189075, 0.812493284922297, -0.49662080750784465, 0.014832785640216173, 0.5347798758020681, 0.36249325813069233, 0.7230143938332785, 0.3799877527464366, 0.19232051127020222, -0.1273973255357994, -0.8103638807413027, -0.0905130899094535, -0.7168957989243057, -0.7828838009805215, 0.598390362651281, 0.5533322520176722, 0.815447764542413, 0.08969433922967296, -0.8082960021225503, -0.12732477510354712, 0.07983234626522306, 0.1698410683793008, -0.7123208150046187, 0.18863678692575547, -0.09554253821097869, -0.4431983200449283, 0.8015396543719666, -0.46219980034909924, 0.32677103192096757, -0.6216965857559011, 0.4748516713686999, 0.04961049649289606, -0.31688784244334456, -0.08063857157920507, -0.5473078371230724, -0.14268907277064313, 0.7787953806399803, -0.22089000243621038, 0.439650585299747, 0.05934994335848853, -0.0468565673870871, 0.13808495167196222, 0.9905482389972313, -0.06401065230785496, 0.4198205328732294, -0.3188567990222231, -0.49965314091176194, -0.4595275338339775, 0.569071394836359, 0.08546918631487, 0.46543258724093595, 0.23341353827570166, 0.22149008233855372, 0.8417781053608149, -0.5966681148895134, -0.7706877713660842, 0.7972326820860707, -0.07440738062219188, -0.1648319971233163, 0.7881672660410421, 0.9881087149312309, 0.06506923253616015, -0.3500946425461049, -0.46518912676538715, -0.26962635838967874, -0.8025383316326489, -0.886389140572875, -0.24940904932137964, -0.0020940279696100017, -0.5820003609313353, 0.004949286286620502, -0.3600277825843923, -0.7883693774057221, 0.5583150302272701, -0.09382564671416382, 0.8548477547474183, 0.9469106904734421, -0.11336643885979059, 0.23779852586252348, -0.9546004534600412, -0.9244080500986107, -0.9024286450547618, -0.3479617593550828, -0.7272356193071587, -0.7864148137749019, -0.9254260443683686, 0.05418587394955887, 0.6252882181220143, 0.2562845855969944, 0.4421327409578242, -0.352384275837087, 0.03642192868529004, -0.1289972703133042, 0.38081082733951255, -0.6104092443231142, 0.21597863603101053, 0.1453219867168487, 0.133296141102766, -0.31857758628080846, -0.9647367385199188, 0.9836244479628486, 0.35111205795021316, 0.22220590417465313, 0.8497642904763563, 0.1371528841669949, -0.5951770942241654, -0.7859987062285978, -0.9255615459687896, -0.857764757623469, -0.383872618126855, 0.6209242998681488, 0.8632181634166907, -0.5115970403260621, -0.7098372220171789, 0.968783350166349], [0.6203925423313885, 0.1706691622689427, -0.02596606033223936, -0.676351461255146, -0.24025369864099688, 0.29001610712835624, -0.8726766713324698, -0.1923684136586934, 0.6015313611274318, -0.15505297634769755, 0.7131620186105905, -0.9942837207954347, -0.5214682792231098, -0.5887227474058101, 0.7145252798644814, -0.7425064871353342, 0.589248039928119, -0.44709510730941293, 0.2770251860964268, 0.7728860976423606, 0.04659597022601769, -0.5506918399555878, -0.9053636077264797, -0.07528008889387738, -0.09371497252530836, -0.4814210834951731, -0.08633252459785434, 0.8768667542945112, -0.7881905451151319, 0.3734068359912508, 0.6525880367696364, 0.9101705010626644, -0.030385037583783747, 0.9786775879508214, -0.9746841521731666, -0.9302354169635412, -0.8654008442407612, 0.9650866295388587, -0.4762363621368375, -0.06681777036298886, 0.21362159929712377, 0.34671333384505854, -0.33278509116211974, -0.01815093174629334, 0.4836129278457828, 0.8029942487385595, -0.1456421497182312, -0.568978298310503, 0.8511521422745854, -0.5355430341538183, 0.31134820161824206, -0.030663924652574837, -0.8236092265051538, -0.24819815824454716, 0.05247926789769841, 0.8850563085921253, 0.5909613751412564, -0.6709515261270276, 0.48173717232228386, -0.9722662630984493, 0.31524061020145444, -0.6187623346522053, -0.47659679036548197, 0.224209029909882, 0.3042295129796042, 0.7065099798907906, 0.7099165247330985, -0.9680939439099732, -0.7596654141138717, 0.459040327840293, 0.2369675639038673, -0.21345932215839203, -0.7135388151189541, -0.08527832903568844, 0.18995156404147373, 0.7145319748113232, 0.5534545829786313, -0.08611875803955837, -0.20679821242010732, -0.26571101275457676, 0.7725620865074747, -0.7234231680814345, -0.19693917111900205, 0.06261206086261994, 0.3754729158993402, -0.6535877723079668, 0.13275425771855653, -0.9305900587760454, -0.5631445978628691, -0.19671982875148175, 0.9903710625564328, -0.8701488510796365, -0.7545088768083579, -0.44092341739368623, -0.7768881326026433, 0.8791413231625573, -0.5621910329871138, -0.3885544244700332, -0.5438031775808221, -0.8128179338544097, -0.2145847233976641, -0.722097107527681, -0.21011519366426468, -0.2785560459144176, -0.6403537357679869, -0.12306627436077844, 0.8202749460734411, 0.4777288046050616, -0.1944286569721605, 0.9601436878291241, 0.2369647358593181, 0.6024521501586753, -0.06425970288414229, -0.5490373617962598, -0.8737760002112558, 0.5465146715351732, -0.7389303145896295, -0.7294640842397129, -0.2300838351036718, -0.6132970114968954, -0.2844636438547532, 0.9461390627895472, -0.7640456734676124, 0.27860610418320664, 0.3168099856673494, -0.7429701367270622, -0.8830795613392051, 0.7988847580218672, -0.2609623297986974, -0.6794374020953453, 0.7302779955661163, 0.2858042287268927, 0.2681915947042375, 0.7970071130992569, -0.5447056507498553, -0.16571373094715458, 0.3572703259316923, -0.8069488147855031, -0.23942279560702429, -0.4601896591204018, -0.8404981045651705, 0.3702477835133833, 0.3202737058133702, 0.6545050718742838, 0.7733343179163155, 0.9145264534067168, -0.9351347450379903, -0.19807375189755017, 0.8794584504934437, -0.057421825194417186, 0.8196280869359773, 0.4030660401159796, -0.8207990562451588, -0.04870773474391621, 0.2485376667614947, 0.09782791420885117, 0.11798015260365702, -0.3561223020370279, 0.7186363679909111, 0.5568641719459475, 0.49979651376083023, -0.6124947413369235, 0.4341297610108761, -0.9034525691494548, -0.7629686193414154, -0.7625843392140896, -0.020068180993529472, -0.8817396566061855, -0.5099024370782521, -0.24575609124887365, 0.40628957412762645, -0.13941596926017596, -0.7839748775108155, -0.45841063813676985, 0.3478584701904983, -0.579151622202364, 0.2700010466234364, 0.20046844065996838, 0.4667946518552868, 0.053242393470037896, 0.007055637092548084, 0.5405132494967018, 0.289399862790531, 0.1345288470405528, -0.5798919562253728, -0.11401959216155455, -0.9284339567012589, -0.05963805277063128, -0.5409521692455868, 0.09324326174460418, -0.4960471712947576, 0.8190646437361495, 0.34343432017727515, -0.47137338443678667, 0.06766739906466168, 0.30711113697937065, 0.6968861932562063, -0.5379841291268663, -0.18886552412605684, 0.618144635914907, 0.06349487169591095, -0.639747969921526, 0.3981238216009282, -0.1599616744715633, 0.42842402100601995, -0.48145014349208526, -0.1937188262485683, -0.9248019242518268, 0.9964934340083769, -0.589969184750984, -0.7113142011010709, -0.4214835594714963, -0.1817404993481293, -0.4900069916066119, -0.8826849430913624, 0.3085432954711862, 0.5700180184259047, -0.48588835344253, 0.024904037171393334, 0.7608628346179831, 0.6636610251134556, 0.9264302082490936, -0.21391751023056305, 0.708345947876001, 0.23294757692902923, -0.4371211217566686, -0.11724632499485788, -0.4723474843853628, -0.18946577283037924, -0.6052787392029553, 0.6394904416755094, -0.359052847718037, -0.4594179273715182, -0.9128048182022552, -0.27726026867461684, 0.004892869687063595, 0.3046112414628741, 0.007911765687291794, -0.3139592778448337, 0.2871234893428196, -0.7149179849742104, 0.17794305937555932, 0.6795434964662987, 0.3864582543643802, 0.25675159442895534, 0.625760729123334, -0.6907136000331076, 0.9871611041474904, -0.03994159607877035, 0.5850736757366626, -0.42087716758766924, 0.9704051114363481, 0.5165187497969295, 0.36416418598029066, 0.9270560419961427, 0.9245558705569459, 0.8804000431824837, 0.14380001311844604, -0.49914878489321146, -0.5492932416260181, -0.6362230079567539, -0.1483173308799659, 0.835227325137482, -0.11449350626239796, -0.9990649199525459, 0.35227748020465244, -0.0038958685092109757, -0.8380930398835986, -0.8769024778996655, -0.779182063832331, 0.9776690125350407, -0.41547956673935804, -0.08220283663042394, -0.4848723744045429, -0.4644931376023034, 0.6777544485473863, 0.7402457033100911, 0.021997107418295636, 0.009179979505861358, -0.6343148105201968, 0.9566945145055388, 0.4158345354351456, -0.33876479133882764, -0.9643227310596796, -0.6063022182203364, -0.1289977260251507, 0.1418015935832222, -0.08942568598584733, -0.32438644605181466, -0.1532234618992725, -0.23285360850721437, 0.24725519355169423, 0.4026812065908192, 0.9397424981726312, 0.4239273341006906, -0.09605175695837453, 0.9057220813384799, -0.16592973117630416, 0.03670911035869984, -0.8650093273971322, -0.06947550141723147, 0.00844042806247125, 0.8083985232716415, -0.6836638390361054, -0.7193139615431017, -0.23402082696112436, 0.23847394504228214, 0.5124353454705544, -0.7041370638347002, -0.29957910821901845, 0.8917162578632059, 0.5087230823112585, 0.27607680490560194, -0.08210425832482549, 0.09121965445686353, 0.7330945639913318, -0.14571012892651525, 0.6937734639461368, 0.47305859440106657, -0.8410771601565805, 0.8917241212733038, -0.02072745018689881, 0.0036864082821841393, 0.9641136802379631, 0.3458682788822296, -0.07540241334447129, 0.9462716388969452, -0.6125983533045001, 0.01548969125862909, 0.48761923743568425, -0.6908753358242619, 0.5513554671464043, -0.10620964450237613, -0.7827766871317883, -0.6812273858012239, -0.19184212834006575, -0.9342872062664342, 0.6037366036002334, -0.07514764539874075, 0.3009671222820056, 0.9791150251712128, 0.5313442128135855, -0.2826437720402497, -0.5145754948923646, -0.3877044935476519, -0.7321163796969394, -0.2390575469938474, 0.032134379013932124, -0.8393800429371905, 0.0653517381614761, 0.18219300853340958, -0.555535871473366, -0.3746485009090832, 0.3524473671626349, 0.6081366177807055, -0.049323202387048015, -0.03156732116011285, -0.1406316690831657, 0.516217079059649, 0.9562376044022638, 0.94115223983392, 0.3438488001530311, -0.22137967968624284, -0.9933734988922542, 0.434585874117039, -0.02706171868858087, -0.29890875961500973, -0.2895695802770093, -0.581222922506909, -0.6067377478116895, -0.29467831226360763, -0.5071127504083079, -0.9167190381550703, -0.6996781736301416, -0.3961959947898077, -0.09262448601242035, -0.017839717024878743, -0.8852300015741268, 0.7003958779575701, 0.2879408659483187, 0.00972647988420583, -0.4813747934725261, 0.08373919053913315, 0.6039966749632806, 0.9101888587376159, 0.8483568143033546, 0.22630367329915257, -0.7606560701818248, 0.5240195883487277, 0.26644297436400444, 0.3284853186433041, -0.4876046910984009, 0.5617186692760108, 0.49453814972794974, 0.9166653410361432, -0.9949775150909597, 0.10914242483863479, 0.6100199884413622, -0.03962087977607642, -0.8468678755933325, -0.10006086455793173, 0.02375774518095497, -0.8147612954290528, 0.07158530209644298, -0.12820586003441092, 0.6612245738086471, -0.2556027543991748, 0.4714019233731688, 0.8961523023782954, 0.9234598811031496, -0.8467589605121735, 0.3274874625357227, -0.18417489504637907, 0.36584722560482064, -0.5475758775387032, -0.6405121956277136, -0.3201620888461425, 0.28280192606397914, 0.6964657549057442, -0.4827032357103451, 0.19608256502652432, 0.467729600169388, 0.7387102511733041, 0.09557877685336735, 0.17958904390650798, 0.5471676872111855, -0.2536211165514948, 0.11841211669551588, -0.5596402033727041, -0.3500030996223811, 0.21567710453277567, 0.930010583589022, -0.6613089575445212, -0.7062276889397341, 0.0777696152038172, 0.7154355824808396, 0.9618064544322202, 0.7179599150672964, -0.08366720180810905, -0.7918305039150011, -0.5820374879024353, 0.6668860120119822, 0.6115870212110861, -0.9128046820543545, -0.8469201306895096, 0.17979724607942327, 0.031906325455100415, -0.14414860240020144, -0.35334613379615365, -0.7541705355552546, -0.7217385535228487, -0.7643263908500009, -0.6298668747966054, 0.8412876601189376, -0.2970813840139013, 0.21167210006300685, 0.5197120854200183, 0.24534750757603918, 0.7110314334816936, 0.11104622244117968, 0.29855471886802776, -0.39391251889469014, -0.3605880537297297, -0.9251058951743838, 0.5872176030010066, -0.38904469299550515, -0.7402489976383322, 0.709268584184966, -0.6044229436863033, 0.595487655621258, -0.8728113234416268, 0.6515912331595068, -0.049154571494126165, 0.7751759759500674, -0.40261310365638536, -0.38646821144181454, 0.3739601190068884, -0.07421287641423557, 0.3808841775666487, -0.7582772631458095, 0.02871159644520871, 0.15518157800482957, -0.7365606806831719, 0.7622380370779864, 0.2796238336991419, 0.12687759529721254, 0.06670654286306843, -0.3415764715878258, 0.9857567887842886, -0.749964509421488, 0.20251289537753014, -0.6046258088817564, 0.19770550186995006, 0.5094982354634279, 0.9057221602594885, 0.06883253361936292, -0.7663929416105812, 0.3951145770747706, -0.4048595116952325, 0.6158790620964525, 0.7567817546368476, -0.9172696217222507, -0.9402126116248057, -0.7739405975976916, -0.18850715318755284, -0.9641796157708713, -0.5535985946396293, -0.12596223103759985, 0.27983710804844053, -0.7257193008592935, 0.4658689822819271, -0.6653597355233722, 0.30505704667728506, 0.08323242493221761, 0.5679980860833687, -0.8736090994764987, -0.9456311996880447, 0.1274245937394325, -0.8712291303125579, -0.5487526612963134, -0.9238852589924291, 0.8590632659005086, -0.6996983904650191, 0.2137545881052807, -0.08255015124157272, 0.43447777796621767, -0.9170243504960858, 0.17205806628943887, -0.7337034692475408, 0.9847211498520283, -0.27720370373752456, -0.5361538140034752, -0.295707254380285, -0.9205433150978242, 0.486992492960316, 0.7850379558836629, 0.20070533434045146, 0.6914464434171463, -0.28954235486469115, 0.9129658464313213, -0.105681196630385, 0.16812656112275515, -0.9343019409464977, -0.28613036330208574, -0.27664923464291324, -0.9183915461387206, 0.3241615303753713, 0.30218973002068195, 0.39243383182591773, 0.07527678980518115, 0.07115269976920269, 0.9329054799381089, -0.08649192777298187, 0.9065437110536787, -0.9457032994480827, -0.028094518685117364, -0.9553166983519015, -0.4942985173529779, 0.8737670421501071, 0.12999214187805208, 0.2722384001715339, -0.2851619999353614, -0.02180491366537396, -0.3656523208046891, -0.7980600778902551, 0.08314661758034014, 0.9178454212922655, -0.7769630315347873, 0.5330825723287309, 0.8163055119709877, -0.5882573188371742, 0.5268299786863357, 0.21255701869481136, 0.9800002761025333, 0.6084469206578724, -0.2505596185390295, -0.3095213870025073, 0.12536042963828975, -0.08348922867294029, 0.8955644905629951, -0.13218031937084684, -0.05317090489774379, 0.5965380215859628, 0.48575895066023334, -0.5291330043232334, 0.7183423113865919, 0.5249455742932352, -0.6866776015303835, -0.7576316007918775, 0.5559056349234346, 0.4039363057744625, 0.9159967871035077, 0.5688286980054291, 0.5608926227791877, -0.906829519520234, 0.9476279952247664, -0.26277917727546973, 0.9013884956760838, 0.5069461036139329, -0.4565053930633378, 0.5825373093181963, 0.7351871762010547, 0.30748218667637595, 0.18915642848498937, 0.8319644051654784, 0.27423086742523095, -0.7288981222822775, 0.325610936740645, -0.4008987844379266, -0.7547580133362137, -0.8657176748513873, 0.21296709380773504, 0.5354148916953911, 0.5822913276473163, -0.1317900529367897, 0.7415712592110844, 0.45910546708229827, 0.13449394011005755, -0.5743805491028684, -0.5952006544274853, 0.4589060865328445, 0.9065031286892689, 0.8476930594794538, 0.6771586691685045, 0.4367568770812149, -0.06530907698653854, -0.8051220170520652, -0.5868159390522429, 0.06873724359825362, 0.582484582508384, 0.4252374399706067, -0.8629674009961565, -0.08211733564214563, 0.40695641549727446, 0.5769088213727556, 0.703780282133909, -0.42691886979595717, 0.4345702516778167, -0.07993313558423676, -0.9225185812552399, 0.4164960961330175, 0.2176381632229356, -0.03360637744497663, 0.028501667870327152, 0.6683856549588927, -0.36664867330620643, -0.00528557354268111, -0.8924014479392357, -0.16747187887305381, 0.8998284900589337, 0.797627740901014, -0.4069796444700484, 0.21114123560731657, -0.4749216512584735, 0.8771202507839764, -0.8457982558924544, 0.9823510632297205, 0.40456140489502457, -0.11769302445511465, 0.04007554101246602, 0.6890276767973509, -0.48045150683438353, -0.020135717431012168, -0.5688810380330254, 0.07278803025824154, -0.47223948020956996, -0.8199134774286778, 0.5160414832127764, 0.7812651789556082, -0.4153556147986437, 0.8738852604892391, 0.08965581878784201, 0.9217561481787773, -0.3628318005695974, 0.7647547557740142, 0.7978763919425895, 0.3204953779977531, -0.19077528798378762, -0.5000322246643942, -0.9612915361643328, 0.8037340754024822, 0.026908778674768152, 0.9419990938331471, -0.11471763509510202, 0.004115964228742719, 0.8490715212448601, -0.9752645259545734, -0.7727039537980782, 0.7370164608343341, 0.11256682876232404, -0.6101638460982826, 0.5331414422867233, 0.6288844353285852, -0.5444371448780079, 0.09630631172002291, 0.5592978757856912, 0.6658890568590736, -0.3945924914212322, -0.49598380505783846, -0.9460838646777865, 0.4920549649498547, -0.6776242528885847, -0.1491502268478424, -0.9690698326298945, 0.30257131304087403, -0.9385983545284242, -0.15168828583581728, -0.23745112512124722, -0.27280944991525535, -0.3901923908538032, 0.9306415189345982, 0.07058919249876205, -0.535551697120153, -0.2884842717034837, 0.39301731757020963, -0.5096758808585431, 0.92497965083957, 0.06451735491613286, -0.6073489097672176, -0.8367965713243435, 0.9427124918459191, -0.6461272336995836, 0.31939626341794414, 0.6537755271990187, 0.5128121636450438, -0.1554349721969115, -0.36097357532207264, -0.2588443953256916, 0.20552940327822777, 0.46616622019563625, 0.04214366233283395, 0.9200814769871006, -0.9131875059402019, 0.054312094604031635, -0.2798799517731785, -0.8280167043589683, -0.06705007602179314, -0.9770381234143781, 0.03713387717715344, -0.18771288290270527, 0.6050762251841664, -0.33694668349654733, 0.08120451491393399, 0.7151436632234351, -0.1285456731056427, 0.7315391199954036, -0.4501287970182375, -0.5096451463219733, 0.33933274840904026, -0.24154350554111526, -0.4021587789240406, -0.14285023072764247, -0.743842214725724, -0.11800087023709716, -0.9893151544598171, -0.5777399697366419, 0.45601738883562026, -0.5847694881955365, 0.2849442133938076, 0.7410632585004717, -0.4406257515897152, 0.7005889548409723, 0.5516178457653407, -0.9403919454616623, 0.2532305191019839, -0.0734889982780289, 0.7383631644395814, 0.8464134924541538, 0.4593484590476473, -0.7691459244107277, -0.678004987870082, 0.40019845506764806, -0.42437918983508394, 0.6550307754583118, 0.8767636517604767, -0.8863935486629062, -0.060710629776010494, -0.804691217549973, 0.007052377465655901, -0.3521227006787775, -0.43299755062420275, 0.6156576304604429, 0.43416882894362896, 0.053119231465261985, -0.9269899337851117], [-0.946426322769363, 0.8325250560459316, -0.05636427646501607, -0.08943312320841246, -0.22977470190007843, 0.3932341159757433, -0.14441490866139106, 0.2290884478300843, 0.15653094279663526, -0.12482958984632875, 0.13539537336717888, -0.48717078233716915, -0.12486950637124372, 0.5449062458607419, -0.9827833288393193, 0.08197935361981878, 0.47423183081495046, -0.9196384458100773, 0.42960168471910953, -0.9392003052440778, -0.6762394252547883, -0.8560970242779942, -0.8214506367799477, 0.7791038241548942, -0.9654731321771322, 0.7017965734938227, 0.19805907530482392, -0.7196493799837775, 0.9994660713240804, 0.3943424762191228, -0.8878535370874452, -0.4985472423575923, -0.6647306874186965, -0.20857812506106943, -0.44969486757441923, -0.21585257639397293, -0.7875129153514078, -0.7509256000826083, 0.33674196046864435, -0.05368293816066938, 0.9718668950348706, -0.23237709514491312, 0.2102960718823801, -0.10224791754320428, 0.3919462990534728, -0.04599341840837967, 0.8400290772530339, 0.0488510674810223, 0.15765862779159168, 0.7652569207630004, 0.6130100550054669, 0.10078402026706401, -0.8293164028906312, -0.39464812261743165, -0.11211896252981512, 0.18432792285294908, -0.4603470444997697, 0.7854050773613845, -0.37022542825896565, 0.20774417303478598, -0.8871036536201058, -0.5261947475229856, 0.12396959862132695, -0.48411646093281435, 0.945945339733284, -0.9570004208674177, 0.678430769557036, 0.45836053388703024, 0.6142519958223267, -0.9489953906468553, 0.63180719815659, 0.9659896824315517, 0.32986707465783005, -0.743873315148629, 0.8774017823727336, -0.5526345613508958, -0.31332892288044034, -0.25062291963781624, -0.46713900625405036, -0.41009525975459704, 0.7696039824152847, 0.9391190241882401, 0.5515485559707349, -0.3152313088190759, 0.5745031801864631, 0.06782176849535748, 0.27043599541338326, 0.7584963342305056, 0.09053946774496047, 0.011105882583198001, -0.48596576587694806, -0.13863818082981072, -0.7513072326441717, 0.7716837978341824, -0.9054068627226248, -0.5105424402201872, -0.7067795935838124, 0.5355207034216973, 0.8665372389592068, -0.9237292553206156, 0.30463053575720567, 0.9543067599175137, -0.9171130136288004, 0.45049806442939744, -0.29115446639963416, 0.8426763267469304, 0.8958180492917274, -0.778561816840142, 0.5269755243504988, -0.21259391788463122, -0.5881953890596086, 0.11216372782068196, -0.6622380918845903, 0.6151773533396976, 0.8989795842421469, 0.7754342183235488, -0.23523784574609108, 0.7617028784254505, 0.9086382208406543, 0.3319098606912423, 0.052218183422973574, 0.08346112546145568, 0.744406787594152, 0.4803048567294428, 0.19822752069616278, -0.36029643834196223, -0.7028634937340252, 0.6593995907258643, -0.9944797038657354, 0.7358983784620354, 0.5513535260376887, -0.6516888136319088, -0.8555944780252209, 0.1971618433694471, 0.31095035887689026, 0.645599218869815, 0.7134369550664756, 0.3166897167319218, -0.01686928812813071, 0.13484786180150965, 0.9581917419863621, 0.8953375559455974, -0.2663348726529502, -0.054071655148454134, -0.30729261192194746, -0.16177838271043687, -0.13214479665211876, 0.7160611587706696, -0.5677379717598741, -0.37023045235224483, 0.18134820568020316, 0.03464482666058322, -0.38554489352111365, -0.4423909743574248, 0.3574277034235376, 0.02273491889383239, 0.40031170154722084, 0.011321310161186426, 0.5278667479213817, 0.7961404051292424, -0.08060310447343899, 0.4345084559851513, 0.2814976340811144, 0.8651752496178318, -0.0632153365606054, -0.7150928336140634, -0.22649283540330645, 0.2879201374368472, -0.4158016696698901, -0.6969109939769098, 0.9655574590401563, 0.39705650517896185, -0.37153750575230315, -0.6549392362266864, 0.6507722506690647, 0.6345439490308333, -0.5551678469310939, 0.7237976939129795, -0.6907712212944817, -0.47274177956181695, 0.2834564295999955, 0.9370019807531276, 0.8358410012350335, -0.13716317545164047, 0.8968527447190566, -0.6183159200789072, -0.32636891485718933, 0.3361070353664386, 0.42917734528381457, 0.5509595434918124, 0.22967212993711872, 0.038485418112959024, -0.43605013735108167, 0.24027304142830896, 0.20145551008407292, 0.09179764986335281, 0.8992899916066883, -0.04866339370486483, 0.6609093080708148, -0.809505563189781, -0.2660977709432153, 0.333531441022598, 0.46770532851704694, -0.4537086649838562, 0.0008668369995268321, 0.7496646498558568, 0.47584815442097317, 0.8850121327229692, 0.07075543273532858, 0.3291589474193779, -0.9661257419259348, 0.570220769774372, -0.6867850060783274, -0.03166222836264354, 0.8456198837960387, -0.027214042393703286, -0.9827872797327026, 0.047891495672692574, 0.17800107477368887, -0.362197931297247, -0.47938931302953325, -0.7292467247028143, -0.17478705865760902, -0.08004476095418767, 0.6878098897956002, 0.6968506658452782, 0.20949023155109403, -0.10932428774443492, -0.3354373643910178, 0.07929666427869408, 0.29719097507327064, 0.8349305492783534, 0.6281395489886803, 0.5883664821199444, -0.46648477359650165, 0.6584973312912681, 0.3144688942679126, 0.367416590267414, -0.7916062595878426, -0.2020234929106668, 0.6821368391973115, 0.23972132824660775, -0.7422995970135093, -0.9191647950599906, 0.0348499851114521, 0.8619478165540397, -0.2461850075213221, -0.6454660852805028, -0.7777125541768442, -0.275553413761237, -0.3888413067951131, -0.7385206486196652, 0.2247465757112299, -0.0369288810466315, -0.45279002675380764, -0.5865832746802362, -0.6628104966580335, 0.8060541670264889, -0.724173218393797, 0.23429371142208133, -0.18276708337836434, -0.3844512628709196, 0.34419786516675477, -0.3579209142197959, 0.9770384975460598, -0.9441794444454148, 0.38986862536440103, -0.8236920369909546, 0.3192228646898032, -0.41804524692886735, 0.2838666877122509, -0.08632873616241099, -0.33741831518405485, -0.632668610635734, -0.2318667861928212, -0.34828830287723256, 0.39779559670095166, 0.8901064801272958, -0.8946417707401295, -0.20441201699828437, 0.42232126188598507, 0.08451041012754534, 0.9834606718332681, 0.4630621322374908, 0.9538595871101325, -0.21932646288953928, -0.07495867298573744, -0.16132553514669556, 0.8308588871852665, -0.47240511491139436, 0.12013681178312674, 0.28585519671812154, -0.512099220991161, -0.46296825829939325, -0.13657901792482474, 0.4309680531487443, -0.7579705190099335, -0.5989195885825367, -0.5342566357023177, -0.7533658152688683, 0.5797706670283385, -0.5797642203656608, 0.06657680151064693, -0.982180092945591, -0.3686773876158491, -0.5584026578496104, -0.9240292919145952, -0.004334850959631487, -0.4509883266973289, 0.01947650058716799, -0.02206958264003811, 0.04208057975052615, -0.005573675544110257, 0.25248616884551267, -0.09329556275972117, -0.6679468465814629, -0.510384970502463, -0.21661381349113684, 0.9375552098337008, 0.10430822559291375, -0.8545080645220937, 0.5621804775578658, 0.2952382074971849, -0.5693337733105266, 0.5631718257952532, -0.859548337000879, -0.03717828970586323, -0.8532678230876483, 0.20932028225517474, 0.43966243748807354, -0.612432701244179, -0.2440949766345908, -0.6825155160323926, -0.850312656723492, -0.44490185549804906, 0.2627985669015178, -0.31714486493847294, -0.5075129070184321, -0.019169085889802373, -0.638773786112736, 0.3435486855236496, -0.33421133156991845, -0.9385334661098392, -0.01883674541605984, -0.7185757428762181, 0.8371360458112465, 0.9516589049217576, -0.2622416227153719, -0.4319144791157743, -0.24786328809672153, -0.861335208826181, 0.8009956684889206, 0.5063465872554165, 0.881243298162738, 0.15735745300750525, 0.002756956437739877, -0.001069901126776518, -0.5147106579738798, -0.9154974760771024, -0.7351191301867308, 0.4426284936428897, -0.10830430764274901, -0.8586296334423662, -0.8615225608177963, -0.037694051910891924, -0.5760016543251454, -0.7240743649105397, 0.24757492564243333, 0.1875708372074023, 0.9367850474343753, -0.03949812156468746, 0.12956021744074975, -0.3444540278458528, 0.5831009479046996, -0.4980878640599875, 0.013478491952307214, 0.6975369763680641, 0.6407771731178571, 0.23056617577687266, -0.6452721224702491, 0.8545116556197181, -0.09480203713834401, -0.519944459342804, -0.20060463441055654, -0.49282694874735133, 0.3495156884990487, 0.25772686794386757, 0.7988529655494518, 0.5583360828566037, 0.0990485454066401, -0.7937741073981952, -0.5724432168459379, 0.011418193552853673, -0.7820731913787575, 0.6404888648541953, -0.01131685387644521, 0.49826254570838446, 0.38205859378910567, -0.34622396172338354, 0.6774814322665048, -0.12710677443906304, 0.037117130307479984, -0.9865719861852624, 0.18305505647105935, 0.7427240347465978, 0.1977278958779478, -0.1745398514890215, -0.1851694771747463, -0.6611266576455486, 0.784328242097091, -0.5011923841676367, 0.057150114909777505, 0.5999488660023855, 0.9285587359632081, 0.7152554469100405, -0.2825218472031754, 0.5574354687539367, -0.47417468662132567, 0.5405631366880088, 0.9598713531076599, 0.8798230040000974, 0.26403311878971003, -0.16836857763187973, -0.9737950171010885, 0.3722314818146424, -0.5148242888953751, -0.7003201171639004, -0.24694114659217492, -0.6834773948010411, 0.5706965799291579, 0.27257355999573574, 0.9159434591021014, 0.5019797038490563, 0.5580275353619675, 0.4153001163322021, -0.846571544231794, 0.431604294042643, -0.27730678949530074, -0.5032381954965037, -0.7124473649336658, 0.6431023255620416, -0.9458794743575571, -0.7438684193455625, 0.036585167715944555, 0.7062161598538899, 0.17167034358578603, -0.5702383088895253, -0.4763089727781331, -0.9491237191777451, 0.8302184290714394, 0.5166394063697188, -0.79676868057569, 0.7189955907620529, -0.9077141335069798, -0.20536508677823506, -0.462344326993984, -0.17698065531303575, 0.10782011333512287, -0.339945473028036, -0.17268150624805623, -0.7658802740473527, 0.08679968428850326, -0.6854738118355417, 0.3336010911514462, 0.5683793625657769, -0.3727808227393845, -0.21471970634985138, 0.4535347742311422, -0.7224389457221532, 0.4699858963556105, -0.12147922216335272, -0.22253274110246402, -0.2057600288986996, 0.6193520154866186, 0.4362524410715547, 0.5395856362420035, -0.43968013369313796, 0.11981101782885051, 0.9539175513663858, 0.09472932443308668, 0.033232606375577234, 0.2647516807288648, 0.004235178107444115, -0.6511856902408195, 0.635299663040729, -0.524729755948049, 0.5485033860914821, 0.5942321188039152, -0.30405546316142784, -0.46698438359486527, -0.05309782012005848, 0.8923698887985028, 0.8826707610730622, 0.05001087586740316, -0.8050257043542013, -0.13368707569484028, -0.2861178902130439, 0.9169748869546295, -0.16377439968482643, -0.989095990558531, 0.5469000988794135, 0.533667095872564, -0.4638197895387193, -0.4085802766302282, 0.7729281827905616, 0.6979494671284618, -0.723629350987443, -0.33059640255561273, 0.008602518694520889, 0.8767230560161554, 0.9675235965311926, 0.8897071148637621, 0.48869251083714116, -0.30269933063282384, -0.8421393008684324, -0.5085827762072117, -0.05136516650838452, -0.4953510455436596, 0.8570198296828622, -0.18936273233423173, -0.9745437254414351, 0.9872772691371494, -0.5157167827124629, 0.5317813152170827, 0.40999117399838747, -0.20991897155241745, 0.09272443477479753, 0.5189462500025652, 0.0686329798796621, 0.35378175295439096, -0.5739465869151517, -0.9098936395815633, -0.06266817250170265, 0.7939859820544239, -0.8261460529311762, -0.453759598934665, 0.35571520888333175, -0.2286922265123712, 0.9495346128866773, -0.36014038090066647, 0.3261432432568325, 0.4409908349956386, 0.6951124234184274, -0.7256852836157985, -0.05258256833395292, 0.4067033959073487, 0.27842008912297156, -0.8380594559476164, -0.9035812132586638, -0.07008684485434635, -0.3950957001369373, 0.1458780276272018, 0.0500164466647155, -0.358672514058864, -0.14415212428212487, 0.4788595645335505, 0.6157617788647571, 0.41848304180058027, -0.06052955721639841, 0.6730918426788075, 0.6610082843643488, -0.6044430262535119, 0.6149700518926307, 0.9687759160570948, 0.3052470279752322, -0.16568454598641957, -0.49490920717907105, 0.20448998773371518, -0.13057743556757817, -0.71635732885814, -0.47816719298411003, 0.9664886995183761, -0.5882771291104882, -0.15876032123999018, 0.6034568358684751, 0.5353291565848266, -0.5148497782553012, 0.08852863187996673, -0.710739259173014, 0.13398947441070042, -0.9212617098378135, -0.14767150301069454, -0.11504111799803107, 0.5070828803000702, -0.05877995328806951, -0.44186365881261924, -0.7142857538629319, -0.02744462210190357, -0.8060747254825695, 0.0151223276850041, -0.9667561888545058, -0.9321196239328307, -0.11677459065584417, -0.7512609055609769, 0.0732645255473865, -0.302118265654427, 0.8353368508649768, -0.20363847575557226, -0.1304489914964635, 0.25124312871439325, -0.09668806319839884, 0.7966184593577341, 0.3493533692151971, 0.019807779146863602, -0.3494579300983982, 0.08391264779001206, 0.9752563060173391, -0.7848303406342638, 0.690153314822989, -0.14713823530742154, 0.49264804104213633, 0.5276229653674172, -0.38064093398673093, 0.30069003839388264, 0.5870113128901053, -0.3043025479031414, -0.1470432042052543, -0.5515995550993034, 0.8138718124168383, 0.6608997308689606, 0.6808355640553458, 0.003530642325842104, 0.46513386764402087, 0.7396312181801927, 0.41484233065285037, -0.5861681627356274, -0.1942566653040534, 0.7005820033863122, -0.9406452615191765, -0.9311303420909927, 0.08955821084354221, 0.05498558592703384, -0.6525515043610564, 0.21309379513195426, -0.8082241736853115, 0.24561405349694332, -0.7953900062691224, 0.8180030011299511, 0.13548216178953454, 0.26596558409337967, 0.6454789290900751, 0.40923704643255654, 0.6408504067251568, 0.7164661860435271, 0.7533725977125572, 0.2545724828461313, -0.7385911183973695, -0.06933896990550292, -0.6772385588451106, 0.1198485878672535, -0.486037199580025, 0.3746002821597796, -0.03903626401182714, 0.3292920496905203, -0.14694957093229832, -0.9949250946412269, -0.6260920216482386, 0.9927957581238744, 0.3188633126731837, -0.6632915240429691, 0.402543486085406, 0.4108290402699504, -0.41675684323884576, 0.6281137958799354, -0.5176564064871498, 0.32112776535267784, -0.9775544141617596, -0.8830840104085604, 0.8276026182144995, -0.16694035415960595, 0.5400585494038648, -0.5892289756031235, -0.4800997792963331, -0.3050486485376307, -0.4093068181845485, -0.5344424459521468, 0.042686547619293025, 0.09870837961058188, 0.44840254691541337, 0.6156692977349503, -0.4454554307331835, 0.5514423871667584, 0.5279100686260425, 0.6408015264405664, 0.7824833379188478, 0.37954133889142794, -0.22211376778998426, -0.4766612521951481, -0.016725130732593962, -0.18712575791191144, -0.24331825924601458, 0.1365002656132348, -0.7874453515589026, -0.021550301341666245, -0.5323267236531246, -0.49905780702209346, -0.6902878784141808, -0.6847711051584131, -0.33730112395781475, -0.9999895585479173, 0.45623078584924315, 0.4416479257439343, -0.7289842415414667, -0.7776565073553254, 0.9767136180380236, 0.344328216428196, 0.9649393676945481, -0.014815239807582703, -0.186978432813665, 0.24820629362213098, 0.43563409133311204, 0.1995562970300424, -0.07206602906611548, -0.9737516054268363, 0.08263010861802922, 0.480461684090393, -0.8770091226114738, 0.6562516042218323, 0.05704548945962262, 0.6758357680893297, 0.31811301404979897, 0.5213742549743234, -0.25484148398567896, -0.1388731060722952, 0.728067435892934, -0.6736698425793026, 0.6491404392065243, -0.20980211313626485, 0.0766486682428873, 0.48872039337183426, 0.8563041217868321, 0.5838593366734084, -0.3294837519467233, -0.3094375507464999, 0.8087366978203279, -0.3871928224935073, 0.3893321693702918, -0.14513161784445971, -0.8788439844234153, -0.6064315231177795, -0.31192082152699463, -0.07578091666571884, -0.6272860586987112, 0.5745057088354204, -0.056536318599468505, -0.14673243712544815, 0.18414066461513556, -0.6497178712159717, -0.9744012151219001, -0.763508161315249, -0.5065655967063318, 0.5781681215932424, 0.40147163140803865, 0.15366556303816958, -0.867395164697937, 0.33409974276648446, 0.06470550490950289, 0.0997332883901132, -0.9551851025835585, -0.04662989874227619, 0.01918969913261792, 0.949414084969223, -0.7558961206772976, -0.5263681969036098, -0.8079408346945289, -0.5214676181892384, 0.10182290803723948, 0.8193174393299407, 0.24559322223274216, -0.48146057365126294, 0.5308685004378673, 0.8687376418352122, 0.125063121191338, -0.42321120667528667, 0.38572989392776735, -0.974321198352198, -0.4811145684165741, 0.9530026579775035, -0.9287214671420627, 0.22962627812061487, 0.31276856828190525, 0.4009407666493825, -0.0001509036365558991, 0.9749801913504978, -0.4036477730763459], [0.3772788373007405, 0.23172233400347508, -0.6050728834685042, 0.5604556471149615, -0.7529003689613132, -0.7098591995455934, 0.3931354959893052, 0.5444185906906576, -0.9159851033590318, 0.20586612039279828, 0.4058493206976943, -0.7462893011322591, 0.5631380742411689, 0.05178236740168396, 0.9052801846764851, -0.17744593613273785, -0.07941875486807226, -0.01101439986233288, -0.05269978889969873, 0.8073733875025029, -0.5822905338071276, 0.9545090600205977, 0.2780192622358497, -0.0426829091968739, -0.4986443995498906, 0.4335318425124577, 0.308205156785726, 0.6815143176637395, -0.4571927347195124, 0.4549440974276817, 0.965608131302754, 0.6958503541862091, -0.08360698468202399, -0.8996104352963377, 0.06052673273341225, -0.29677773510036065, 0.21134516932285918, -0.22650512570859171, -0.18993099359100607, 0.5497297476613128, 0.3841842449494355, -0.6652457252351149, -0.0960011297906338, 0.6933923664282287, 0.8075983025776883, -0.8685019670260472, 0.7311674666844497, -0.6086360107593722, 0.11304693195557425, -0.8794142275370433, -0.6763363165093548, -0.5189812060488161, 0.3793496509653347, -0.023121192842272098, -0.905953153352637, 0.1471042445325157, 0.4168397208014192, -0.5416631179850258, 0.10464794479881379, 0.025598204368475708, -0.3858527396349727, 0.30794693754509406, -0.19626711335909852, -0.9896536835882357, 0.6401666240210089, -0.6197586328914011, -0.2800397970015196, 0.9264765686564471, -0.24026355540241728, -0.25338533329191204, 0.8428106680062493, -0.358036212800964, 0.05786021726771229, 0.5266478297626627, 0.7632291940819171, -0.212756539676501, -0.5610979460898022, 0.5444661892877432, -0.6282675526108856, -0.30861033027459484, 0.9588828499824937, 0.7147100685874495, -0.07835289531062561, -0.04961122234880477, -0.5113883084669997, 0.5696859735733535, 0.6507331686049262, 0.486623209237691, -0.209044074262976, 0.06415755204053752, -0.8710572295535741, -0.7573271425369206, -0.2116198691614446, 0.3184619407288751, -0.13193240774212045, -0.2427448623999291, 0.575476669202273, -0.849524653375398, -0.6266722297145875, 0.8011000262777748, -0.8893346553995198, 0.49978110918311014, 0.26518976910965164, -0.5330594725643099, 0.0924609488178536, 0.039340219068245474, 0.024103645937105345, 0.7330447444117361, 0.958501253116439, -0.8035035472522676, 0.9194382324199064, -0.7207027426843882, 0.48574693561473614, -0.47886999395425, 0.041840350396145976, -0.44652749168395744, -0.7351606195828948, -0.5036842818168747, 0.4433330613658466, 0.16852223486549955, -0.09240969951628064, -0.8117904438427339, 0.17711438825778503, -0.37991961678496455, 0.3669857687206213, -0.33227408885965604, 0.15680014198221937, -0.6230653420573062, -0.847016589730671, -0.34465099655664067, -0.6164775274403991, -0.937330534370902, 0.7313741898874677, 0.9162104176531691, -0.880872858846127, 0.025361756283621473, -0.022050027212159318, 0.6430970356457675, 0.8031427223595908, -0.1918567384842984, -0.01035508417589548, -0.6566638649671115, -0.11530421580461536, 0.6261128228695176, 0.9277128362022167, -0.9226608571668808, 0.03861817353414487, 0.47324839161408794, -0.9271098280622252, -0.02855883478036403, -0.8380327923205564, 0.32510031470627165, -0.6234873186109249, -0.2776987427980111, -0.18642793639576283, -0.3847979643848314, 0.8352573220332367, 0.021902217087064413, 0.726547496331136, 0.38293991732612787, -0.002803303400461088, -0.6917511381474968, 0.03246914200312756, 0.5464537804726195, 0.7241369200222141, 0.6410235660256323, -0.4271800591749444, 0.048270499843223735, -0.7729020431700235, -0.6056768331725357, 0.5342204534656534, 0.9817201623329281, -0.10333391210858212, 0.676701962612744, -0.742285467400591, -0.15637263914084443, 0.10399997696076113, 0.2412464149083846, -0.3058069682319997, -0.2442630469045075, -0.21105186220536298, 0.22005844272900266, 0.14124020231798506, -0.2160247629802916, -0.7646437803700601, 0.31203709631606835, 0.1195532419226113, 0.06149079541940905, -0.5474651439384022, -0.11176838007959411, -0.627001535280127, 0.4716742460878476, 0.6831122507973226, -0.3314808110516494, -0.13932894030164555, -0.09384664144491484, 0.6945005932546406, -0.423260935650664, -0.29630651890964566, 0.9960210782560264, 0.5576112104747661, 0.08625161673871462, 0.33486589834764313, -0.6740276717625995, 0.8093142153479325, -0.8745712297440869, 0.5111161451274684, 0.4438789150609095, 0.5759487972734147, -0.6909906053031445, -0.9195249575778099, -0.1876545861976393, 0.7890351160416489, 0.08103643666065907, 0.9647260613642281, -0.5954648379864065, -0.9445206198151439, 0.9175074532554071, -0.9964863134548765, 0.5889005079826568, -0.48775003865979727, 0.9487553386855203, -0.05651393224153067, -0.831724961784376, 0.13963173985744382, -0.0326936564921394, 0.6004367751649962, 0.5738621634601782, 0.6686689976457787, 0.8304691763318806, 0.23859725234961027, 0.9582094897832649, 0.25812798307029317, -0.877214862148979, -0.5064943999299578, 0.025669259903053243, -0.08974139119882296, 0.4789352108667644, -0.834908344186087, -0.65853535443182, -0.13227459590345103, 0.899731360634985, 0.7336403887188412, 0.9795443360077827, 0.9446107257686929, 0.8482389643942807, -0.911301253675245, -0.2578297359524915, -0.5410298073488404, 0.7259294665534177, -0.4736540428216718, 0.6374375723170729, 0.9639499009019141, -0.40714359468700145, -0.9293365843562189, 0.8876583832281086, -0.2992814615358601, -0.2634300134977472, -0.9301851503270351, -0.6095376407635795, -0.042666503250304855, 0.2867411146308909, -0.5314367762792125, -0.47033751740019647, 0.30856313713127914, 0.8669326533196924, 0.39288957790949985, 0.631113757504046, -0.8682318068269055, 0.7155912361605019, -0.18864168343040366, 0.062162704219498544, -0.04340919361012063, 0.23727724615993995, 0.7922480737970274, 0.7273806321301508, 0.4890532871400657, -0.9813477331516416, 0.9634306419662622, 0.5721085850210403, 0.8473694335506301, 0.09031514173260491, -0.5646001304358694, 0.8701963249642044, -0.15822264734954627, 0.2277612851844142, 0.2174013059158486, 0.6460156091686826, 0.3759956145105334, 0.4140940137301923, -0.7230754766526415, -0.43884824096186814, 0.6529691959599586, -0.2632035604833787, -0.5384499224833339, 0.7740443336156559, -0.40533040366759887, 0.11425168450263112, 0.057030049004773486, -0.02187276830958229, 0.6542120885961156, 0.9722572901758668, -0.7793861584482877, 0.6017349895703663, 0.3620688176064142, -0.5583806214179887, -0.735513113293035, -0.8653712692308904, -0.8262420981943308, 0.8677825482828025, 0.8464361364883293, 0.22200286964838845, -0.3802235973253516, 0.8870992146789243, 0.6422425142867563, -0.057376787025925635, 0.6460259209788586, 0.39660142108229945, 0.4447927153218423, -0.5912020545831618, -0.27631360541562744, 0.7258688420056947, 0.9703173886659398, -0.5020835537280295, 0.24854859383855255, -0.5183156798977462, -0.9608024665932533, -0.39532618398308306, 0.8980819183527293, 0.2009546805922091, 0.3520910256232306, 0.0751854593139365, 0.2940725788975367, 0.2959086243680751, -0.7495266047392535, 0.6235350847119725, 0.9438857079138192, -0.3584267170616142, -0.35311133794238714, 0.3556058062582548, -0.2558407972244656, -0.8007415612086419, -0.14772898324904316, -0.3037394465175689, -0.19888878096702944, 0.43200512385628453, 0.8558378668614166, 0.4155387760477198, 0.7412576099189618, -0.9405702873936181, 0.8311914295992384, 0.8259121134527829, 0.5929678455230305, -0.86603254861886, -0.6701494767939402, -0.37773429049033647, -0.411963595764822, 0.7678101059340334, -0.749197107716183, 0.8529945574278119, -0.488650243738761, -0.00910848556400179, -0.08059335599225892, -0.6710070649543443, -0.6221497843180877, -0.6300534915146863, 0.8114820514954035, -0.6904124692714355, 0.1578497719653389, -0.6422629985085604, 0.46233144198414666, -0.4927087189894559, 0.785673483102389, 0.8866267742230485, 0.8007045628487783, 0.024071570463401137, -0.6266516348627518, -0.6707627382201728, 0.9227508550396972, -0.2512265806094296, -0.8909605440705712, -0.39466636778787545, 0.4770038932407641, 0.5688491806358928, 0.5084357919086993, -0.5253933410786134, -0.9706932582472221, -0.3512369795733403, 0.9030900067026408, -0.791381795517007, -0.2414648790465046, 0.6380630862995742, -0.6548777925393561, 0.3684474171289627, 0.8277877501935815, 0.7022182724655677, -0.25719443296745137, 0.23991280203207865, -0.1666159748237126, 0.394286354540351, -0.2299721261909795, 0.6119941213944069, 0.48732056009335545, 0.7030476750955463, -0.1905930241515359, 0.5500193109600473, -0.9897698629562146, 0.04117531190064794, -0.8765308875817368, 0.15941852752121521, 0.43201995850324515, 0.13501525828848737, -0.9098599268045084, 0.6315985653476912, 0.9490201395884101, -0.342228857730293, 0.23534031424623802, 0.5937314582294377, -0.276506805679404, -0.05900976631409405, 0.12621037222008757, -0.5359832552742387, 0.4320253592216168, 0.9294025044319298, -0.10961101784759286, 0.1443598947887268, 0.7027933410228362, 0.2578023147335369, -0.3065368690272592, 0.7667917927165544, 0.6974549322261003, 0.4971462773278261, -0.7107114356008659, -0.484324682523513, 0.7691368545853927, 0.9215060564352033, 0.493642489448086, 0.3193008170919498, 0.4287334363003128, -0.9976188548629628, -0.18454290248212657, -0.9928094964785474, -0.5748847746636694, -0.08314203138381582, 0.4288708550230318, 0.35840477816249217, -0.9964414620691551, 0.6279796168643039, -0.04681403259781991, 0.13237017500926518, -0.10117766432208564, 0.30383827940879193, 0.27556093521994107, -0.7824153467123893, 0.8148879448879662, 0.8365007477837605, -0.7734414779968919, 0.7515876095926048, -0.6297449693928994, 0.867992584544135, -0.9179285158003803, 0.46223517431164485, -0.8741087494016213, 0.2740831987482515, -0.9598099085373522, -0.7571099909162753, -0.39780461702163983, 0.617039398640908, -0.6624542352887912, -0.7691957785538257, -0.2980478059948226, 0.6617122637221222, -0.04139767997615196, 0.21633993935906748, 0.40457877943550513, -0.712918146211009, 0.9873817385483439, 0.8188992849504964, -0.4758302111686423, -0.3696707851605181, 0.5378445314379126, -0.22009474969380305, -0.2865139505925227, 0.2968579842166563, 0.45497006997654243, 0.8484640189880273, -0.5402009183420171, 0.9472684470323909, 0.23244825169500016, 0.38355247160712236, 0.5360308458643408, -0.9468072904348859, -0.828461395594505, 0.685828701048462, -0.8989354480012755, 0.7846475963564299, -0.40710714035369855, -0.3969340875819989, -0.45481403572101864, -0.1735957563855035, -0.4624626110856942, -0.5597456583720206, 0.040561097055986206, -0.1648474147416159, 0.7175156362493369, -0.7503189399541523, -0.5611946041753109, 0.6521907988382822, -0.11232781188559149, 0.09842040331477664, -0.17862285750285878, -0.47164905838272975, 0.48251937195035643, -0.15135959506484253, 0.15796859984663048, 0.12082284233513652, 0.5270795528950771, -0.12844812351869983, 0.7505850645413059, 0.2278530376099117, 0.06590315370186772, -0.24272379653322984, 0.6818610919190988, 0.5077578172297958, -0.6637949920619965, 0.9348726251026813, 0.4058105974736925, 0.5492015592203965, 0.7769026576842926, 0.35447954969229234, -0.10068570247188124, 0.2444147233222551, -0.5701675203545655, 0.7161399882680759, 0.22625186001667896, 0.8717820874897717, -0.00036570755984932646, 0.37266046160937116, -0.5672755108725025, 0.3804961434964049, 0.7141597350016113, 0.2886728811162733, -0.989071760248684, -0.5402998579074805, -0.16793231415124832, 0.9686677629028408, 0.18934775285731642, -0.8872127118947779, -0.9829787335611626, -0.3986216887698153, -0.077549964427154, 0.5643350627194859, 0.06755209333361512, -0.6865075916405399, -0.25164952616947933, -0.02730618710524846, 0.3141316201416309, -0.12511234739541277, -0.38161558787888605, -0.4203073206212782, 0.884868209744111, 0.19864503254691357, -0.3389563265273323, 0.9274432437296876, -0.4593244567288626, 0.7898727354415058, 0.20615721547106136, 0.7825058974176631, 0.7029798240271175, -0.0361848910116529, 0.008985792756914801, -0.7056104088756106, -0.97002758722652, -0.30062302730766777, 0.9921700419505914, -0.7086119972858946, -0.6008227385820313, -0.0071179240319327874, 0.7952457744610002, -0.12011505209630191, 0.2944775164848583, -0.7806374480588614, 0.7649099521406308, -0.31093890542001423, -0.5039117814107028, -0.6625411966551504, 0.7674194406849837, -0.30368915647292716, -0.495157003441002, -0.6788156373858993, -0.28096938965332585, 0.6734253496004281, 0.8270049270576967, -0.6245363138266642, 0.7323816747674223, -0.6266613921054893, 0.30446523639999135, -0.6543332982529255, -0.7361136730218294, -0.2766485908326466, -0.4932180784660465, -0.19191326977886147, -0.9376757060673933, 0.7468627065289317, -0.14341526429080464, -0.493839710942487, 0.10827820209755656, -0.2668836040454954, -0.9243052058152059, 0.6246521002547523, -0.9752993406710035, 0.026050707850119537, 0.061429118787876824, -0.673307240529013, 0.813457793256438, 0.2893483340835845, 0.5776915016448547, 0.8497718385474884, 0.4427710261915656, 0.13805452603961177, 0.5710528311248477, 0.09908981796583949, -0.4925189034212021, -0.8381427548725853, 0.9598290818560975, -0.9530194049674257, -0.26355443289615543, 0.490585439016487, -0.8034014111243217, -0.17692087472170748, 0.22524390231764624, -0.3675782132940648, 0.9326824991946483, 0.016250397336424527, 0.1596860297186924, 0.221863885362088, -0.5809830348952434, 0.3215863676088473, -0.037869561545958996, 0.19687396198602514, 0.8948741246812779, -0.13355852958239378, -0.32681121965855975, -0.3398461717355017, 0.526334174090102, -0.1925283369645534, 0.2695046244115553, -0.30414486196033397, 0.7331907296072395, -0.18534959768495418, 0.5693473451261899, 0.2849442056717695, -0.21183321975301417, -0.06136998719099829, 0.027901617511054688, 0.7939454256160645, 0.35601348546660216, 0.2296207017660432, 0.44872127959993735, 0.42875005208711103, 0.6870316081151426, -0.0048997249399456155, 0.5938069481388566, 0.6780018642278354, 0.12018051497895588, -0.3797143305368462, -0.7973167628498217, 0.5422234830945436, -0.7640873528095455, -0.725119960195163, 0.8069964345609879, 0.19781478845309053, 0.6835632115409749, 0.3329649172494471, -0.30538921627607407, 0.8753399001686875, -0.8384582598687593, 0.9193278703725773, -0.1797098632599985, -0.9541877712579876, -0.3052689885901021, 0.7104463202498563, -0.1672148459621734, 0.682934383158357, -0.18205191748095628, 0.9794643197469326, 0.3638047317070512, -0.47376264299744153, -0.1614955186248057, 0.458227390019027, -0.1476014406056554, -0.5834589347695909, -0.5098393858758048, -0.2258463922555709, 0.5925089533331691, -0.8050806083166484, -0.5743977852766351, 0.7558328586949397, -0.5701494220674073, -0.36546932425020184, 0.44697634212652715, -0.7642080515615695, -0.834439376260687, 0.6614882847413246, 0.9655477254271423, -0.4911116651369227, 0.9370270468665238, 0.08297449639282495, 0.18241377105862466, -0.03130907292463836, 0.7510772372576684, 0.7545468126639421, 0.7079998611779355, 0.870660832701017, -0.5224368584548451, 0.2931289415752558, -0.05283004193778451, -0.3080093761297673, -0.7869442001232223, 0.8245022489781952, -0.668162320339698, -0.27166070278671883, -0.37045466758087975, -0.0804006512897193, -0.6520189177932914, -0.6035502038103215, 0.8143115115768911, -0.32091637119045413, 0.38869351248080886, -0.7470826842577711, -0.9457835043598286, 0.6268240608942484, -0.385887384884813, -0.13893614871340332, -0.7097064290122923, -0.7449176319573299, 0.5983757585348304, 0.14727176433887323, 0.5952211965853964, -0.6112212458727768, -0.11768670941406478, -0.28050592421939124, -0.9997743740113141, -0.9121852511130017, -0.1196132885822756, -0.6076064929168017, 0.44148819979531173, 0.766098699045102, -0.4490011362115902, 0.6407315076172306, -0.5452327090103359, 0.7325980556085607, -0.6111143045602272, -0.20793946233410554, -0.8192018654839901, -0.8138948600877711, 0.18642449557976049, -0.6501965777267193, 0.6483970658282467, -0.6715534554569451, -0.2043502221083029, -0.5784702970512261, 0.6695874466394702, -0.8439104960185124, -0.6766695751522962, -0.9698268355582278, -0.1205606180781531, -0.44120368389418685, -0.9387884234286752, 0.9507213175606528, -0.562394908648941, 0.3945040694062958, 0.3882835923301349, 0.865825639977428, -0.14200731197452576, 0.6420983688613382, -0.7459948365481834, -0.6911513333565495, 0.8163092582699452, -0.6820351742533981, -0.9785948137701947, -0.8932841518654067, -0.20204338620565299, 0.2899310743179284, 0.5971239188512516], [-0.9426034181786855, 0.3030066342207174, 0.9528933424484805, -0.1382275827923689, -0.9091764105959306, 0.48756444814900135, -0.8036741291329697, -0.08553545262964413, -0.360385587396846, -0.4707107067223346, 0.48771804958549825, -0.5817636336301257, 0.04943098575000682, 0.31563737444896645, -0.5185527442803537, -0.052423153094699027, 0.22927710802623769, -0.1629379470355059, -0.894691515619473, -0.48430043039387516, 0.30677968432703984, -0.7423621660575894, 0.8735027494883889, -0.8301578978079189, 0.8966824790046479, 0.1291934264243917, 0.7595996845600685, 0.9395929848571944, -0.49591318890702496, -0.19999474953348373, 0.6154417853869161, 0.1161698864730123, -0.2627349528693914, 0.4470567504834151, 0.404665888052298, 0.8748370648843153, 0.20073167733833253, 0.4057420028621641, 0.6025633476330905, -0.8271481574106718, -0.9935180585191941, 0.4905839690417777, 0.04590412539692368, 0.08394915181255658, 0.6813992290326771, -0.41968940420223033, 0.1222081327948481, -0.6945059416186419, 0.4241031969568434, 0.5572589341812353, -0.25837408667858575, 0.0519409384147953, 0.8262812526896299, 0.7669547812002699, -0.7151979040661085, -0.28416535326545334, 0.6137842351773433, -0.6605091203011573, -0.6159821981299065, 0.7185186218508302, -0.8134147386577879, 0.20501041522941277, 0.6301277312297862, 0.8151801376051362, 0.36747057371461334, 0.9955151028798914, -0.6961397288188882, -0.0988152824561368, -0.1954336236557368, 0.1593240251408532, 0.8318425734683856, -0.9549423177154932, -0.7642927460778732, -0.7616294593725332, -0.4435799280396755, -0.23218756621936287, 0.7162599326930803, -0.7677775211796249, 0.04475699674098399, -0.7835527969136196, 0.8459813065154651, -0.5094871419341005, -0.29264588219228216, -0.8259019600676858, -0.523535997536823, 0.3302694242800204, 0.3161095754023344, -0.20348398891412267, -0.07620719931740161, -0.8178820857352354, -0.8313086267870702, -0.43956570218330193, 0.432274576097478, 0.04399756649905151, -0.6621943007821347, 0.7671618980825894, -0.22175230188619777, 0.003903297629721525, 0.08038971412778628, -0.38575145902700214, -0.003343959120184259, -0.9213175293201825, 0.4287298295591524, -0.31768731667729955, -0.9222353661860685, 0.30508480380580094, -0.9766676246422676, 0.027015295619433166, -0.03199787338885396, 0.20870867346817001, 0.7984159485734934, 0.6565213196707147, -0.3714361316224617, -0.9882206764126584, -0.8150543043857243, -0.48312584445112705, 0.3919921675940501, 0.5167265480991945, 0.4543966196087965, 0.11014080793280923, 0.30551901694187045, 0.4392973340823181, 0.5527582877504382, 0.43036410086013177, -0.6671639435498038, -0.633150915722017, 0.6529561921888583, -0.007700713249307212, -0.8282746844730886, -0.7394928630253452, -0.18076074864766123, -0.6689052157074644, -0.7555947731522015, 0.35350635825313415, 0.49085181181815885, -0.8545139527799246, 0.196005643656868, 0.3480348452842461, -0.0919360487420342, 0.26200445389836635, -0.9368113721208953, -0.09194310150734597, -0.3756116411822832, 0.06505383601031034, 0.03241204466170822, -0.7087871072321767, -0.06078270868263891, -0.5241366169749375, -0.787462391963937, 0.6575252845789572, -0.1463301325154085, -0.6231833527272823, 0.9239431744265805, -0.15240699666419721, 0.7813292220140207, -0.28866550857850104, -0.056095083212315267, -0.11939204349907162, 0.11582347925001257, -0.3512504888898347, -0.6839084530831301, -0.504345236726349, -0.7204772908083481, 0.6365016326880921, 0.1557635066158367, -0.1727105623540668, -0.34739288028372894, -0.6824751044053763, 0.06561295828750602, -0.19484391781172783, -0.46326347502934895, -0.6684393963259523, -0.8792739563189009, -0.7995662108902624, -0.5027652084582661, -0.47916982401875297, 0.6594842368560081, 0.4277155682868672, -0.45190312422482637, -0.6766534300038076, 0.6610712187847119, 0.32413174331863415, 0.6027573905008994, 0.06277383334720699, -0.032800247880365285, -0.8942179197766924, -0.3282485938955273, 0.1382249785320171, -0.3561013187262623, 0.4747646867401305, -0.6091562680100189, -0.3107532731613529, -0.938861348551068, 0.4021684231587357, 0.2833871474868981, 0.36134832568173336, 0.43554137464221365, -0.9596412864461568, -0.8876708482841322, 0.9548756792907538, -0.1722538147746937, 0.2793034934241483, -0.3986504534667701, 0.18276413646053968, 0.8593354899535808, 0.20007989331864517, -0.2811003497790683, 0.08371243823230468, 0.846394962669363, 0.9754225474412654, -0.7039520362184657, -0.23747542159227764, 0.03354176484089533, -0.5145392157666147, 0.9609202836445447, 0.6016706381008783, -0.3432371838802355, 0.46323901887686825, -0.4508681307022484, 0.9221057232828982, -0.9574905655345096, 0.17327868061554885, 0.516114735374311, -0.997612086658664, 0.7923140357455387, -0.25289407779079554, -0.34140979185010756, -0.48652635955290324, 0.3399376531141811, 0.5680056254898689, -0.40151549143246945, 0.6574998291919334, -0.2707329388053441, 0.38238027242152106, 0.13329632141254, 0.978630807548653, -0.9810232823252911, -0.7982543873430685, -0.878574844337042, -0.4980537467518682, 0.9026235961216189, 0.043630385077846334, 0.18832126732662258, -0.30312081887163056, 0.40701185193705025, -0.1406483764976565, 0.148815766840378, 0.18593284616885963, -0.05705702709845384, -0.43892375956842566, -0.9524066528791695, -0.09173492836574293, 0.9816886642397025, -0.4345166084171983, -0.1453608420667385, -0.26075198567015967, 0.21077458982866637, -0.7449057270117332, -0.40856381106416095, 0.10852508188942545, 0.45513227156187064, 0.6431855403150775, -0.9354164760645582, 0.5750763953091185, 0.7999821657664465, 0.8022044880281334, 0.029463481502723265, -0.8237858233213806, -0.7919673037573873, -0.6036588947512211, 0.1529349411041372, 0.2355177506573911, -0.892688872675081, 0.6961439022445757, 0.13877809499491622, 0.4444485548109187, -0.6455217062020377, 0.5997984020113822, -0.6994596401683157, 0.24558677916826577, -0.6018842969126816, 0.6555166526793144, -0.2757291070491912, 0.052344382361708464, 0.29018252125430855, -0.1210241228552118, 0.6558156052418218, 0.7097333555809817, 0.7347833946416051, 0.018474196531574227, -0.7665630601570907, -0.9068904201729817, -0.33663264614280153, -0.21583054756876163, -0.7228959737142724, 0.23796774908088314, -0.49135672704641276, -0.14225249861621458, 0.8087701409954653, 0.3286654299641407, -0.7308126114107067, -0.15250135960061706, 0.4122212393226399, -0.5723108346723405, -0.4380535869601516, 0.1560000874928924, 0.9965625769526583, 0.46501052801580234, 0.7536052476339381, -0.5784487672227163, 0.801464622082547, 0.14757387874319328, 0.5089593849518785, 0.5703457044097613, -0.011869671529687542, -0.8553183895642895, 0.6282399553357376, -0.569785479613929, 0.6204589841215624, -0.05602834150099456, 0.8169034878499537, 0.6877294194327019, 0.9556824565128457, 0.2186026307911615, 0.8550960678840147, 0.2085856050870607, 0.7167050536762349, 0.4623122681721439, 0.45897682928005024, -0.252311998125722, 0.15330840128311007, 0.8039555565385859, -0.8793006130434524, -0.14753394656527985, -0.8264797150734111, 0.9721153999245435, 0.7719276695308483, -0.5434068305631572, -0.3162207924396869, -0.9927186031976569, 0.9742080696318565, -0.9884378766545081, -0.27647167296453423, 0.6359093470465231, 0.43753588241948704, -0.41109632616505265, -0.5465572131875964, 0.8053663827153341, -0.044496266581851796, 0.9820266761659551, 0.1757947257357244, 0.9373918950539364, 0.08672432563822596, -0.9234115408573591, 0.1375136246149744, 0.5712173936005538, 0.5607052000908568, 0.6960514041429213, -0.07264776734954248, 0.9083588426173723, 0.6961192317039409, 0.9928127774204156, -0.2923815735013702, -0.46388348464368523, 0.47926622232000726, -0.5535821593484893, 0.9060740530175746, 0.8300867307723243, -0.8048465009113015, -0.058117956716387864, 0.34492758719153827, -0.09717867131473268, 0.9488294878378418, -0.021043599308721905, -0.2431481329011096, -0.3973337570315041, 0.26653201764443746, 0.7542549389274573, 0.10649299603526807, -0.4335197197363574, -0.09567617683315421, 0.2996144091741113, 0.9638495824098288, 0.8291651438008896, -0.2849982922245764, 0.8533544686708943, 0.44517206165088563, 0.9046681826442227, 0.6343183134691093, 0.13868756709365182, 0.821314256152772, 0.5082665926826135, -0.05825154374760655, 0.5250018796496001, 0.1199827056448437, -0.6866005670537301, 0.8574115357334615, 0.1202590565679098, -0.6000110753366583, -0.870791059158887, -0.5927946464488312, -0.3610561559267913, -0.991052210474354, -0.4388902107927817, -0.4139149647463176, -0.015472127129398938, -0.5328634205813152, 0.47128079692292046, -0.6496113428206085, 0.528719216942056, 0.6854596478241908, -0.9060598858433402, -0.17216263920013586, -0.5509522428436269, 0.377244146499373, -0.16207914408418644, 0.3465234084529647, 0.22368032852644149, 0.3254730804350505, -0.3915207705820716, 0.5127757699696309, -0.4557598454365035, -0.468462587775363, 0.7388426804465005, 0.8391112055406724, 0.039935604114153866, 0.12507520175025855, -0.1489436365310024, 0.2979481383916205, -0.2775066086626985, 0.8227194628788248, 0.19357269935728216, 0.15830466400916188, -0.06425326499303319, -0.10286425727519077, -0.04264236912908492, -0.21402728672487936, -0.6390118360151444, 0.6907144061158326, 0.20750707962954018, -0.6894977267914149, 0.04931496949637637, -0.9599058825287337, 0.14617966782637315, 0.7325504582553473, -0.8425257750101949, -0.24857513922407226, 0.5516506172555882, -0.794417621754824, -0.715871234352278, 0.7816127846169678, 0.7641693541237002, -0.8335500469604886, 0.6335614389549362, 0.0029235079118041796, 0.08936578117903249, 0.9195420556331884, -0.0238314062320637, 0.5312640138329994, 0.4259351510185294, -0.8042020917168446, 0.6228905088111414, 0.9440298641615483, -0.8066558768344507, 0.7387721947819352, -0.44317884026575816, -0.030217457844150974, -0.40026870630230493, -0.6105505969008544, 0.3471947236085431, -0.142272085668826, -0.24419856808335272, -0.963398770107941, -0.2716056135089109, -0.3392851864979962, -0.5135128192386624, 0.21445089488070224, 0.19726974008191656, -0.37141914513607, 0.8690369617028146, -0.17867879064113668, 0.917664405250759, -0.42418315496785186, -0.5317529395787106, -0.516124009144131, -0.8241321408635109, -0.32352868536923385, 0.03331217150890442, -0.7061458855561709, -0.08883613283258773, -0.4273425866230167, 0.856516760267982, 0.7900535832716415, 0.4354301979375794, 0.0771705445076265, -0.7149503533883872, -0.42190024830337425, -0.2522518378769225, 0.8704490560131399, 0.7574920587795442, -0.5631106785418005, 0.8464737043962569, 0.044438188745048235, 0.37166853458161864, -0.24044415542212372, 0.0008416452633250859, -0.9214823076886314, -0.2812834821301302, -0.5195186963520673, -0.17323090526819618, -0.5762576569594651, 0.7432267615010479, 0.05397610410848386, 0.7165605937980346, -0.013718590526021313, -0.016604343483724415, -0.19990782832677412, 0.0008234523246692937, 0.1618813197627602, -0.486026909683521, 0.6140945754508611, 0.38251019368581196, -0.46326467624697565, 0.5439616107462373, 0.9508771242859229, -0.6752615688598631, 0.3017099483857373, 0.6023259544753876, 0.16576933120987736, -0.49443629817281876, 0.6476240634318389, -0.21517023704266536, -0.30842733713122894, -0.9522276261812876, 0.20764065223967654, 0.6797765154724793, -0.9510676736207329, 0.2626334407913604, -0.5096604144400643, -0.9684397372719469, 0.6375840500603327, 0.44705347968748765, 0.7701113790607756, 0.1836538346358989, 0.34070907457837984, 0.6335472300853446, 0.847305224573291, -0.21193844598595546, 0.8268450740267932, -0.8331063978947013, -0.685572353520493, -0.6133108781406438, 0.8568194800459943, -0.832271962173406, -0.22338636180108673, 0.5354421952160391, -0.7428213926646978, 0.31070248427516556, 0.29262396979573513, 0.4743566834962112, -0.6703824072828284, -0.5972317097804154, -0.4074676245887805, 0.7790141210213948, 0.29967826840021594, 0.5294415181086045, 0.47017106084504534, -0.38963201433012906, -0.5409949648332548, 0.08690180344787324, 0.36511924425479925, -0.8179214708382747, -0.0372254677682311, 0.40836313509823197, -0.2851492335366568, -0.09410522228666318, -0.5633724329330232, -0.7534882681363613, -0.7020973754044724, -0.8580958526864972, 0.23642216718196707, -0.8867078768986423, 0.30713209503049144, 0.2602565877452021, 0.47180186528802315, 0.6380819917584373, -0.8080769259092477, -0.0885298783963766, 0.7712497618117466, 0.6837833151508039, 0.32500702569530726, 0.07530291715148385, -0.1464779281044355, -0.46300190572334077, -0.02884395528347694, 0.9711437802373237, -0.0515776751300121, 0.15769052840655307, -0.6294833857649766, -0.7139372541830522, 0.02823208999983562, -0.7570896424117122, -0.7842221040613997, -0.35664681640014306, 0.1610714549149701, -0.08323295510563145, -0.7337183861653465, -0.4924123518727408, 0.41246336805054695, -0.8245367472636325, 0.2252209903325204, -0.954705601601316, 0.14219955809631535, 0.21833552699279934, -0.8441734891973154, -0.3305701822181186, -0.6385725703238054, -0.37613865572070226, 0.2333872758168467, 0.4906057499896852, 0.39453943986559614, -0.3656018268636583, -0.8522689223032041, 0.7959686748590193, -0.5835209499620022, 0.004263917334591749, -0.9718072073031603, -0.7546662774894786, 0.42158387737259395, -0.08755614673142342, 0.5546910030962358, -0.9418583605507131, 0.015329636110219758, -0.8162520995057934, 0.6512394180046721, 0.5127142943103244, -0.6630396754863346, -0.9393052894428062, 0.18664717547191367, 0.27051552185218175, -0.4157777260077018, -0.207998901058279, 0.6345098150886239, -0.8588206805711465, 0.9751760110929333, -0.7028938576435426, 0.7266329571256662, -0.8701596153342439, -0.29247526222199527, 0.9315693250394905, -0.4341454529268842, 0.8459870898666717, 0.3060113422699178, 0.8696765688987262, 0.9612496667003583, 0.7342617084114011, 0.39342089454558327, -0.6467904898729913, 0.2164626455400087, 0.03171959871891583, 0.6947236600908977, -0.2315228819554569, 0.8052538178664685, -0.9974120948786378, -0.31575764786842964, 0.3558668584926543, 0.24230809364119743, -0.05917851507705074, 0.5020324859951082, 0.7088112756063685, 0.1921924043415204, 0.6301574070528184, -0.4999309547682633, 0.8150634294226786, -0.5892067703613248, 0.6598851355818103, 0.865840055568537, -0.9522778032203072, -0.4088062020881369, 0.9489156446593101, -0.49089157718845966, 0.7895147957700726, 0.533267567228559, 0.939875544731346, -0.7183234410917136, 0.06712185322380204, -0.2354341422377786, -0.018899452747723533, -0.4503445783392126, -0.18352839448796687, 0.8557105401593952, 0.7683126247332361, 0.19688945628827903, -0.5068529812111333, -0.13061828244080442, 0.9426409494704371, -0.48215074846482775, -0.6346468945323731, -0.590396687063439, -0.9258775550861138, -0.896833778949718, -0.8408540960225188, -0.2577409776313282, 0.7139194454024447, -0.34754941936217576, -0.38762930464464196, -0.1371434057046219, -0.24295359765800195, -0.14772129161094405, 0.702292831745293, 0.5371144318204135, 0.6791590900247622, 0.8309282973351524, 0.2721059110347699, 0.5284372559165507, -0.8997526171189296, 0.21764550252815384, 0.6149968544607367, 0.48899082389516413, 0.7506131583676299, -0.27430294788588827, 0.5966837954029798, -0.8184535822196626, 0.828295412127726, 0.39881197101219823, 0.9366063030106297, -0.28192661756827153, 0.9900057282314518, 0.6336065807341904, 0.26906861719175357, -0.7629946107636381, -0.6624169918471177, 0.22377759318077195, -0.143720642260049, 0.8462891327881437, -0.09201520089435533, -0.6537098254855949, 0.8497194246424384, 0.7044201024394772, -0.23970817207574524, -0.689333428243692, -0.6937913575692787, -0.5011251432831374, 0.21629677867181862, -0.34758150224641216, -0.8110473615996003, 0.8597093415726782, 0.6355860634574009, -0.7213124179176025, -0.6066604775660069, 0.832433699014119, 0.6780199931598117, 0.16184885529980253, -0.9966086028668641, 0.02427215214793632, -0.3788934324897737, -0.8542963234961036, -0.13865846631985446, -0.8624470942141202, 0.7925226997378352, 0.08865670152595406, 0.4746752874307332, -0.1974791268826639, -0.24409456032822874, -0.9917196678978215, 0.10842122397746645, -0.8522261578087673, -0.031235182274662376, 0.9893892802171698, 0.05021818236251119, -0.4554804201999443, 0.8764068519036783, -0.4757757861221883, 0.10483349374578221, -0.6339641782299903, -0.7111812234389263, 0.40671648652177694, -0.27402424931581537, 0.9167297175996918, 0.6940893821530405, 0.8110064377918138, -0.2846111047605835, 0.3189494709101648, 0.8606695233910908, 0.8945284592810645], [0.5480088902483289, 0.7589356689200397, 0.16425497500124941, 0.8471065300056655, 0.798854582647746, -0.16422612294031813, -0.689883667955477, 0.5832127457053338, -0.7945159298474096, -0.36103078999729843, -0.628485089947286, -0.392905495962413, 0.3885392891357278, -0.9210313687128944, -0.9083825501332994, 0.8203189826155561, 0.8834762722075056, -0.6418216151178056, -0.511075267906818, 0.011950889814912102, 0.36673044651562625, -0.09373411769662487, -0.572948241389758, 0.06279471742755338, -0.2296896953292349, 0.5523704757688841, 0.8837162264141649, -0.7867712664123814, 0.6094702265259027, -0.5670975100236442, 0.9661593783553184, -0.3177565610222557, -0.7052717493034317, -0.3239582652840891, -0.22455481309569336, 0.5035446353023021, 0.33815194641562263, 0.9082464839105999, -0.42494000381547203, 0.8892881158183406, -0.38276471544228596, 0.9276631501240795, 0.11407415905692941, 0.3560660471193473, 0.5215914453174397, -0.8025611453324719, 0.5246887244831033, 0.7439428693737355, 0.8230315843120153, -0.902687990665568, 0.5382938411008293, -0.6693893619332452, -0.6512770759311373, 0.7017023895828869, -0.768385347998457, -0.9729593246734107, 0.790964727745965, -0.3428176963172289, 0.8526321810281454, 0.8395676978478328, 0.7293826367762557, -0.4718475266583164, 0.5397759314948529, -0.47776054376140076, 0.46464919448155517, 0.19616354879487674, -0.5454366476882793, 0.8455492029774292, -0.6134457029271574, -0.37441448861789506, -0.583040594137195, 0.6009341309633909, 0.23888951433497385, -0.1673728454745691, 0.6258527090972785, -0.35920093472996295, -0.17932768617364303, 0.7303048501573857, 0.8978858550247992, 0.9093330201055998, -0.565922960820259, 0.599182929247756, 0.07402189264125525, 0.1442083667252716, 0.6422042880332912, -0.542675951237227, -0.7338338595613669, 0.22511932896487918, 0.3692602460052188, -0.6850481379445883, -0.5028363536141378, -0.12117293288302, -0.39195095929551793, -0.30744667901222233, -0.17192398260143427, 0.4864769942112577, 0.17352077941651123, 0.06301321249169489, 0.15140446155304232, -0.990834874283075, 0.5739080696967545, -0.46276837457846165, 0.6051267688845221, -0.6206873345957784, -0.8866736580314667, -0.09101849655006311, -0.8313449615444048, 0.49110756597494487, 0.16262678394299024, 0.974950468747056, -0.8929475048336979, -0.3830207508058836, -0.8336204508482385, -0.4935930455338733, 0.12307314754603427, 0.5885827725821289, -0.4548469822679708, -0.4038317456946172, -0.4826087379555599, -0.848001679635112, 0.268245727038676, 0.9937911599956861, 0.27127814208661416, -0.6511928623608056, 0.42904351100347937, 0.7566117500999097, -0.4300266669853523, -0.9820682337001463, -0.060476206018473366, -0.897739150243704, -0.897023428597725, -0.7542479062084768, -0.4270549229335536, -0.7314675886821087, -0.9921019578632062, -0.9884318536330958, 0.3201796588996002, 0.5491658121499854, -0.8262158724271236, -0.026830349256434793, -0.9633151654871679, 0.17534214807654647, -0.43493843756979245, -0.8865736508380391, -0.04244091121533344, 0.7676078370210864, 0.9174936143120811, -0.5711322700223087, -0.41679791196149374, 0.8368135518661592, -0.7118816892067976, 0.7724073640216973, 0.6185446352044826, -0.907471587454799, -0.7095756422510104, 0.44024027311511027, -0.3426693725824954, 0.686038636273465, -0.01940926033725976, -0.46830836940680576, 0.38153581915420975, 0.06949030881473095, -0.9183803088400309, -0.850938700598189, -0.8451304843086853, -0.34471449481630656, 0.5153941944468428, -0.40557775797806905, -0.889305943153222, 0.01809815238264756, -0.5624499880446221, -0.19496077924153843, 0.3949030425403417, 0.4416744349246311, -0.06629984098182651, -0.46021471184927787, -0.8191573893138968, 0.9117362965547242, -0.9417768004831466, -0.4062097322476448, -0.9376527389106544, 0.19928878104483339, 0.2985384656504746, -0.6571313317996397, -0.49345430524928857, -0.6387026537116594, -0.27885243843361707, 0.5720053711852395, -0.31280329821272934, -0.533362283737836, 0.21250983733176687, 0.83634878974461, 0.7818573285087007, 0.009215871113251728, 0.5407327784122931, -0.3670217293867899, -0.3813204642982446, -0.6341025643191398, -0.09542379785237443, -0.45885473713862024, 0.7346386854842948, 0.47853497323301397, -0.12890382481553275, 0.8511730398967079, 0.35931887996294454, 0.5379069568537025, -0.8523801745433308, 0.9509522666977746, -0.7259761572192123, 0.4339664378502792, -0.26860232085724456, -0.11954765226356057, 0.3583171195067856, -0.29605109480702607, 0.20190573884616958, -0.41113668602152, 0.9890072835514947, 0.42349161779858613, 0.357678778860788, -0.8327216422776864, -0.8154031665101775, -0.5407867346351338, -0.02259843331502709, -0.29775488205541367, 0.49529533758190225, 0.3878620804641131, 0.692534909561396, -0.39957046469928215, -0.0007161094073124818, 0.7610215890264325, -0.6692315452783124, -0.37457415816308526, -0.357230846562848, 0.3071014870640183, 0.42501255142930194, 0.1954674946552597, -0.9387402418060133, -0.5074563112092394, -0.8184508448703582, 0.7778551061113379, -0.9615126738685129, -0.9432207842382583, -0.206324449797596, -0.07711810343892989, -0.665890364320388, 0.7016306894470357, 0.0016750498086397503, -0.022683369102300066, -0.9121666268182314, 0.8975697984719577, -0.4320560835664027, -0.247770098603308, 0.5548439814831481, 0.20200959196255575, -0.8899875230161067, -0.4156156648682481, 0.3213866684582336, 0.8952379093668577, 0.1677170454502297, 0.3684077288332748, 0.7117526076545906, -0.0541814355880188, -0.952937218096561, 0.0980203492931413, -0.7773708112224715, -0.7444989060857328, 0.9634596455283786, 0.08613732932578388, 0.4910914533524504, 0.4210616040221138, 0.8957229051676174, -0.04780530166967445, -0.5722363107264314, 0.8217506913989943, 0.8014966865725521, 0.39533137391859485, 0.15244341943285922, -0.6810891513351538, 0.2847885603844855, -0.38351996997523874, 0.49395365223467125, -0.25832098020143124, -0.34107615199598396, -0.8275792076271811, 0.4104575793076606, -0.45914041479931034, 0.27679042832697753, 0.18989975737755738, -0.5854981409217654, -0.0995692832000643, 0.13917745125410308, 0.6273938734772111, -0.3105699895694589, -0.35570812665508567, 0.036119033614366636, -0.4774065220324448, 0.09513312032700938, -0.7629934514616807, 0.05064430595065961, -0.5632123796683381, 0.7563631131728148, 0.6318151599861779, 0.3384479475015725, 0.22779313594564554, 0.7463474308298705, 0.6250949616179935, 0.9395548223232526, -0.3216508293728737, 0.08917338332415281, 0.7365878710023066, -0.5604295333303908, -0.9962006455981025, -0.8827114163709215, -0.48208684010430924, -0.232405860180932, 0.8943999466152177, -0.8947877806770401, -0.16221137450012502, 0.6533901592076823, -0.5505350438627215, 0.5115014053275857, -0.1737953986650178, -0.6436244671421552, -0.4768316516203617, 0.8668881832323796, -0.9359313496914323, 0.9463541256853059, -0.44963908623645166, 0.44600969974117444, -0.4796540116778314, -0.9601882453128527, 0.7744242499454519, -0.6126974249571602, -0.07903950742891852, -0.17972811234479646, 0.5703634506366495, 0.29310887194063384, 0.3265621424521663, 0.06111856514915459, -0.07953152607820724, 0.3604986485623356, -0.7216553971027111, 0.3322895677048472, 0.8271209580480767, -0.3925212834819094, -0.6914207553766356, 0.067979094004883, 0.3337251826027514, -0.8921999341545102, 0.8324413106790172, 0.7742667576033464, 0.02576240644468597, 0.7560086774976038, -0.48762161357988365, -0.3476982786101217, 0.4039487609780146, 0.07018745617427236, 0.7810224837590505, 0.988892683675688, -0.7376603922013623, 0.03382450790393632, 0.15370294820945252, 0.4380263444881447, -0.7414007612017561, 0.5007252646854203, -0.14906944658937027, 0.31074708876254653, 0.48478593064898523, -0.5969403733718155, -0.2646334936028616, -0.08232813580379417, -0.9755067234648551, -0.4200367544884469, 0.26131706419559797, 0.6970927989141031, -0.40445219145870714, 0.32356167957148374, -0.44227397227952236, 0.34876903857511965, -0.8061043798324534, -0.17353251761537947, -0.028785684912830733, 0.467242298060516, 0.5708332334426283, -0.5479772315680951, 0.2853803475864862, 0.12428399356688113, 0.37756504859869655, -0.007105320597843301, -0.7266275615987792, -0.28635657708791196, 0.9662830444707715, 0.4681555206669563, -0.027892638023770733, 0.3788124630476184, -0.9310613865778754, 0.5522140809241485, -0.9901025456331956, -0.7355352561563364, 0.48071608901956897, -0.7053767557770452, -0.9974866315561148, 0.1061837937309964, 0.42495177215136737, 0.9003955640477035, -0.9946140244388577, 0.8495364917555941, 0.8344480743779568, -0.7214680612311706, -0.6896909118304255, -0.5412575426473847, 0.8881163839996438, -0.15452591207858202, 0.18401827727868514, 0.0614621409840006, 0.9305912112596808, 0.2535575642542156, 0.5548601189979003, -0.628484528679786, 0.24139931243863733, -0.6038506507940666, 0.015670641008248998, 0.1181965874925619, -0.19125162365064186, 0.2914264162361955, 0.42244950766203804, 0.4545831332442474, -0.5280736442823752, -0.31001583383609543, 0.5038848468810406, -0.635486970523059, -0.4054852560151303, 0.7284882660092546, -0.11043550094923171, -0.39022771864695716, 0.6864563188910178, 0.2548739715402861, 0.4779034236417996, 0.9243935101921148, 0.7293691731901975, -0.17884497649998599, 0.14689084118126328, -0.8241372673171059, -0.8046776965727338, 0.2522390519296758, -0.5881902335183635, -0.3017162416259924, 0.5845567933459146, 0.5376399184605365, -0.5287356678947417, -0.549581448705792, -0.007631548422344592, -0.040310830108489126, 0.9475955772567122, 0.9707967213443371, 0.954483191224544, -0.026454831171170312, -0.916885173853953, 0.9246686738856356, -0.10935515762416936, -0.727468838477519, 0.8145927543386855, 0.9793126950954905, 0.7317506243524159, -0.6706365686361109, 0.040851703651030746, 0.9802726686230177, -0.5201096885115095, 0.2048032490402707, 0.6944533092644354, 0.07126224150559302, -0.5656930651227963, -0.2033677414554096, -0.2528486182235907, -0.8778904562799108, 0.7885368185861821, 0.8708197477977739, 0.6142833059194897, -0.8710491499440844, -0.9159507792698582, -0.46362388143850497, 0.19430786995829785, 0.73589595549582, -0.75419820657742, -0.7080901591870266, 0.14317768041818368, -0.7356379852979105, 0.11068160785370651, 0.08366552344581035, -0.003854578001321718, 0.6848754835296227, -0.44043882123254696, -0.7622055733615958, -0.7066874576836024, 0.9018538780047645, -0.8213575519045899, 0.1798657334871434, 0.925286190776387, 0.9389508139256766, 0.20232768428522063, 0.8579667620052585, -0.5823082152682546, 0.28507675047277026, -0.999148131344336, -0.7390688498951108, -0.8822802878559737, -0.7405111254466399, -0.41705698964099414, -0.17833838664834034, 0.0869321092714137, 0.09797245991224246, -0.34984282804649514, -0.6389211925545453, 0.3726379707371563, -0.9432543352250686, -0.8239710741039448, -0.17613149505780146, 0.3296284065817281, 0.9309976744962911, -0.9886689819154977, 0.4314513471605028, -0.7637777022611347, -0.365585958763635, -0.16657513092431286, -0.8558587242202724, 0.35306350057873126, -0.8250294569960692, -0.3762819633826151, 0.7874268282539496, -0.21036122329968232, 0.4350728690841801, 0.9547356146131158, 0.9140517039807421, 0.5530101371721488, 0.32462899990638094, 0.39984652666533926, -0.7765646201009229, -0.2471474574366661, 0.8155743444413435, 0.9246297224990878, -0.11131590107352296, -0.494004358650985, -0.8691564285380542, -0.6770304352286531, -0.25831905777698116, -0.9612401469406313, -0.07699432930864036, 0.36133618577533766, 0.3295030856818555, -0.8119577732416616, 0.5632163771822996, 0.15315216919292252, -0.19020623571940676, -0.729950515444219, 0.1343652489194096, -0.6960170027048838, -0.47223830569191017, -0.4402514151794079, -0.9347911764164187, 0.03897429572772726, -0.6930927239057516, -0.32141591402240643, -0.9432356301639078, 0.7788299577163433, 0.4555129434408638, 0.4920305333590689, -0.3555775137485824, 0.7183223958358493, 0.8051047932519173, 0.2699219772418191, -0.3580769030861617, 0.19607045197182082, -0.20593708906659525, 0.5387540045786257, -0.324518145271675, -0.216323447921005, 0.38855580178411064, -0.9142216676819861, -0.7651548031333004, -0.7197454082853909, 0.16731930277975438, -0.842842715892492, 0.08500710896622299, -0.2194299409451057, -0.308782622065348, 0.36690200895682756, 0.9829778571554786, 0.5937255290095522, 0.8275235650384969, 0.8357696506498284, -0.09097914331817081, -0.22766227793581884, 0.5388617370903865, -0.7154711168537249, -0.8196938552416007, 0.7697629025605761, 0.1915771635726209, 0.3579153928375385, 0.9401321356067986, 0.9922673029210589, -0.2696390017535073, 0.9285952793251069, 0.6527343685992866, -0.5165952882574543, -0.7458553892968736, -0.18846065508512577, -0.8104142608074716, 0.7965923735246745, -0.16155479587288402, 0.7620709183784484, 0.9231167965635867, 0.18295411909692993, -0.7722726273261209, 0.4509693934815724, 0.6880977020594341, 0.09824332689614401, -0.2115674682348625, -0.24966848943809494, 0.8579691663345883, -0.10785311907220474, -0.8592135300410031, -0.6949762965873609, 0.9067912836357839, -0.07013386308655112, -0.41279097866077463, -0.5504231276655682, 0.18994796991583396, -0.7421163098142756, 0.845537923661269, 0.5341351855852425, -0.5532130847024959, 0.9997774438149347, -0.5307996642391084, -0.31644124439198684, -0.9512551248835472, 0.3764710300559688, 0.8558267443167498, -0.8848037289081692, 0.6174116716148939, -0.062253858065994594, 0.9408662560570937, -0.2553158575338115, -0.7005732585137716, 0.16737614222338593, 0.9215636315331226, 0.5247452737232134, 0.5947421678116684, 0.6140070117534884, 0.9287182335999151, 0.8612812199196023, 0.04615546936581105, 0.7304055792833182, 0.758957731214805, 0.528794184255132, -0.6877776690986663, -0.2613735536108239, 0.7002245173744805, -0.2933285632791034, 0.5137785338948504, 0.2713824566167957, -0.10021239309035712, -0.5732809224860675, 0.5012989680812552, 0.07630277474729286, -0.9240580749385754, -0.03383512929588628, -0.0016574537314169024, -0.7697616881683655, 0.982093274377094, 0.38877115930528006, 0.582093211923395, 0.2564267225996675, 0.199475670354601, 0.37763301893111256, 0.8510163551453829, -0.9432539236091873, -0.6701432938637923, 0.5308560241311022, -0.5445186776295192, -0.7072510447718601, 0.05154974314948513, 0.8117250650428567, 0.6810143631902064, -0.5345627234020167, 0.8286068219530616, 0.9395864997723493, 0.2921823452644339, -0.549623378462267, 0.34983660943737704, -0.731586284655932, 0.6840178984955958, 0.2990834718199853, -0.1678296068099867, 0.11667524680478114, -0.8875112043979665, -0.4393545104644254, 0.705946280926834, 0.7075874476530921, 0.0152299995102676, 0.6362111680343943, 0.3509642042801724, 0.18177829151249636, -0.2152734105109977, 0.2905558874415326, 0.07619533527850675, -0.541190688096457, 0.7733071638470781, 0.08763668679311709, 0.7827572499549706, 0.030201261035215587, 0.48531746936994713, -7.131948966732082e-05, 0.9171902695420087, 0.9171980006041167, -0.004921247451355137, -0.17874819738409853, 0.0647334458403257, 0.3113906296676485, 0.468472590135125, 0.8541645790977956, 0.2920796898756033, 0.968572414850319, 0.04099269164079855, 0.8038226938668269, 0.6486218284051048, 0.6636577114538333, 0.3661903578965473, -0.23142536793269564, -0.531713151399049, -0.4002659009101033, 0.3405298769415568, -0.28231034928017884, 0.3586585908025317, 0.2584281264484327, -0.08556504616047511, -0.6078779780206716, -0.7899925809457662, 0.7123317096338453, -0.5997953795172892, -0.873933265518785, -0.9393026824891468, 0.39752079503889703, -0.9946925097608055, -0.35681221587800804, 0.006376656379750045, 0.44954590525662397, -0.788516937483231, 0.3134589987698946, -0.6947805523231054, -0.4640425497180687, 0.35571785718943594, -0.06999230733986384, 0.8181112580860288, -0.9595824364017078, 0.6053433036590863, -0.9624152941198167, -0.7075903420993974, 0.717197376809217, -0.02958742112153878, -0.0976275033946119, 0.42134302036883065, 0.13540865638752209, -0.35090691309429034, 0.42201753001179565, -0.15715627141838984, 0.05644413433333151, 0.06021844528287135, 0.1560018073218976, 0.697394705930211, 0.39882736384512274, 0.38273301640003354, 0.0657731202723224, -0.3515342608180927, 0.42139158712813796, 0.39068719593443424, -0.20824336356254758, 0.09148615219426248, -0.2885977908805937, 0.8228472498815056, 0.6681802302684678, 0.53416671703334, -0.6564954759007808, 0.87615339720547, 0.3873544974207872, 0.8879911792090469], [-0.4537751315692211, -0.29944216252820866, -0.6968809357013785, 0.22203692122383978, -0.6652138270047092, -0.15311425140687818, -0.8614621348768672, -0.6988255254587563, 0.3327167431985856, 0.6204943839257215, 0.7451518780294064, -0.6114259451341779, -0.0801137678022672, 0.04114354362143269, -0.5867650720095725, -0.8638568838809464, 0.8146565530616217, -0.2914925385654086, 0.08327511733575821, -0.9249943898218895, 0.5518077411278914, 0.6139689478881964, -0.8316783905333685, -0.42333028614512513, -0.08528562444925347, 0.4683005041862076, -0.6740922003599938, -0.20261687012167018, 0.952690951322658, -0.9513284718391126, -0.49403060259479314, 0.7591405748201077, 0.6483567280330282, 0.20642374990841272, -0.19671130644865875, 0.9417390855175123, 0.11298920146253999, -0.23816201345290944, 0.23553166011009763, -0.5785759705600253, 0.3817587405298686, 0.5303059515703268, 0.3545493472271579, -0.2414601018317324, 0.8660369894451121, 0.9508811798144357, 0.16675219683304987, -0.27435778980119396, -0.8206161811906592, -0.028580594412698, 0.5722672241273836, -0.2998191647059141, -0.6187097424384289, -0.6683705449802517, -0.22556973449448403, -0.8380252777411881, 0.09002804308851031, -0.48117535757963115, -0.7019983077008087, 0.8310858306713103, -0.9360782052141559, 0.8196315005626642, 0.19763458303398052, 0.18544459850717554, 0.4593617047167482, 0.7552584532529112, -0.6438811063905738, -0.627412320940856, 0.3528678117482065, -0.03148855412841933, 0.7301116920918507, 0.45571416620731564, -0.6542065878888794, 0.43905481514175815, 0.0018289923398926433, -0.6791400966582299, 0.8757214135616074, -0.2400904587066266, -0.5841714959708302, 0.2706626986513909, 0.5107436389719462, -0.5663768748137097, 0.8308810736094856, 0.5521898511666796, 0.24420316468660275, -0.5647553674365959, 0.5103538469660556, -0.8813902152162503, -0.26327727191256245, 0.805282959953924, 0.07189021261861472, -0.553219597919949, 0.3613064895793905, -0.8319232253144646, -0.06047239337557775, -0.025918372178958426, 0.7849786546289816, -0.6900815118723036, -0.6057623261092573, 0.04942706913857875, 0.07713009565817819, 0.581201406585746, -0.2204010808923702, 